1.179055124521255493e-01
-2.415440417826175690e-02
-1.702070236206054688e-03
9.425184130668640137e-02
8.692794293165206909e-02
8.500957489013671875e-02
8.103823661804199219e-02
3.530243039131164551e-02
3.257519751787185669e-02
4.218917712569236755e-02
6.594316661357879639e-02
-3.470003977417945862e-02
-8.337517082691192627e-02
-2.427109517157077789e-02
4.908541962504386902e-02
9.311084449291229248e-02
4.212893173098564148e-02
4.247488826513290405e-02
5.227241292595863342e-02
-1.271415781229734421e-02
-3.678681096062064171e-03
2.146180346608161926e-02
6.284758448600769043e-02
-4.425451532006263733e-02
-5.895482748746871948e-02
4.540106654167175293e-02
-2.643345110118389130e-02
-1.975350081920623779e-02
-5.661662202328443527e-03
-1.221575308591127396e-02
6.880053132772445679e-02
2.703811600804328918e-02
-6.693796720355749130e-03
3.773438930511474609e-02
-7.706327736377716064e-02
-2.402805164456367493e-02
2.741705626249313354e-02
3.480974584817886353e-02
-1.034644059836864471e-02
-9.637732058763504028e-02
-2.461683936417102814e-03
-9.090049564838409424e-02
1.863564178347587585e-02
-3.469112515449523926e-02
2.696868218481540680e-02
1.052042171359062195e-01
-2.280785143375396729e-02
5.687716975808143616e-02
9.511754661798477173e-02
1.453820765018463135e-01
1.686972081661224365e-01
7.671850919723510742e-02
7.089053839445114136e-02
2.234623767435550690e-02
-3.866111487150192261e-02
-6.179594993591308594e-02
-9.599219262599945068e-02
-8.174359798431396484e-02
-9.020729362964630127e-02
-5.215298756957054138e-02
6.669940054416656494e-02
1.240321397781372070e-01
-1.116100177168846130e-01
4.875100776553153992e-02
-3.367710486054420471e-02
9.171386063098907471e-02
-1.473935879766941071e-02
-1.369760185480117798e-01
1.677062921226024628e-02
-1.037542521953582764e-02
1.127350926399230957e-01
-1.209461595863103867e-02
7.687701378017663956e-03
-6.893641501665115356e-02
2.386785112321376801e-02
2.306417003273963928e-02
4.187995567917823792e-02
1.348740309476852417e-01
1.067865826189517975e-02
-6.529786624014377594e-04
7.250044494867324829e-02
1.850229687988758087e-02
-3.325652703642845154e-02
-9.455712884664535522e-02
1.099727489054203033e-02
5.566819105297327042e-03
-2.791930548846721649e-02
6.928849965333938599e-02
9.271639585494995117e-02
-3.242397308349609375e-02
1.505980044603347778e-01
-1.014862023293972015e-02
1.930927038192749023e-01
-5.011241137981414795e-02
6.546076387166976929e-02
-1.255480013787746429e-02
3.193674609065055847e-02
1.815891861915588379e-01
8.468811213970184326e-02
6.345218420028686523e-02
-2.683674171566963196e-02
1.338594406843185425e-02
1.600466668605804443e-01
3.225110471248626709e-02
-2.326520159840583801e-02
4.680680856108665466e-02
1.868198439478874207e-02
-1.224328130483627319e-01
7.130579650402069092e-02
1.160612553358078003e-01
1.721537560224533081e-01
4.214014112949371338e-02
-2.707264013588428497e-02
4.883391782641410828e-02
4.945793747901916504e-02
-7.922361604869365692e-03
-6.847608089447021484e-02
-3.620676323771476746e-02
4.378297552466392517e-02
5.298475152812898159e-04
2.108360640704631805e-02
-5.054933205246925354e-02
8.611267432570457458e-03
-5.413687229156494141e-02
5.996456742286682129e-02
-7.114041596651077271e-02
1.606945879757404327e-02
1.017812043428421021e-01
