1.690655648708343506e-01
-1.622067205607891083e-02
1.716991215944290161e-01
-4.501948133111000061e-02
5.139998160302639008e-03
1.146718189120292664e-01
3.466729447245597839e-02
-3.815981000661849976e-02
5.098859220743179321e-02
4.896462336182594299e-02
1.323927752673625946e-02
3.419636283069849014e-03
9.030802547931671143e-02
-4.392560198903083801e-02
-4.504947736859321594e-02
7.700859569013118744e-03
1.165352538228034973e-01
-7.104533165693283081e-02
-4.208026081323623657e-02
2.548141777515411377e-02
1.841922551393508911e-01
2.485467866063117981e-02
1.028662249445915222e-01
3.634890541434288025e-02
1.288322210311889648e-01
1.780708879232406616e-02
5.548420175909996033e-02
-5.033658444881439209e-02
7.797706872224807739e-02
1.299219876527786255e-01
5.870883539319038391e-02
-1.346645206212997437e-01
6.709977239370346069e-02
-9.171556681394577026e-03
6.416874378919601440e-02
6.262256205081939697e-02
-4.819040372967720032e-02
4.448435083031654358e-02
-3.732609748840332031e-02
-8.203006535768508911e-02
1.051560789346694946e-01
2.093876898288726807e-02
7.715589553117752075e-02
1.172516122460365295e-02
-7.701030373573303223e-02
1.555574941448867321e-03
9.378174692392349243e-02
2.750111371278762817e-02
6.629419326782226562e-02
-4.076876863837242126e-02
1.020250394940376282e-01
1.044664680957794189e-01
-1.859556511044502258e-02
2.354368753731250763e-02
-8.957140147686004639e-03
1.381614059209823608e-01
-5.233529955148696899e-02
1.667014658451080322e-01
-6.982648372650146484e-02
-4.634483903646469116e-02
2.008068412542343140e-01
-2.555976808071136475e-02
4.509527608752250671e-02
-4.617094248533248901e-02
