-2.243590354919433594e-01,-2.280775308609008789e-01,3.159546554088592529e-01,2.783757634460926056e-02,2.385902851819992065e-01,1.787445545196533203e-01,2.047753930091857910e-01,1.967110037803649902e-01,-1.600806415081024170e-01,2.182305753231048584e-01,3.697155416011810303e-02,-9.543962776660919189e-02,-1.215250343084335327e-01,-2.228967659175395966e-02,-3.972471132874488831e-02,2.643290720880031586e-02,-2.142967656254768372e-02,6.670536100864410400e-02,3.627495169639587402e-01,2.035259455442428589e-01,2.703828215599060059e-01,5.008126050233840942e-02,-8.255847729742527008e-03,1.373918950557708740e-01,-1.457439661026000977e-01,1.088487878441810608e-01,-1.385031789541244507e-01,-2.866437733173370361e-01,-1.405610889196395874e-01,-9.713514894247055054e-02,-2.840754091739654541e-01,-3.807093575596809387e-02,-5.312850326299667358e-02,-1.119148507714271545e-01,-3.739280104637145996e-01,-3.290989100933074951e-01,5.951693281531333923e-02,-8.561509102582931519e-02,1.079550683498382568e-01,2.209013514220714569e-02,7.879540324211120605e-02,1.132315248250961304e-01,-4.929371178150177002e-01,1.819196492433547974e-01,2.339628711342811584e-02,-1.266571730375289917e-01,-6.693159043788909912e-02,-3.169122934341430664e-01,-1.659763753414154053e-01,-3.448513746261596680e-01,-2.725340239703655243e-02,-3.974592685699462891e-01,3.102415800094604492e-01,2.068756669759750366e-01,1.971214711666107178e-01,-1.248797997832298279e-01,6.945749372243881226e-02,2.631344199180603027e-01,-4.209427908062934875e-02,1.451874524354934692e-01,5.749622825533151627e-03,1.610483229160308838e-01,1.726557612419128418e-01,-5.174506306648254395e-01
2.017221972346305847e-02,3.826576471328735352e-02,1.237188726663589478e-01,-2.821406424045562744e-01,-1.015275642275810242e-01,9.740671142935752869e-03,2.077288329601287842e-01,1.546648889780044556e-01,-6.308661401271820068e-02,-1.157196424901485443e-02,8.108428120613098145e-02,7.245207577943801880e-02,-7.764485478401184082e-02,1.417334079742431641e-01,7.265194505453109741e-02,2.185156941413879395e-02,7.289018481969833374e-02,-8.730689436197280884e-02,1.662696339190006256e-02,-1.297952085733413696e-01,-8.207613974809646606e-02,-1.384572982788085938e-01,-1.653451323509216309e-01,1.314598619937896729e-01,1.808971464633941650e-01,8.502965420484542847e-02,-2.243097275495529175e-01,-2.550033330917358398e-01,-2.042068727314472198e-02,2.494652569293975830e-02,-1.212770640850067139e-01,-4.126384854316711426e-03,-6.932617723941802979e-02,-9.344097226858139038e-02,-1.290239244699478149e-01,3.812835365533828735e-02,-2.113311588764190674e-01,-1.622541844844818115e-01,-7.901601493358612061e-02,3.450626507401466370e-02,1.385440826416015625e-01,-3.413082566112279892e-03,-1.390114277601242065e-01,-1.556960940361022949e-01,1.422332227230072021e-01,1.856395453214645386e-01,-1.236598342657089233e-01,-7.907690107822418213e-02,1.209346298128366470e-02,-8.866196870803833008e-02,1.012599617242813110e-01,6.604312360286712646e-02,-3.608933091163635254e-02,-4.376769065856933594e-03,-8.280289918184280396e-02,7.510206848382949829e-02,3.236890956759452820e-02,1.564190983772277832e-01,5.425315722823143005e-02,1.446446478366851807e-01,-4.145047441124916077e-02,1.116469055414199829e-01,2.102462351322174072e-01,-1.901930123567581177e-01
7.835374772548675537e-02,-1.033757328987121582e-01,1.115406751632690430e-01,1.147709265351295471e-01,1.670528948307037354e-01,-1.148630771785974503e-02,4.217815399169921875e-02,-1.181063726544380188e-01,-6.088078767061233521e-02,1.839836239814758301e-01,4.803901910781860352e-02,-5.021358653903007507e-02,1.888473145663738251e-02,9.936514834407716990e-05,1.627925336360931396e-01,1.858884841203689575e-01,1.537014394998550415e-01,1.794307082891464233e-01,2.373105138540267944e-01,-6.123079732060432434e-02,1.463794056326150894e-02,-5.404912680387496948e-02,5.917393043637275696e-02,-8.565588295459747314e-02,4.790030792355537415e-02,-1.345136314630508423e-01,1.903354539535939693e-03,1.884335130453109741e-01,-5.846531689167022705e-02,7.171410322189331055e-02,1.298009604215621948e-01,-7.634497433900833130e-02,9.823970496654510498e-02,1.579852849245071411e-01,1.144005805253982544e-01,1.249534487724304199e-01,-1.268853396177291870e-01,1.427328735589981079e-01,-6.553160399198532104e-02,-7.290618866682052612e-02,-8.660069853067398071e-02,-2.605783045291900635e-01,1.529565602540969849e-01,8.544535934925079346e-02,-2.104985862970352173e-01,-4.320221953094005585e-03,-5.316768586635589600e-02,9.310039132833480835e-02,-1.775987744331359863e-01,1.619845330715179443e-01,-5.887062102556228638e-02,-5.281136929988861084e-02,4.295428097248077393e-02,4.599449411034584045e-02,-2.835263013839721680e-01,3.931128978729248047e-02,-7.739095389842987061e-02,-2.725536748766899109e-02,2.675167284905910492e-03,-1.921670883893966675e-01,1.277086585760116577e-01,1.573808342218399048e-01,1.366434246301651001e-01,2.063186019659042358e-01
9.398306161165237427e-02,-1.320186853408813477e-01,2.568683028221130371e-01,-1.982129514217376709e-01,1.151007227599620819e-02,-3.783110529184341431e-02,2.278850376605987549e-01,9.037146717309951782e-02,8.231235295534133911e-02,-7.130335271358489990e-02,3.652613610029220581e-02,-5.209715664386749268e-02,1.203489005565643311e-01,1.754300743341445923e-01,-8.158318698406219482e-02,1.224302276968955994e-01,-4.479042813181877136e-02,3.823428601026535034e-02,3.114600852131843567e-02,2.248437553644180298e-01,-5.303055420517921448e-02,1.365624219179153442e-01,5.214488506317138672e-02,9.512665681540966034e-03,1.876753754913806915e-02,2.176849097013473511e-01,1.185102686285972595e-01,-9.851858019828796387e-03,-2.337297052145004272e-02,1.165932491421699524e-01,-2.763207629323005676e-02,1.066266745328903198e-02,-3.409372642636299133e-02,-1.344793140888214111e-01,-3.187322616577148438e-01,-1.632407493889331818e-02,-1.331889331340789795e-01,-1.492439657449722290e-01,2.396167516708374023e-01,-9.995036572217941284e-02,1.432404816150665283e-01,3.408982977271080017e-02,1.308957021683454514e-02,-1.236557215452194214e-01,-1.544325500726699829e-01,-1.018965542316436768e-01,-6.927584856748580933e-02,-2.158238291740417480e-01,-9.503868222236633301e-02,-2.527761459350585938e-01,6.815242022275924683e-02,2.617062069475650787e-02,1.428222060203552246e-01,-1.383903026580810547e-01,2.774716317653656006e-01,-1.220271587371826172e-01,-3.561908844858407974e-03,2.178941816091537476e-01,-3.094298578798770905e-02,2.539457976818084717e-01,7.206998020410537720e-02,-9.987346082925796509e-02,-7.556395232677459717e-02,-1.786027401685714722e-01
4.008206725120544434e-02,1.531880795955657959e-01,7.325175404548645020e-02,1.180511191487312317e-01,1.578025519847869873e-01,-1.787025034427642822e-01,1.523546501994132996e-02,-1.127419471740722656e-01,1.728568226099014282e-01,6.395481526851654053e-02,1.262762397527694702e-01,-1.426497399806976318e-01,1.694840043783187866e-01,4.183088988065719604e-02,-6.071132794022560120e-02,1.729913055896759033e-01,1.330716907978057861e-01,-1.397878974676132202e-01,1.398048251867294312e-01,-1.727917790412902832e-01,1.749805063009262085e-01,9.803245961666107178e-02,6.496129184961318970e-02,1.819339990615844727e-01,6.718408316373825073e-02,1.585431843996047974e-01,-2.114568650722503662e-01,-1.693076342344284058e-01,1.302061825990676880e-01,-5.425118654966354370e-02,-2.022782340645790100e-02,5.163773894309997559e-02,1.492448300123214722e-01,1.836698502302169800e-02,1.897757127881050110e-02,5.808697268366813660e-02,-4.348704218864440918e-02,3.363702818751335144e-02,-4.507635254412889481e-03,1.158517673611640930e-01,1.026039496064186096e-01,-1.190362274646759033e-01,1.438377499580383301e-01,1.193903908133506775e-01,1.218711435794830322e-01,-1.091452986001968384e-01,-4.942930862307548523e-02,7.257186621427536011e-02,-2.766013145446777344e-02,8.340799808502197266e-02,-5.364176630973815918e-02,-3.879948332905769348e-02,-6.062872707843780518e-03,8.593561500310897827e-02,-5.335202440619468689e-02,6.393923610448837280e-02,1.266117990016937256e-01,1.440748870372772217e-01,-4.469966515898704529e-02,-4.739745706319808960e-02,-3.561718389391899109e-02,-1.570520848035812378e-01,1.218295767903327942e-01,-3.149535357952117920e-01
-1.052884534001350403e-01,5.165183171629905701e-02,7.057988643646240234e-02,-1.395094096660614014e-01,-1.839742213487625122e-01,5.049665644764900208e-02,1.374962627887725830e-01,-1.169835962355136871e-02,1.077873855829238892e-01,2.700945436954498291e-01,2.770330989733338356e-03,8.759018965065479279e-03,1.379230618476867676e-02,3.811036795377731323e-02,-9.950196370482444763e-03,-1.664079725742340088e-01,2.039048075675964355e-01,1.277413368225097656e-01,6.674228236079216003e-03,5.091728642582893372e-02,2.568025887012481689e-01,1.881233900785446167e-01,1.849833577871322632e-01,1.261155456304550171e-01,1.307714581489562988e-01,1.329039782285690308e-01,-1.317140460014343262e-01,-2.222036868333816528e-01,-1.330806873738765717e-02,-1.276126354932785034e-01,-2.925703674554824829e-02,1.259257346391677856e-01,7.140183448791503906e-02,-1.658305972814559937e-01,1.848794706165790558e-02,-1.068040207028388977e-01,1.994023919105529785e-01,-1.287889629602432251e-01,5.407452955842018127e-02,-1.972220465540885925e-02,4.600841179490089417e-02,1.516769379377365112e-01,-3.193946480751037598e-01,2.423321129754185677e-03,7.572405040264129639e-02,-1.443508174270391464e-02,-3.819662705063819885e-02,-1.257274001836776733e-01,-1.185872852802276611e-01,-1.494313180446624756e-01,1.737570464611053467e-01,-4.364467039704322815e-02,1.895549446344375610e-01,4.938371852040290833e-02,1.858483254909515381e-01,1.692189462482929230e-02,7.347960770130157471e-02,1.899936944246292114e-01,-2.542578876018524170e-01,4.315025173127651215e-03,-1.784001663327217102e-02,1.093540713191032410e-01,1.379147724946960807e-04,-4.039564132690429688e-01
2.449349313974380493e-01,-2.039758116006851196e-01,3.623223304748535156e-01,4.154423251748085022e-02,1.385349482297897339e-01,4.734396561980247498e-02,-1.611687391996383667e-01,2.511084079742431641e-01,-2.315985597670078278e-02,6.917005777359008789e-02,-9.065002202987670898e-02,-2.027862519025802612e-01,1.267559081315994263e-01,1.613019555807113647e-01,2.226389199495315552e-01,2.432621642947196960e-02,-2.100086957216262817e-01,1.224013715982437134e-01,-4.649470373988151550e-02,3.542871028184890747e-02,2.093293964862823486e-01,-1.311230808496475220e-01,-8.968519419431686401e-02,-1.376208811998367310e-01,1.879041045904159546e-01,-2.589117363095283508e-02,-3.048693835735321045e-01,2.264031581580638885e-02,1.285493224859237671e-01,9.873028844594955444e-02,1.722833514213562012e-01,-3.571965917944908142e-02,-1.700643450021743774e-01,-1.698554158210754395e-01,1.760315895080566406e-01,-2.024056166410446167e-01,1.163211534731090069e-03,8.234509825706481934e-02,-1.470276713371276855e-01,1.462199836969375610e-01,2.450102418661117554e-01,-1.011706963181495667e-01,-4.559926316142082214e-02,-1.058458462357521057e-01,5.804194509983062744e-02,8.109677582979202271e-02,1.438953131437301636e-01,-4.937564209103584290e-02,-1.003407165408134460e-01,-1.578430682420730591e-01,2.482433319091796875e-01,1.562678813934326172e-01,1.016105338931083679e-01,1.239423081278800964e-01,-3.365888819098472595e-02,2.131700217723846436e-01,-2.111231088638305664e-01,3.106847703456878662e-01,-7.951446622610092163e-02,-3.410552740097045898e-01,1.680862456560134888e-01,-1.587383076548576355e-02,3.056175820529460907e-02,2.182351201772689819e-01
4.326826706528663635e-02,-2.158629707992076874e-02,-2.081340253353118896e-01,1.234271824359893799e-01,8.868402987718582153e-02,-3.689022734761238098e-02,4.157027900218963623e-01,1.232859790325164795e-01,3.268067836761474609e-01,1.473142951726913452e-01,2.751961536705493927e-02,-1.636494323611259460e-02,1.387647092342376709e-01,-9.310401231050491333e-02,-3.016900829970836639e-02,-1.489480882883071899e-01,-2.691267132759094238e-01,-9.782955050468444824e-02,-3.485032171010971069e-02,2.700771689414978027e-01,-2.198669016361236572e-01,1.278530657291412354e-01,-1.879495568573474884e-02,1.458649635314941406e-01,-1.038446649909019470e-02,2.567896544933319092e-01,-2.237084507942199707e-02,1.308899670839309692e-01,-6.835277378559112549e-02,-7.290623337030410767e-02,2.326328121125698090e-02,3.617294132709503174e-02,1.950547099113464355e-01,-3.220024108886718750e-01,2.780822515487670898e-01,-5.345084890723228455e-02,2.510100007057189941e-01,1.448164582252502441e-01,1.096151247620582581e-01,3.353060781955718994e-01,1.055852323770523071e-01,2.213288247585296631e-01,-6.530436128377914429e-02,2.533910870552062988e-01,1.442021597176790237e-02,6.219485402107238770e-02,-2.755719721317291260e-01,2.366755753755569458e-01,9.859504550695419312e-02,-1.317890081554651260e-02,-7.166487723588943481e-02,1.932027935981750488e-01,2.091070860624313354e-01,-1.779474616050720215e-01,1.613479256629943848e-01,2.112300843000411987e-01,2.155368477106094360e-01,-4.501514509320259094e-02,-3.832340985536575317e-02,1.354856044054031372e-01,-3.790808916091918945e-01,-5.335583910346031189e-02,1.008182391524314880e-01,2.089940607547760010e-01
-1.769435256719589233e-01,7.269313186407089233e-02,1.583272367715835571e-01,2.033721208572387695e-01,1.549447625875473022e-01,2.437753826379776001e-01,-2.143216580152511597e-01,3.588506951928138733e-02,-1.805217266082763672e-01,1.788127869367599487e-01,1.350945420563220978e-02,-4.896824434399604797e-02,-2.826742529869079590e-01,1.214803010225296021e-02,2.688588201999664307e-01,3.984321653842926025e-02,1.070503145456314087e-01,-1.819588616490364075e-02,1.703340411186218262e-01,8.033674955368041992e-02,-1.066286861896514893e-01,9.724171459674835205e-02,-9.541692584753036499e-02,-1.956110596656799316e-01,-1.608648449182510376e-01,-2.381010055541992188e-01,1.107155010104179382e-01,1.298293620347976685e-01,1.811595857143402100e-01,1.004121750593185425e-01,1.731933057308197021e-01,1.400567591190338135e-01,1.869122833013534546e-01,2.617276012897491455e-01,-8.069785684347152710e-02,1.837743371725082397e-01,5.695470049977302551e-02,-2.435478568077087402e-01,2.150756418704986572e-01,8.681225031614303589e-02,-1.882230788469314575e-01,1.928002685308456421e-01,-4.331262037158012390e-02,2.125889211893081665e-01,-2.448631674051284790e-01,3.008495271205902100e-02,-7.115409523248672485e-02,9.993443638086318970e-02,1.158729121088981628e-01,1.339052468538284302e-01,1.452491581439971924e-01,-2.114556282758712769e-01,4.144079610705375671e-02,1.963215023279190063e-01,-1.333608627319335938e-01,-1.405244022607803345e-01,4.942332580685615540e-02,-1.497041136026382446e-01,1.095705702900886536e-01,-1.572927385568618774e-01,1.450801733881235123e-02,7.059944421052932739e-02,4.476004838943481445e-02,-1.007450893521308899e-01
1.594548374414443970e-01,6.287242472171783447e-02,8.845786005258560181e-02,1.481403857469558716e-01,-1.836493462324142456e-01,6.783136725425720215e-02,-1.287474483251571655e-01,-1.320859491825103760e-01,1.779547035694122314e-01,1.546638607978820801e-01,-4.801998287439346313e-02,-1.663520336151123047e-01,1.045093089342117310e-01,-9.033652395009994507e-02,4.047412425279617310e-02,2.551783025264739990e-01,1.582149118185043335e-01,-1.723364144563674927e-01,-1.667584329843521118e-01,3.586329519748687744e-02,-1.394989788532257080e-01,1.333128809928894043e-01,7.479491829872131348e-02,-1.582433655858039856e-02,-5.823482200503349304e-02,-1.603618115186691284e-01,1.785401999950408936e-01,1.286876350641250610e-01,8.249725401401519775e-02,2.036366760730743408e-01,-2.504932694137096405e-02,-5.054152756929397583e-02,-1.961295679211616516e-02,1.125404164195060730e-01,1.660499423742294312e-01,-3.007238917052745819e-02,-9.938157349824905396e-02,-2.257063835859298706e-01,-1.390327960252761841e-01,-2.321665361523628235e-02,8.104334771633148193e-02,-2.693862840533256531e-02,-1.500213705003261566e-02,-5.950469523668289185e-02,6.195118278264999390e-02,-5.026750639081001282e-02,4.431266337633132935e-03,-5.184918642044067383e-02,1.004512161016464233e-01,1.725535839796066284e-02,7.472084462642669678e-02,-4.118008539080619812e-02,-1.775095164775848389e-01,-7.368045300245285034e-02,2.865204513072967529e-01,1.007578745484352112e-01,1.659511923789978027e-01,3.144431114196777344e-02,1.122665107250213623e-01,-2.630405873060226440e-02,-3.044397570192813873e-02,1.553527116775512695e-01,-1.404644101858139038e-01,-4.873811732977628708e-03
-2.348283976316452026e-01,9.682826697826385498e-02,-5.431981384754180908e-02,5.100290477275848389e-02,-2.517106011509895325e-02,-3.795345723628997803e-01,1.565101146697998047e-01,9.898777306079864502e-02,-1.370341926813125610e-01,5.671729147434234619e-02,3.039236366748809814e-01,-9.147563017904758453e-03,-1.592794656753540039e-01,4.588020220398902893e-02,1.796279400587081909e-01,-1.283109039068222046e-01,-2.100563496351242065e-01,6.481120735406875610e-02,9.564614295959472656e-02,-2.162413895130157471e-01,9.969254583120346069e-02,2.603559792041778564e-01,-2.594652175903320312e-01,-4.452576395124197006e-03,-1.648009121417999268e-01,1.246943771839141846e-01,3.952625766396522522e-02,-3.579622507095336914e-01,9.569543600082397461e-02,-4.731262028217315674e-01,1.506680250167846680e-01,1.410109549760818481e-01,-1.322723925113677979e-01,-3.118598833680152893e-02,-2.135650441050529480e-02,1.034965738654136658e-01,-1.334112584590911865e-01,9.764497727155685425e-02,-5.190845206379890442e-02,1.833201050758361816e-01,-2.187430560588836670e-01,-2.061091549694538116e-02,-2.663054876029491425e-02,-6.167649477720260620e-02,2.143056094646453857e-01,-2.579708397388458252e-02,-1.925371885299682617e-01,1.188986375927925110e-01,-1.025366336107254028e-01,1.336283683776855469e-01,-2.240626960992813110e-01,-1.533109545707702637e-01,5.044920742511749268e-02,3.116154670715332031e-01,4.311070591211318970e-02,2.453431934118270874e-01,1.632559671998023987e-02,1.408142000436782837e-01,-8.229911327362060547e-02,1.515620946884155273e-01,3.050669655203819275e-02,-4.016105234622955322e-01,2.333825230598449707e-01,-1.702206134796142578e-01
-8.716364204883575439e-02,1.556706875562667847e-01,7.325397338718175888e-03,-2.268393933773040771e-01,-2.366566956043243408e-01,2.874459512531757355e-02,8.380138315260410309e-03,-2.804209478199481964e-03,5.541948601603507996e-03,3.980048298835754395e-01,-2.815530868247151375e-03,-6.041099876165390015e-02,-2.865520715713500977e-01,-1.626122146844863892e-01,-7.027371227741241455e-02,-8.229278028011322021e-02,-5.333370715379714966e-02,-2.165475934743881226e-01,-2.485681138932704926e-02,2.883571572601795197e-02,2.841050624847412109e-01,2.203374058008193970e-01,-1.769698411226272583e-01,-9.147167205810546875e-02,3.119866363704204559e-02,3.516893833875656128e-02,-1.729378998279571533e-01,-2.937215566635131836e-01,-1.060354113578796387e-01,-2.126862853765487671e-01,-2.261498272418975830e-01,1.396429389715194702e-01,3.159179687500000000e-01,-9.332846850156784058e-02,7.461975514888763428e-02,-1.111061684787273407e-02,1.099173501133918762e-01,-3.040491640567779541e-01,1.211406588554382324e-01,-2.636775374412536621e-01,-1.101662367582321167e-01,-1.100714430212974548e-01,-5.708421394228935242e-02,-1.132528390735387802e-02,5.774479359388351440e-03,-3.598396899178624153e-03,-2.018589675426483154e-01,-1.715552806854248047e-01,1.526091843843460083e-01,1.480075120925903320e-01,9.858138114213943481e-02,-1.225183084607124329e-01,-1.019247397780418396e-01,1.046477258205413818e-01,8.557447791099548340e-02,-7.938588410615921021e-02,1.596146225929260254e-01,1.916064023971557617e-01,1.713877767324447632e-01,1.380552798509597778e-01,8.396389335393905640e-02,5.396368354558944702e-02,-7.397747039794921875e-02,1.254078745841979980e-01
-7.468598335981369019e-02,-2.953980490565299988e-02,-1.713351309299468994e-01,-2.371305823326110840e-01,-1.862042397260665894e-01,-4.355649277567863464e-02,1.189415007829666138e-01,4.429153166711330414e-03,-2.795841079205274582e-03,5.507459491491317749e-02,9.225911647081375122e-02,-9.048730134963989258e-02,9.601119905710220337e-02,1.190446540713310242e-01,-9.535330533981323242e-02,-1.850225180387496948e-01,-1.090940982103347778e-01,1.763308607041835785e-02,6.780544668436050415e-02,-3.512725234031677246e-01,-4.515739530324935913e-02,-1.029508337378501892e-01,-9.199885278940200806e-02,-7.782266288995742798e-02,-8.662283420562744141e-02,5.616690963506698608e-02,9.546911716461181641e-02,8.992759138345718384e-02,-1.695680916309356689e-01,1.504490673542022705e-01,7.610575854778289795e-02,9.785372763872146606e-02,-1.279879063367843628e-01,2.325246296823024750e-02,1.573229879140853882e-01,-7.327865809202194214e-02,-1.411223560571670532e-01,5.419544503092765808e-02,1.153576448559761047e-01,9.563210606575012207e-02,6.736479699611663818e-02,1.224331110715866089e-01,-1.126521900296211243e-01,9.136559814214706421e-02,9.429822862148284912e-02,-5.553673580288887024e-02,-1.134705170989036560e-01,1.373815536499023438e-01,-1.428293436765670776e-01,1.362023353576660156e-01,-3.351318836212158203e-02,1.849247813224792480e-01,2.003939151763916016e-01,1.159941256046295166e-01,-3.218419104814529419e-02,3.310823068022727966e-02,5.228323861956596375e-02,-4.581301286816596985e-02,-2.156081050634384155e-01,2.645138800144195557e-01,-2.029415816068649292e-01,-2.336580306291580200e-01,-6.512119621038436890e-02,-1.408173739910125732e-01
9.841827675700187683e-03,-2.336528338491916656e-02,-2.079581022262573242e-01,1.151695623993873596e-01,-1.579794436693191528e-01,-4.040633141994476318e-02,-1.334912329912185669e-01,-2.014396339654922485e-01,1.903970688581466675e-01,4.851078242063522339e-02,1.325172334909439087e-01,-1.560656130313873291e-01,-1.978784799575805664e-02,1.779507845640182495e-01,7.056627422571182251e-02,-9.359630197286605835e-02,1.833672523498535156e-01,1.732759922742843628e-01,-9.523675590753555298e-02,1.360125690698623657e-01,1.969140172004699707e-01,-2.690152823925018311e-01,7.586669176816940308e-02,1.840864270925521851e-01,1.426727771759033203e-01,-1.410880535840988159e-01,1.035621687769889832e-01,-4.490380734205245972e-02,3.217001259326934814e-02,6.176187470555305481e-02,2.027584984898567200e-02,-1.068360283970832825e-01,-2.123507559299468994e-01,-3.401781618595123291e-02,-1.515209525823593140e-01,1.340300291776657104e-01,1.326833572238683701e-02,-1.025245338678359985e-02,-6.845906376838684082e-02,9.556028246879577637e-02,1.320095360279083252e-01,-1.198546588420867920e-01,-1.109225079417228699e-01,-1.414925307035446167e-01,-1.160218496806919575e-03,-1.138940453529357910e-01,2.105447351932525635e-01,-1.046171970665454865e-02,-1.070435196161270142e-01,4.484476521611213684e-02,-5.535742267966270447e-02,2.154668420553207397e-02,-8.152400702238082886e-02,5.297955870628356934e-02,-4.306583106517791748e-02,1.172381564974784851e-01,-1.064469199627637863e-02,1.474299132823944092e-01,5.810161679983139038e-02,2.389367818832397461e-01,4.532155394554138184e-02,1.691965162754058838e-01,-9.203200787305831909e-02,-3.188518434762954712e-02
7.974286377429962158e-02,-3.635331690311431885e-01,1.384726166725158691e-01,-2.082972973585128784e-01,1.108949407935142517e-01,3.148296177387237549e-01,9.111385792493820190e-02,-4.440806433558464050e-02,3.828620612621307373e-01,3.901813924312591553e-02,-1.127728894352912903e-01,-1.098498255014419556e-01,-1.368360221385955811e-01,-9.064652957022190094e-03,-2.996523082256317139e-01,4.793277755379676819e-02,3.203605115413665771e-01,-4.134422540664672852e-01,8.683791756629943848e-02,2.320603653788566589e-02,1.942140907049179077e-01,1.016428023576736450e-01,2.543908357620239258e-01,-1.566370576620101929e-01,2.696462571620941162e-01,-1.053844019770622253e-01,-1.202985718846321106e-01,-1.854923516511917114e-01,2.825443446636199951e-01,1.669716536998748779e-01,-9.181962907314300537e-02,-1.300281286239624023e-01,2.589376829564571381e-02,-3.495778441429138184e-01,2.417241185903549194e-01,1.437542121857404709e-02,-6.698911637067794800e-02,-1.432760655879974365e-01,1.779375374317169189e-01,-4.288356006145477295e-02,9.712026268243789673e-02,1.217775046825408936e-01,5.452085658907890320e-02,9.664267301559448242e-02,-1.246280521154403687e-01,-7.514689117670059204e-02,-6.165394932031631470e-02,-1.666049510240554810e-01,8.183599263429641724e-02,3.136335685849189758e-02,-4.484066367149353027e-02,-8.844796568155288696e-02,3.063188493251800537e-01,-1.668867468833923340e-01,-5.237930640578269958e-02,-9.541734308004379272e-02,-1.777146160602569580e-01,6.298618763685226440e-02,9.230814874172210693e-02,-3.330850303173065186e-01,-3.968895971775054932e-02,1.983139663934707642e-01,4.170180857181549072e-02,-8.382809907197952271e-02
2.335153520107269287e-01,1.436563134193420410e-01,1.963626146316528320e-01,8.254753053188323975e-02,-6.982438266277313232e-02,-1.302536670118570328e-02,-2.721636593341827393e-01,2.821064293384552002e-01,-5.447011813521385193e-02,-9.025872498750686646e-02,6.862694025039672852e-02,3.522709757089614868e-02,4.587302915751934052e-03,-1.020431071519851685e-01,1.304526925086975098e-01,-4.868713021278381348e-02,-3.448306918144226074e-01,1.381843835115432739e-01,1.071539297699928284e-01,9.546683169901371002e-03,-2.306481301784515381e-01,2.960198819637298584e-01,-3.839531838893890381e-01,1.062535867094993591e-01,6.134831532835960388e-02,-1.411342471837997437e-01,-1.402465105056762695e-01,2.845884859561920166e-01,1.850491762161254883e-01,3.800348341464996338e-01,-2.373776882886886597e-01,-7.670775055885314941e-02,-1.202902048826217651e-01,2.127849310636520386e-01,-8.034195005893707275e-02,-1.276673376560211182e-02,-8.102807216346263885e-03,3.158858418464660645e-01,-2.039951384067535400e-01,8.521959185600280762e-02,-1.427523791790008545e-02,-1.009711474180221558e-01,-1.244587674736976624e-01,4.818062484264373779e-02,2.412915080785751343e-01,-1.878654360771179199e-01,4.260157793760299683e-02,1.568363755941390991e-01,-6.969695538282394409e-02,1.504071336239576340e-02,-2.365622073411941528e-01,8.470290154218673706e-02,6.691388040781021118e-02,9.784501045942306519e-02,-3.605898320674896240e-01,2.119979113340377808e-01,-2.009760290384292603e-01,2.376133054494857788e-01,-3.206405639648437500e-01,-2.412016689777374268e-01,-1.256406158208847046e-01,-1.563731133937835693e-01,-5.292680114507675171e-02,1.649176776409149170e-01
1.343832463026046753e-01,-1.138352081179618835e-01,-1.718666404485702515e-02,1.328558921813964844e-01,9.201263636350631714e-02,1.835185438394546509e-01,2.018800936639308929e-02,9.314734488725662231e-02,6.702854484319686890e-02,-5.761760473251342773e-02,-1.491891145706176758e-01,2.186357676982879639e-01,7.332993298768997192e-02,-8.867492526769638062e-02,5.209347978234291077e-02,-2.778628468513488770e-01,-5.355286225676536560e-02,-5.703212320804595947e-02,-2.800460346043109894e-02,9.936498105525970459e-02,4.403792321681976318e-02,5.308997258543968201e-02,2.325922399759292603e-01,-1.070088669657707214e-01,1.616660803556442261e-01,1.404536664485931396e-01,-3.580599129199981689e-01,-1.897179633378982544e-01,-4.771377146244049072e-02,-5.478865653276443481e-02,2.845071442425251007e-02,-2.717962265014648438e-01,-3.067450523376464844e-01,-1.064185947179794312e-01,-1.097779795527458191e-01,-3.279870375990867615e-02,-1.724733263254165649e-01,2.133341319859027863e-02,-1.518298089504241943e-01,8.118382096290588379e-02,7.585255056619644165e-02,5.686765164136886597e-02,-1.762075424194335938e-01,1.146185770630836487e-01,5.084231868386268616e-02,7.335477322340011597e-02,2.576233744621276855e-01,-8.015507459640502930e-02,-2.018149048089981079e-01,-2.333216369152069092e-01,2.933134734630584717e-01,1.904346197843551636e-01,1.008414700627326965e-01,1.128661110997200012e-01,1.064650788903236389e-01,-3.627459285780787468e-03,5.485607683658599854e-02,6.124487146735191345e-02,2.265710532665252686e-01,-1.074825078248977661e-01,1.403071284294128418e-01,7.748806476593017578e-02,-9.176720678806304932e-02,-9.229432046413421631e-02
-1.646173000335693359e-01,-1.012955382466316223e-01,6.678389012813568115e-02,-3.925349414348602295e-01,-1.279623955488204956e-01,-2.442490309476852417e-01,1.186248883605003357e-01,3.580667078495025635e-01,9.660148993134498596e-03,3.836119771003723145e-01,1.954890042543411255e-02,-1.891446709632873535e-01,-1.473839282989501953e-01,1.808857917785644531e-01,-1.353048682212829590e-01,2.142997682094573975e-01,1.301667392253875732e-01,2.393699288368225098e-01,1.180765852332115173e-01,-1.798430085182189941e-01,1.213321611285209656e-01,1.349520683288574219e-02,-1.502220481634140015e-01,3.064608871936798096e-01,-9.337396919727325439e-02,1.202558502554893494e-01,1.057568415999412537e-01,-2.807241380214691162e-01,-1.321966201066970825e-01,-2.446613833308219910e-02,-1.343647390604019165e-01,5.577867478132247925e-02,2.924307584762573242e-01,1.572262197732925415e-01,-1.167048737406730652e-01,1.636404395103454590e-01,-1.001936197280883789e-01,-1.297022849321365356e-01,-7.784058153629302979e-02,1.277000010013580322e-01,-8.746801875531673431e-03,-9.724003076553344727e-02,-1.395058184862136841e-01,-2.222805470228195190e-01,-1.966042071580886841e-01,8.190033584833145142e-02,2.096736133098602295e-01,5.824202671647071838e-02,-2.227557599544525146e-01,-1.237463727593421936e-01,2.559681981801986694e-02,-1.696061491966247559e-01,2.046281658113002777e-02,-1.347752064466476440e-01,-7.933059334754943848e-02,5.677542090415954590e-02,-1.111307367682456970e-02,3.749102354049682617e-02,6.211299449205398560e-02,-6.434449553489685059e-02,-6.083681806921958923e-02,-3.267795220017433167e-02,2.964346110820770264e-02,-7.375662028789520264e-02
-2.904308438301086426e-01,-9.438536316156387329e-02,-2.058529406785964966e-01,1.924934387207031250e-01,-3.041107058525085449e-01,-6.831464171409606934e-02,1.391951739788055420e-01,1.895962506532669067e-01,7.295039296150207520e-02,5.821028724312782288e-02,1.634988933801651001e-01,-2.488607913255691528e-02,-1.100908517837524414e-01,7.060077041387557983e-02,1.609565466642379761e-01,-4.132272675633430481e-02,-1.505872160196304321e-01,-1.105910092592239380e-01,2.486648857593536377e-01,-9.282785467803478241e-03,-6.913979351520538330e-02,4.511924833059310913e-02,-2.634453475475311279e-01,-8.177347481250762939e-02,-2.416264116764068604e-01,3.802181780338287354e-01,-3.751767799258232117e-02,-3.720500469207763672e-01,-1.782161742448806763e-01,-3.672561049461364746e-01,1.028012409806251526e-01,1.888897716999053955e-01,2.316774427890777588e-02,7.712622731924057007e-02,-2.917892336845397949e-01,-1.091347113251686096e-01,9.777579456567764282e-02,-2.441531866788864136e-01,-2.980330958962440491e-02,2.782175503671169281e-02,-3.123584985733032227e-01,-5.209175497293472290e-02,-1.816293448209762573e-01,-2.112437784671783447e-01,2.621226906776428223e-01,-7.639535516500473022e-02,-2.096140682697296143e-01,-1.109676212072372437e-01,-2.760153263807296753e-02,9.168309718370437622e-02,-6.123860925436019897e-02,-3.834790885448455811e-01,2.563145160675048828e-01,-5.802704021334648132e-02,1.575338244438171387e-01,-1.800587475299835205e-01,1.443288773298263550e-01,-1.457000374794006348e-01,1.168171688914299011e-01,1.999840587377548218e-01,-6.357528269290924072e-02,1.367522869259119034e-02,1.447160840034484863e-01,-5.668210387229919434e-01
5.711818858981132507e-02,2.145438455045223236e-02,-2.140848189592361450e-01,1.976206200197339058e-03,-8.602533489465713501e-02,-4.819947481155395508e-01,2.720921039581298828e-01,3.761513829231262207e-01,-3.135274946689605713e-01,2.965978682041168213e-01,7.656336575746536255e-02,-3.609890863299369812e-02,4.470017254352569580e-01,3.271074891090393066e-01,-4.378836452960968018e-01,1.042334130033850670e-03,6.986036896705627441e-02,4.984640479087829590e-01,-3.157484531402587891e-01,-2.967684864997863770e-01,-1.181928515434265137e-01,8.629990369081497192e-02,-9.610153734683990479e-02,2.450170218944549561e-01,-3.460144102573394775e-01,9.067389369010925293e-02,-1.252344157546758652e-02,-1.115425955504179001e-02,-1.937563568353652954e-01,-3.213311433792114258e-01,-1.505902260541915894e-01,2.056593298912048340e-01,1.817319244146347046e-01,-2.382334023714065552e-01,-3.019898533821105957e-01,-2.535173669457435608e-02,3.573607653379440308e-02,2.206263691186904907e-01,-3.345846384763717651e-02,3.301761746406555176e-01,1.292645186185836792e-01,-2.237627841532230377e-02,5.102583765983581543e-02,1.520175486803054810e-01,-1.606903523206710815e-01,8.976686000823974609e-02,1.774712204933166504e-01,3.013348281383514404e-01,4.917164146900177002e-02,-1.985104978084564209e-01,5.570771172642707825e-02,1.523140370845794678e-01,-5.383684635162353516e-01,2.117852121591567993e-02,9.625256061553955078e-02,2.702582776546478271e-01,2.512510120868682861e-01,-7.892634719610214233e-02,-3.721303343772888184e-01,4.035790860652923584e-01,-3.614393174648284912e-01,-1.356790214776992798e-01,-2.974385023117065430e-01,-8.804197609424591064e-02
1.673183590173721313e-01,3.049173355102539062e-01,-1.519623491913080215e-02,-1.016594246029853821e-01,9.631791710853576660e-02,-8.534596115350723267e-02,-2.097271084785461426e-01,3.244448304176330566e-01,-3.279765844345092773e-01,1.908684708178043365e-02,8.948384970426559448e-02,2.495479732751846313e-01,4.001699760556221008e-02,3.952607512474060059e-01,1.865868717432022095e-01,-6.332508474588394165e-02,1.124643906950950623e-01,4.457424581050872803e-01,-3.962976932525634766e-01,-2.260754704475402832e-01,-5.932967178523540497e-03,1.646688580513000488e-02,3.403683751821517944e-02,-9.868322312831878662e-02,-9.644045680761337280e-02,1.090211048722267151e-01,-1.991804689168930054e-01,-6.232575327157974243e-02,3.695635497570037842e-02,1.594251394271850586e-01,-1.827506870031356812e-01,3.185220435261726379e-02,1.763275414705276489e-01,1.597194373607635498e-01,1.047543250024318695e-02,-1.606373786926269531e-01,-2.977129817008972168e-01,2.681786715984344482e-01,-5.613636970520019531e-02,1.712449342012405396e-01,1.364043503999710083e-01,-8.943492174148559570e-02,-9.337930381298065186e-02,5.753446370363235474e-03,-2.654829919338226318e-01,1.054868996143341064e-01,3.235723674297332764e-01,2.717395722866058350e-01,6.024473905563354492e-02,1.698764227330684662e-02,1.252399682998657227e-01,8.357141166925430298e-02,-3.834019005298614502e-01,2.179651856422424316e-01,4.638116806745529175e-02,1.724901609122753143e-02,2.764768898487091064e-01,1.378456652164459229e-01,-1.188621968030929565e-01,-1.502637565135955811e-02,1.161654666066169739e-01,-9.989903122186660767e-02,-5.714875832200050354e-02,1.160722598433494568e-01
-9.800765663385391235e-02,-5.619806703180074692e-03,-9.130714833736419678e-02,-1.604714542627334595e-01,-2.721231579780578613e-01,1.232172995805740356e-01,-2.561049535870552063e-02,-6.630089879035949707e-02,1.180543825030326843e-01,1.870825141668319702e-01,-1.246196627616882324e-01,-1.663793809711933136e-04,1.307517886161804199e-01,2.559358775615692139e-01,-2.703345715999603271e-01,1.009182333946228027e-01,5.647908896207809448e-02,-1.466245856136083603e-02,-7.443163543939590454e-02,2.876473963260650635e-02,9.044612944126129150e-02,-1.303669512271881104e-01,5.435269325971603394e-02,1.395534127950668335e-01,-1.542294174432754517e-01,1.651137918233871460e-01,2.422111481428146362e-01,-2.323227226734161377e-01,-4.189089536666870117e-01,8.965133875608444214e-02,1.990982890129089355e-01,-2.334603071212768555e-01,-3.024918138980865479e-01,-3.168574348092079163e-02,1.905288845300674438e-01,1.628526151180267334e-01,-1.657659262418746948e-01,5.519370734691619873e-02,1.117423027753829956e-01,-7.334773242473602295e-02,2.335193753242492676e-01,2.617536857724189758e-02,7.372210919857025146e-02,1.524992138147354126e-01,2.278093248605728149e-01,1.558625400066375732e-01,6.578984111547470093e-02,2.552176639437675476e-02,-2.349123656749725342e-01,-3.138075396418571472e-02,-9.135549515485763550e-02,-1.078920140862464905e-01,2.024995535612106323e-01,-1.380809843540191650e-01,2.347396761178970337e-01,-6.628020852804183960e-02,1.261731237173080444e-01,-4.685152322053909302e-03,-1.000899747014045715e-01,7.315938919782638550e-02,-1.574948430061340332e-01,9.167018532752990723e-02,-1.503901332616806030e-01,-1.521343588829040527e-01
1.734043955802917480e-01,-4.001362249255180359e-02,-4.798587411642074585e-02,-5.193750560283660889e-02,1.284605562686920166e-01,-1.482891738414764404e-01,2.418130487203598022e-01,1.426378637552261353e-01,-1.800244897603988647e-01,2.430778555572032928e-02,2.889337390661239624e-02,-2.211216688156127930e-01,3.210037052631378174e-01,-2.669987082481384277e-01,2.075117081403732300e-01,-8.622573316097259521e-02,-7.577143609523773193e-02,-8.241228014230728149e-02,-1.598913967609405518e-01,4.581997916102409363e-02,-4.625767841935157776e-02,-7.361835241317749023e-02,1.667185276746749878e-01,-1.773733049631118774e-01,-3.744789958000183105e-02,-6.173392385244369507e-02,-2.921575009822845459e-01,-3.586322963237762451e-01,2.057552710175514221e-02,-2.529979348182678223e-01,1.449086070060729980e-01,-2.342272847890853882e-01,2.103267014026641846e-01,-1.449659168720245361e-01,1.551117449998855591e-01,5.050443485379219055e-02,-1.005591601133346558e-01,1.930211037397384644e-01,-1.044949218630790710e-01,-1.164900362491607666e-01,6.641373783349990845e-02,8.272629231214523315e-02,8.035925775766372681e-02,-2.754627168178558350e-01,6.097220815718173981e-03,2.601299583911895752e-01,-3.111003637313842773e-01,2.301483899354934692e-01,2.413256913423538208e-01,2.026609778404235840e-01,2.334631606936454773e-02,2.554995417594909668e-01,-2.796016335487365723e-01,5.898875370621681213e-02,1.868821233510971069e-01,-5.612863227725028992e-02,-7.085277885198593140e-02,7.764867693185806274e-02,1.888466030359268188e-01,-7.116529345512390137e-02,-9.537730365991592407e-02,-6.479770690202713013e-02,-1.630139499902725220e-01,2.417053282260894775e-01
9.089650958776473999e-02,2.350792139768600464e-01,-3.010847605764865875e-02,-1.127375066280364990e-01,2.979601919651031494e-02,2.432038187980651855e-01,-1.011857949197292328e-02,-1.704031974077224731e-02,-1.856270283460617065e-01,3.183469921350479126e-02,-2.335947472602128983e-03,-1.647047698497772217e-01,-1.688313111662864685e-02,-8.537017740309238434e-03,-9.684927761554718018e-02,1.045171171426773071e-01,2.037896662950515747e-01,1.665544956922531128e-01,-9.610378742218017578e-02,1.379927396774291992e-01,-2.013271115720272064e-02,1.152774691581726074e-01,-2.887713350355625153e-02,-2.693409286439418793e-02,1.425444930791854858e-01,-2.688015699386596680e-01,-1.980465203523635864e-01,7.237398624420166016e-02,1.179624944925308228e-01,1.469969302415847778e-01,-1.467669457197189331e-01,6.543030031025409698e-03,-2.598935179412364960e-02,3.308734893798828125e-01,-2.197676151990890503e-01,1.490932255983352661e-01,-2.158949896693229675e-02,2.219357937574386597e-01,3.433808311820030212e-02,9.391456842422485352e-02,-1.917300969362258911e-01,-1.700066328048706055e-01,1.175825297832489014e-01,7.833727449178695679e-02,-2.879841327667236328e-01,-6.365463137626647949e-02,2.413887381553649902e-01,1.091121211647987366e-01,-6.950347125530242920e-02,-2.199008449679240584e-04,-2.979717850685119629e-01,-7.337860763072967529e-02,-4.727531969547271729e-02,2.757832109928131104e-01,-6.833960115909576416e-02,-9.521137177944183350e-02,-3.407220542430877686e-02,-2.734730020165443420e-02,-1.276538968086242676e-01,-8.086481690406799316e-02,1.509274635463953018e-02,-5.830490496009588242e-03,1.452439725399017334e-01,7.416456192731857300e-02
1.590290665626525879e-01,-1.557825971394777298e-02,1.150199770927429199e-02,6.614355742931365967e-02,-1.645848006010055542e-01,4.513534530997276306e-02,-5.490778759121894836e-02,-1.068465188145637512e-01,1.442785710096359253e-01,-1.567673985846340656e-03,-5.341522023081779480e-02,-3.971184417605400085e-02,1.714220829308032990e-02,-6.348916143178939819e-02,4.944410175085067749e-02,-9.878027439117431641e-02,1.750829070806503296e-01,-1.553905159235000610e-01,1.689062565565109253e-01,-1.560623943805694580e-01,-1.161257643252611160e-02,-1.061464473605155945e-01,-7.451914250850677490e-02,1.922455579042434692e-01,2.810440361499786377e-01,-1.853895485401153564e-01,1.353143304586410522e-01,2.351943850517272949e-01,-1.590220183134078979e-01,8.645869046449661255e-02,-7.941992580890655518e-02,1.537441313266754150e-01,-8.377051912248134613e-03,-1.395010109990835190e-02,9.994924068450927734e-02,3.326721787452697754e-01,2.035943046212196350e-02,-6.217875704169273376e-02,-2.669413201510906219e-02,-9.895817376673221588e-03,-7.163506001234054565e-02,-3.892306610941886902e-02,5.391325801610946655e-02,1.499689221382141113e-01,-2.777134999632835388e-02,1.287649124860763550e-01,9.012347459793090820e-02,1.717879921197891235e-01,3.772638738155364990e-02,2.194106578826904297e-03,-2.852817475795745850e-01,8.385980129241943359e-02,2.217352688312530518e-01,1.687278896570205688e-01,-1.862009763717651367e-01,-1.374894976615905762e-01,-7.726512104272842407e-02,-4.312777146697044373e-02,2.370758801698684692e-01,8.994871377944946289e-02,-3.298515453934669495e-02,2.531826794147491455e-01,2.161668390035629272e-01,1.154860183596611023e-01
6.092217285186052322e-03,6.470038741827011108e-02,1.268842518329620361e-01,-1.170563772320747375e-01,8.757608942687511444e-03,-9.199298173189163208e-02,1.393896937370300293e-01,-1.085785627365112305e-01,4.761575907468795776e-02,5.865643918514251709e-02,-5.985855124890804291e-03,-7.969409972429275513e-02,-9.117314219474792480e-02,-6.748677045106887817e-02,1.144665852189064026e-02,-2.277964539825916290e-02,-1.269831601530313492e-02,-4.616866633296012878e-02,1.721061021089553833e-01,-3.013002574443817139e-01,1.454479694366455078e-01,-2.357523515820503235e-02,7.381124794483184814e-02,6.681475788354873657e-02,-1.741176098585128784e-02,1.213741526007652283e-01,1.412409394979476929e-01,-5.568622797727584839e-02,-1.042950823903083801e-01,-9.426501579582691193e-03,-4.362618550658226013e-02,1.437059938907623291e-01,-6.956014782190322876e-02,-6.558000296354293823e-02,1.517512602731585503e-03,1.608097404241561890e-01,-1.000826880335807800e-01,1.285266727209091187e-01,-9.458951652050018311e-02,-1.519362442195415497e-02,-5.049705971032381058e-03,1.135638579726219177e-01,2.012451551854610443e-02,-1.349456459283828735e-01,-4.974172264337539673e-02,1.749242693185806274e-01,1.318576931953430176e-01,1.357298344373703003e-01,1.841699033975601196e-01,-8.023789525032043457e-02,-1.385817825794219971e-01,1.211009174585342407e-01,1.346116214990615845e-01,1.995118707418441772e-01,3.419749438762664795e-02,1.916222870349884033e-01,-8.830014616250991821e-02,1.944829374551773071e-01,-4.578392952680587769e-02,6.277123093605041504e-02,2.029271870851516724e-01,8.508308976888656616e-02,-4.214464500546455383e-02,-2.093242853879928589e-01
-1.279763579368591309e-01,2.178638987243175507e-02,1.189178675413131714e-01,1.570969074964523315e-01,-7.626635581254959106e-02,-9.149724245071411133e-02,4.877531528472900391e-02,1.178145781159400940e-01,8.345083147287368774e-02,-4.872928187251091003e-02,-1.877977401018142700e-01,1.642217040061950684e-01,-4.000890552997589111e-01,5.639900639653205872e-02,2.904305607080459595e-02,2.308121621608734131e-01,-1.748960018157958984e-01,1.061739102005958557e-01,-1.558222621679306030e-01,2.648220658302307129e-01,2.471300661563873291e-01,-9.991576522588729858e-02,-6.107804924249649048e-02,1.472512781620025635e-01,-1.490893810987472534e-01,-4.324177280068397522e-02,1.536059938371181488e-02,-5.502258613705635071e-02,-5.739935440942645073e-04,-1.024196669459342957e-01,3.409631550312042236e-01,-8.500681817531585693e-02,1.014460250735282898e-01,1.740021258592605591e-01,9.963270276784896851e-02,-2.999044060707092285e-01,-8.485620468854904175e-02,1.478363275527954102e-01,-7.214327901601791382e-02,-6.814260035753250122e-02,4.885512217879295349e-02,4.217382892966270447e-02,2.476394474506378174e-01,-1.999285370111465454e-01,4.676520228385925293e-01,-4.168915376067161560e-02,1.949291527271270752e-01,-1.339816898107528687e-01,4.234419763088226318e-02,2.495003342628479004e-01,3.533624410629272461e-01,1.742016896605491638e-02,8.331884443759918213e-02,-1.180158108472824097e-01,-2.173921465873718262e-02,-1.248753592371940613e-01,2.438347935676574707e-01,4.030581563711166382e-02,2.696885764598846436e-01,-2.780363559722900391e-01,5.880471691489219666e-02,1.788856834173202515e-01,-1.967211812734603882e-01,5.595155432820320129e-02
-2.444336861371994019e-01,-9.701249748468399048e-02,-1.160747557878494263e-01,-2.376920729875564575e-01,9.476466476917266846e-02,-2.987546622753143311e-01,3.875195607542991638e-02,9.542603790760040283e-02,-5.407277494668960571e-02,1.179849058389663696e-01,1.509889494627714157e-03,-1.353291049599647522e-02,9.357648342847824097e-02,4.111989215016365051e-02,-3.372097909450531006e-01,-1.292047351598739624e-01,2.210747450590133667e-01,1.910352408885955811e-01,-5.817316472530364990e-02,-5.827477201819419861e-02,-1.039323583245277405e-02,-4.949987679719924927e-02,8.024793118238449097e-02,2.404441684484481812e-02,-1.842536330223083496e-01,5.709075182676315308e-02,-2.601975947618484497e-02,-4.375919401645660400e-01,-3.109626770019531250e-01,-2.840784192085266113e-01,6.903514266014099121e-02,2.768412530422210693e-01,1.398030072450637817e-01,-1.048396453261375427e-01,-1.036650687456130981e-02,1.824581474065780640e-01,-4.109818637371063232e-01,-1.828004419803619385e-01,5.914686620235443115e-02,-3.252403810620307922e-03,2.635976672172546387e-02,1.808822527527809143e-02,-7.743366062641143799e-02,-7.684836536645889282e-02,1.079795211553573608e-01,-8.479943126440048218e-02,-2.371427230536937714e-02,1.365926563739776611e-01,6.049526855349540710e-02,-1.768072843551635742e-01,1.919919438660144806e-02,-2.352944202721118927e-02,7.338043302297592163e-02,-1.823078244924545288e-01,-2.671197988092899323e-02,-4.211884364485740662e-02,-9.760986268520355225e-02,1.451687514781951904e-01,9.135217219591140747e-02,4.193993285298347473e-02,-2.511893510818481445e-01,-4.941121488809585571e-02,7.319585233926773071e-02,-4.318587481975555420e-01
8.598642796277999878e-02,-1.634624153375625610e-01,-4.051485285162925720e-02,-1.980536729097366333e-01,-1.817730665206909180e-01,-4.298309795558452606e-03,-7.034584134817123413e-02,1.389188021421432495e-01,1.172250509262084961e-01,-1.935850530862808228e-01,-6.161099672317504883e-02,1.057447418570518494e-01,-8.021476678550243378e-03,-1.079328656196594238e-01,-2.552061341702938080e-02,-9.969428181648254395e-02,8.335681259632110596e-02,-1.832313537597656250e-01,7.005525380373001099e-02,2.196915820240974426e-02,1.141493618488311768e-01,1.509745866060256958e-01,3.631414100527763367e-02,9.130771458148956299e-02,9.459502249956130981e-02,-2.207836881279945374e-02,4.773879423737525940e-02,-1.071701124310493469e-01,-2.216730713844299316e-01,-7.341953366994857788e-02,-4.699701443314552307e-02,1.467090398073196411e-01,5.212918668985366821e-02,-1.208539009094238281e-01,-1.886223703622817993e-01,-1.821368634700775146e-01,1.433870643377304077e-01,-4.243500158190727234e-02,3.885765373706817627e-02,-6.399077922105789185e-02,-7.123439759016036987e-02,-4.644389823079109192e-02,4.631294682621955872e-02,1.685924679040908813e-01,-1.118226349353790283e-01,3.176810592412948608e-02,-7.732096314430236816e-02,-1.464141756296157837e-01,-5.995972827076911926e-02,-2.108653783798217773e-01,8.811461739242076874e-03,-4.649734124541282654e-02,-1.703749001026153564e-01,-1.507981717586517334e-01,-6.276294589042663574e-02,9.307887405157089233e-02,-2.140018623322248459e-03,-8.730243891477584839e-02,3.652055561542510986e-02,2.579114139080047607e-01,2.574665546417236328e-01,4.462104290723800659e-02,1.095392629504203796e-01,-1.652431637048721313e-01
1.840925812721252441e-01,1.009650435298681259e-02,7.413296401500701904e-02,-5.316594988107681274e-02,-2.722338140010833740e-01,8.626430481672286987e-02,-2.156356275081634521e-01,2.859050631523132324e-01,-1.419306844472885132e-01,3.606447484344244003e-03,-1.119061186909675598e-01,-4.307226464152336121e-02,-1.163739114999771118e-01,1.927901618182659149e-02,-1.218289509415626526e-01,2.074037119746208191e-02,1.608129888772964478e-01,1.481969505548477173e-01,-3.648046031594276428e-02,6.684903055429458618e-02,8.447282761335372925e-02,6.254500150680541992e-02,-1.337873563170433044e-02,-1.442832797765731812e-01,1.561038643121719360e-01,-2.151172794401645660e-02,1.881992071866989136e-02,-2.682194486260414124e-02,-3.335646092891693115e-01,4.488603398203849792e-02,1.827012002468109131e-01,-1.249843239784240723e-01,1.846043169498443604e-01,1.044566333293914795e-01,-9.377723187208175659e-02,-1.813402175903320312e-01,-1.033587753772735596e-01,-2.192040532827377319e-01,-1.162624508142471313e-01,7.910513132810592651e-02,-2.545251511037349701e-02,1.644057780504226685e-02,-3.280969858169555664e-01,4.780711978673934937e-02,1.861052364110946655e-01,-8.467036299407482147e-03,1.714674830436706543e-01,-1.485536396503448486e-01,1.144025549292564392e-01,-8.474280685186386108e-02,1.461168825626373291e-01,-8.385399356484413147e-03,-1.549072097986936569e-02,-2.050697803497314453e-01,1.846934109926223755e-01,9.874719381332397461e-02,-3.728400915861129761e-02,9.607358276844024658e-02,5.131577700376510620e-02,1.110871508717536926e-01,2.137137353420257568e-01,2.110911458730697632e-01,-1.698359996080398560e-01,2.213762141764163971e-03
-1.062428727746009827e-01,3.122803866863250732e-01,-2.005692273378372192e-01,2.341786921024322510e-01,-1.375643163919448853e-01,-1.573469340801239014e-01,-7.468658033758401871e-03,-1.803384870290756226e-01,3.760369122028350830e-01,-1.655504256486892700e-01,3.866494446992874146e-02,-4.457226395606994629e-02,-4.084706008434295654e-01,2.019063755869865417e-02,1.126955612562596798e-03,3.733799755573272705e-01,-1.940361410379409790e-01,2.152697890996932983e-01,-1.062529310584068298e-01,3.566342219710350037e-02,1.773270219564437866e-01,-1.918554455041885376e-01,-5.384554341435432434e-02,-1.526298224925994873e-01,-4.183210134506225586e-01,1.106260493397712708e-01,1.911706328392028809e-01,-1.306690275669097900e-01,7.387004047632217407e-02,-1.184984296560287476e-01,4.637002572417259216e-02,3.316380679607391357e-01,3.551803827285766602e-01,-4.067606478929519653e-02,3.238525986671447754e-01,-2.067209631204605103e-01,2.902360074222087860e-02,1.739262789487838745e-01,6.675697863101959229e-02,-1.822112202644348145e-01,-1.845414936542510986e-01,6.017285957932472229e-02,4.812471866607666016e-01,-1.501432154327630997e-02,2.237073332071304321e-01,-1.952271610498428345e-01,-1.321745663881301880e-01,-1.674052774906158447e-01,4.071176648139953613e-01,4.482957124710083008e-01,-2.293022871017456055e-01,-6.030375510454177856e-02,-1.272475719451904297e-01,1.913403421640396118e-01,4.688234254717826843e-02,1.482259482145309448e-01,-9.942403435707092285e-02,-1.159969121217727661e-01,-1.875019073486328125e-01,-2.256152927875518799e-01,2.451265230774879456e-02,-7.449150085449218750e-02,4.793893173336982727e-02,2.825055122375488281e-01
-1.385744214057922363e-01,5.344095453619956970e-02,-1.042889710515737534e-02,5.781766376458108425e-04,-3.177237138152122498e-02,-1.807488128542900085e-02,1.788848042488098145e-01,-1.043826639652252197e-01,1.271933615207672119e-01,1.081786304712295532e-01,-4.564471915364265442e-02,-8.510837703943252563e-02,8.928083628416061401e-02,-3.835747763514518738e-02,1.003284677863121033e-01,9.337760508060455322e-02,1.000503078103065491e-01,6.716808420605957508e-04,1.782346665859222412e-01,-1.064551025629043579e-01,1.343673914670944214e-01,2.801450788974761963e-01,8.536005765199661255e-02,-6.453167647123336792e-02,1.123381853103637695e-01,1.397669408470392227e-02,-1.504150629043579102e-01,6.808532029390335083e-02,2.723319269716739655e-02,1.929467320442199707e-01,2.176404744386672974e-01,-3.844639286398887634e-02,-4.243056476116180420e-02,1.759301871061325073e-01,-1.363100558519363403e-01,1.084320470690727234e-01,9.743694216012954712e-02,1.004934683442115784e-02,1.007167622447013855e-01,7.420768588781356812e-02,7.998566329479217529e-02,-6.588085740804672241e-02,-8.383917808532714844e-02,-1.628831923007965088e-01,2.092676162719726562e-01,-3.033119812607765198e-02,-9.316936880350112915e-02,5.969499424099922180e-02,-4.324724897742271423e-02,-5.626757629215717316e-03,4.425979778170585632e-02,1.436752974987030029e-01,1.103524584323167801e-03,1.091262251138687134e-01,-1.848768144845962524e-01,3.629027679562568665e-02,5.343790352344512939e-02,1.821364909410476685e-01,2.262717187404632568e-01,-1.661605238914489746e-01,1.489367801696062088e-02,2.130616456270217896e-01,1.697774678468704224e-01,1.322097927331924438e-01
8.363746106624603271e-02,-6.929440796375274658e-02,-5.412760004401206970e-02,4.808055609464645386e-02,-2.770905494689941406e-01,7.036136090755462646e-02,-2.376376464962959290e-02,9.220861643552780151e-02,-1.819400191307067871e-01,2.304091006517410278e-01,-5.228317156434059143e-02,-1.322644501924514771e-01,-2.503340365365147591e-04,-1.438009366393089294e-02,1.532665789127349854e-01,-2.605623304843902588e-01,1.196940839290618896e-01,1.308179944753646851e-01,7.768274098634719849e-02,8.477234840393066406e-02,-1.040283869951963425e-02,1.477707177400588989e-01,6.877443939447402954e-02,-1.546220630407333374e-01,1.086005866527557373e-01,-3.747959434986114502e-02,-9.125191718339920044e-02,8.346954360604286194e-03,-4.148650541901588440e-02,9.024329483509063721e-02,-1.727223694324493408e-01,-1.944326609373092651e-01,-2.258852869272232056e-02,-1.207465305924415588e-01,-1.692578792572021484e-01,9.720296412706375122e-02,-2.049940526485443115e-01,-1.329554915428161621e-01,-2.669790387153625488e-01,1.999180614948272705e-01,2.878472208976745605e-01,-1.347396075725555420e-01,-4.218792021274566650e-01,-1.477623283863067627e-01,1.998222023248672485e-01,1.153081357479095459e-01,2.353876978158950806e-01,-9.475080668926239014e-02,-7.080745697021484375e-02,-3.547250330448150635e-01,1.716771125793457031e-01,-5.566956475377082825e-02,1.135569959878921509e-01,-1.994577199220657349e-01,1.661531925201416016e-01,8.726008236408233643e-03,-7.724159210920333862e-02,-9.197360277175903320e-02,-6.645740475505590439e-03,-8.569862693548202515e-02,-5.722944065928459167e-02,1.000464856624603271e-01,1.198065932840108871e-02,-1.082830429077148438e-01
-8.125595748424530029e-02,8.129387348890304565e-02,-3.204995393753051758e-01,1.372683793306350708e-01,4.723684489727020264e-01,-2.741943895816802979e-01,2.627459764480590820e-01,-3.990725055336952209e-02,1.630349606275558472e-01,-8.214798569679260254e-02,-1.687814295291900635e-01,-1.012485995888710022e-01,-5.193706019781529903e-04,-2.381719648838043213e-02,-9.741301089525222778e-02,1.486138850450515747e-01,2.026871740818023682e-01,-7.423607259988784790e-02,1.197733879089355469e-01,-2.285741120576858521e-01,-2.426767200231552124e-01,-3.203378319740295410e-01,6.417654454708099365e-02,-7.008312642574310303e-02,2.670103907585144043e-01,1.752538979053497314e-01,-8.398714661598205566e-02,1.367929428815841675e-01,-2.431795187294483185e-02,-1.196773946285247803e-01,6.941430270671844482e-02,2.846940159797668457e-01,-1.025657542049884796e-02,-9.205133467912673950e-02,1.883469521999359131e-01,1.719012856483459473e-01,-4.200821816921234131e-01,-1.581877470016479492e-02,-8.535926789045333862e-02,1.110887899994850159e-01,4.214137494564056396e-01,-1.736876368522644043e-02,-4.078807532787322998e-01,-6.380545347929000854e-02,-1.434977054595947266e-01,7.081212848424911499e-02,2.102768421173095703e-01,5.826076120138168335e-02,-1.571002453565597534e-01,7.228711992502212524e-02,5.658585205674171448e-02,3.296095728874206543e-01,3.029967844486236572e-01,-1.201039850711822510e-01,-2.318694442510604858e-02,-7.958827167749404907e-02,-2.573548257350921631e-02,5.728203058242797852e-02,8.035315573215484619e-02,4.245253279805183411e-02,-1.254627555608749390e-01,8.419387042522430420e-02,3.291397094726562500e-01,-3.594524264335632324e-01
1.611596904695034027e-02,5.599633324891328812e-03,1.407991163432598114e-02,1.548925638198852539e-01,2.085109353065490723e-01,2.295520603656768799e-01,9.939953684806823730e-03,3.133636713027954102e-02,1.850467324256896973e-01,-1.398817151784896851e-01,1.176042258739471436e-01,-4.934808611869812012e-01,-8.535798639059066772e-02,-1.343868300318717957e-02,-1.271308213472366333e-01,-8.816839754581451416e-02,-1.355785131454467773e-01,5.834114551544189453e-02,1.082989796996116638e-01,3.628121688961982727e-02,-1.335965394973754883e-01,-6.027690693736076355e-02,8.814846724271774292e-02,-5.890512838959693909e-02,2.197867482900619507e-01,-2.409326434135437012e-01,-2.146629244089126587e-02,2.738984525203704834e-01,-2.471808195114135742e-01,7.014755625277757645e-03,1.208815500140190125e-01,1.311426758766174316e-01,-8.294384926557540894e-02,-4.941509291529655457e-02,3.506802022457122803e-02,2.252366244792938232e-01,1.707371771335601807e-01,-1.858585029840469360e-01,4.118068888783454895e-02,1.606243252754211426e-01,1.101133897900581360e-01,-1.249571330845355988e-02,-3.322660326957702637e-01,5.248472094535827637e-02,7.072245702147483826e-03,9.063129127025604248e-02,1.719446480274200439e-01,-3.152354806661605835e-02,-1.889240145683288574e-01,4.988075420260429382e-02,-2.261369675397872925e-01,3.119331300258636475e-01,2.326423525810241699e-01,-1.653021872043609619e-01,2.188271842896938324e-02,-1.222665235400199890e-01,3.076904080808162689e-02,4.002135712653398514e-03,1.436173319816589355e-01,1.407709568738937378e-01,-2.274312674999237061e-01,7.295649498701095581e-02,1.276436746120452881e-01,-6.387884169816970825e-02
-7.675691694021224976e-02,-1.529659260995686054e-03,1.149603798985481262e-01,-2.141463011503219604e-01,-1.310299932956695557e-01,9.539601206779479980e-02,2.509450018405914307e-01,-6.048429384827613831e-02,1.351064443588256836e-01,-8.792160451412200928e-02,1.822136640548706055e-01,-1.357064992189407349e-01,5.015876144170761108e-02,2.787844836711883545e-02,8.301048725843429565e-02,-1.012353748083114624e-01,-9.442040324211120605e-02,1.922831311821937561e-02,7.678910344839096069e-02,1.285291910171508789e-01,2.044801115989685059e-01,1.845464557409286499e-01,-8.953284472227096558e-02,2.463786490261554718e-02,9.907435625791549683e-03,1.121553555130958557e-01,-1.820669770240783691e-01,-2.451797276735305786e-01,-3.848548606038093567e-02,-6.409238278865814209e-02,-1.697171479463577271e-02,4.864604771137237549e-02,-2.152115553617477417e-01,1.837051361799240112e-01,-2.012363821268081665e-01,-4.125995934009552002e-02,-1.270400434732437134e-01,1.061709690839052200e-02,-1.240666839294135571e-03,1.631765514612197876e-01,-7.700724154710769653e-02,-1.038366705179214478e-01,-1.288561820983886719e-01,-5.873946845531463623e-02,6.051468476653099060e-02,1.378820240497589111e-01,-3.998475521802902222e-02,-1.078112721443176270e-01,-1.524698734283447266e-01,1.504272371530532837e-01,1.323536932468414307e-01,1.925080269575119019e-02,-3.169432654976844788e-02,-2.440439909696578979e-01,-6.706096231937408447e-02,3.103332594037055969e-02,8.681929856538772583e-02,-5.875570327043533325e-02,-3.521458432078361511e-02,6.050349399447441101e-02,7.840386033058166504e-02,1.816735118627548218e-01,-4.804074298590421677e-03,6.763404700905084610e-03
1.657471507787704468e-01,-1.160763055086135864e-01,2.017728686332702637e-01,-1.429267525672912598e-01,8.937690407037734985e-03,1.200332492589950562e-01,-1.940305233001708984e-01,1.769605465233325958e-02,-1.608242839574813843e-01,-1.704513728618621826e-01,-1.588069796562194824e-01,3.765223920345306396e-02,1.105882227420806885e-01,8.372887223958969116e-02,4.383937921375036240e-04,8.086081594228744507e-03,1.209673210978507996e-01,1.060905605554580688e-01,-1.386508196592330933e-01,1.433637738227844238e-01,4.920697957277297974e-02,-1.502479165792465210e-01,8.945658802986145020e-02,2.394859865307807922e-02,1.403444707393646240e-01,-2.579623274505138397e-02,1.323962509632110596e-01,-3.490485996007919312e-02,9.946420043706893921e-02,-1.221406683325767517e-01,-1.216382756829261780e-01,2.120949700474739075e-02,-2.912024781107902527e-02,1.304117143154144287e-01,-1.303174644708633423e-01,-7.649396359920501709e-02,-5.202409811317920685e-03,1.701046377420425415e-01,1.752792298793792725e-01,-1.231688112020492554e-01,-7.130684703588485718e-02,2.796410210430622101e-02,-5.533452704548835754e-02,1.138530969619750977e-01,-1.396226137876510620e-01,-9.119118005037307739e-02,1.683157682418823242e-01,5.867462605237960815e-02,1.334339678287506104e-01,-6.085175648331642151e-02,7.890166342258453369e-02,3.382613882422447205e-02,1.364968065172433853e-02,-7.335966825485229492e-02,-2.973312325775623322e-02,-8.409315347671508789e-02,1.377371372655034065e-03,-5.561339855194091797e-02,-1.422905623912811279e-01,1.416907161474227905e-01,1.001970693469047546e-01,1.733172535896301270e-01,3.068612515926361084e-02,5.989968404173851013e-02
2.338517829775810242e-02,-7.062300294637680054e-02,6.338566541671752930e-02,5.569916591048240662e-02,1.922990381717681885e-01,1.113406866788864136e-01,-2.995401248335838318e-02,-1.895879954099655151e-01,5.508742481470108032e-02,8.566474914550781250e-02,4.935953021049499512e-02,1.497605443000793457e-02,7.178018242120742798e-02,-1.776322573423385620e-01,-6.910173222422599792e-03,1.147720068693161011e-01,1.636475473642349243e-01,9.108760207891464233e-02,-9.327899664640426636e-02,1.660487204790115356e-01,7.840456813573837280e-02,-3.908372949808835983e-03,8.977467566728591919e-02,-1.436860412359237671e-01,1.366614103317260742e-01,-1.694366633892059326e-01,8.025306463241577148e-02,-1.254979800432920456e-02,-3.900507837533950806e-02,1.499183569103479385e-02,8.495109528303146362e-02,1.262763738632202148e-01,-4.067235440015792847e-02,-1.552264485508203506e-02,-1.561000049114227295e-01,5.956025049090385437e-02,-6.362103857100009918e-03,-9.816361963748931885e-02,1.371124088764190674e-01,-1.663745790719985962e-01,-1.102431863546371460e-01,1.424897760152816772e-01,-2.711122110486030579e-02,7.665549218654632568e-02,-2.622794210910797119e-01,5.077523738145828247e-02,-9.872601926326751709e-02,-1.985887996852397919e-02,1.190328076481819153e-01,9.777425229549407959e-02,-3.671008860692381859e-03,1.092398688197135925e-01,-1.272525042295455933e-01,9.298346191644668579e-02,2.405337989330291748e-01,4.491230100393295288e-02,-4.120391234755516052e-02,-1.473483592271804810e-01,1.498336046934127808e-01,-1.858498603105545044e-01,3.260530531406402588e-02,-1.554380450397729874e-02,-5.925961583852767944e-02,4.048359021544456482e-02
-6.204167008399963379e-02,-1.137323603034019470e-01,2.410065382719039917e-01,2.578661441802978516e-01,-5.812332406640052795e-02,1.393140573054552078e-02,8.068386465311050415e-02,8.334971219301223755e-02,4.901305958628654480e-02,-4.972457885742187500e-02,3.300286531448364258e-01,-2.038273215293884277e-02,-8.887312561273574829e-02,1.083207726478576660e-01,2.310453802347183228e-01,-4.252825081348419189e-01,-1.485639512538909912e-01,-6.955254822969436646e-02,4.289442673325538635e-02,-4.597769677639007568e-01,-4.061068594455718994e-02,1.363452970981597900e-01,-2.323179095983505249e-01,1.310121119022369385e-01,-7.009676098823547363e-02,1.520810276269912720e-02,1.521926373243331909e-01,6.625282019376754761e-02,1.194650530815124512e-01,1.370587013661861420e-02,-2.616693079471588135e-01,-1.323024779558181763e-01,-1.574157625436782837e-01,-1.377703845500946045e-01,-1.706216633319854736e-01,-1.272617429494857788e-01,-2.102450430393218994e-01,1.762581020593643188e-01,-5.207407474517822266e-01,-4.257975891232490540e-02,-7.811400294303894043e-02,-7.190197706222534180e-02,-2.260562479496002197e-01,-4.446135163307189941e-01,6.580082327127456665e-02,-2.096525132656097412e-01,-6.549044698476791382e-02,6.464008986949920654e-02,4.202682524919509888e-02,3.127937763929367065e-02,-1.696078851819038391e-02,3.124107792973518372e-02,8.142326027154922485e-02,1.613898426294326782e-01,-3.079426288604736328e-01,3.601602911949157715e-01,-1.309793889522552490e-01,1.250613182783126831e-01,-5.782068371772766113e-01,-5.779642984271049500e-02,1.196446269750595093e-01,-4.715420901775360107e-01,1.101635694503784180e-01,8.498640358448028564e-02
2.315204776823520660e-02,4.390440508723258972e-02,8.052791468799114227e-03,-1.208455488085746765e-01,-2.527106404304504395e-01,2.261588424444198608e-01,-2.164128422737121582e-02,-3.054130673408508301e-01,-6.551798433065414429e-02,8.652441948652267456e-02,7.530149817466735840e-02,2.662027478218078613e-01,-7.923284173011779785e-02,-7.636710256338119507e-02,1.988482773303985596e-01,1.414071321487426758e-01,3.317908570170402527e-02,-1.556664705276489258e-02,-6.815925985574722290e-02,1.686666756868362427e-01,-6.715586781501770020e-02,-7.546219229698181152e-02,-2.068430036306381226e-01,1.094005480408668518e-01,8.564171381294727325e-03,-1.188005059957504272e-01,1.169018447399139404e-01,4.313253983855247498e-02,2.810962498188018799e-02,1.533876061439514160e-01,-1.266043484210968018e-01,-2.137260511517524719e-02,9.031766653060913086e-02,6.468306481838226318e-02,-4.242484644055366516e-02,1.262438297271728516e-02,7.350140810012817383e-02,-2.612549960613250732e-01,7.927278056740760803e-03,1.401136666536331177e-01,-4.754682071506977081e-03,-5.743362382054328918e-02,1.188359558582305908e-01,1.603766679763793945e-01,-1.907751560211181641e-01,1.403026729822158813e-01,1.044744402170181274e-01,-4.947442933917045593e-02,1.116727516055107117e-01,-2.179189622402191162e-01,-1.037114337086677551e-01,-9.208765625953674316e-02,8.174956589937210083e-02,-1.477719247341156006e-01,-2.789838910102844238e-01,-3.122593276202678680e-02,-2.770696580410003662e-01,-1.831270903348922729e-01,-1.450209021568298340e-01,1.667164117097854614e-01,-9.587200731039047241e-02,-1.091857161372900009e-02,1.009991914033889771e-01,-1.159469634294509888e-01
-5.316466838121414185e-02,2.274572253227233887e-01,3.250409662723541260e-02,-1.287346240133047104e-02,2.172664972022175789e-04,1.719516515731811523e-01,-7.400844246149063110e-02,4.001995921134948730e-02,8.280298858880996704e-02,-1.677593588829040527e-01,-1.953831017017364502e-01,1.272442340850830078e-01,-7.726977765560150146e-02,2.297920919954776764e-02,-3.363025188446044922e-02,7.651848718523979187e-04,2.216328084468841553e-01,1.809303648769855499e-02,-5.051067471504211426e-02,-1.305265873670578003e-01,2.099986374378204346e-01,-2.437621802091598511e-01,8.097951859235763550e-02,2.099073678255081177e-01,-4.386927932500839233e-02,-4.614279791712760925e-02,-3.816074505448341370e-02,3.371929749846458435e-02,-6.705716997385025024e-02,2.170363366603851318e-01,3.035321459174156189e-02,3.298548609018325806e-02,-1.768789291381835938e-01,-6.676958501338958740e-02,1.357443034648895264e-01,-8.443724364042282104e-02,3.164062649011611938e-02,-1.890582032501697540e-02,1.883498877286911011e-01,1.759592071175575256e-02,1.178236026316881180e-02,-1.510104238986968994e-01,2.401551455259323120e-01,1.704376190900802612e-01,6.678123772144317627e-02,-3.915760666131973267e-02,1.425787508487701416e-01,2.286229282617568970e-01,-1.778769791126251221e-01,1.030169278383255005e-01,2.482947558164596558e-01,2.374710291624069214e-01,-1.536789536476135254e-01,-2.483393996953964233e-02,-1.078995466232299805e-01,1.752861142158508301e-01,-4.833641648292541504e-02,3.164309076964855194e-03,1.831466704607009888e-01,-1.817913949489593506e-01,-8.110866695642471313e-02,3.124767355620861053e-02,-1.842099241912364960e-02,1.090887561440467834e-01
-1.478664278984069824e-01,-2.234645932912826538e-02,-8.771010488271713257e-02,1.072562187910079956e-01,-1.000534370541572571e-01,6.363230198621749878e-02,4.901154898107051849e-03,-1.655592024326324463e-01,-4.847290739417076111e-02,-1.164451465010643005e-01,-9.223543107509613037e-02,4.608936980366706848e-02,-8.933264017105102539e-02,1.223223134875297546e-01,-4.472536500543355942e-03,-3.930661976337432861e-01,1.856501847505569458e-01,1.551211029291152954e-01,-1.756696589291095734e-02,8.944986388087272644e-03,1.473399698734283447e-01,-1.795843839645385742e-01,-3.936874493956565857e-02,4.977826401591300964e-02,1.753004826605319977e-02,1.427963525056838989e-01,-1.719947755336761475e-01,1.085462346673011780e-01,-1.634527444839477539e-01,4.570489376783370972e-02,-1.063836887478828430e-01,-9.723588824272155762e-02,-9.719736129045486450e-02,1.174069568514823914e-01,-2.424792386591434479e-02,2.127982527017593384e-01,-6.264798343181610107e-02,-3.309855759143829346e-01,-3.174107521772384644e-02,1.460787355899810791e-01,4.100839197635650635e-01,-5.485790595412254333e-02,-4.968650043010711670e-01,1.525659766048192978e-02,5.603230092674493790e-04,-1.155447289347648621e-01,1.304920464754104614e-01,1.262721884995698929e-02,-1.628196090459823608e-01,2.196853980422019958e-02,2.435097545385360718e-01,2.431218773126602173e-01,3.361229971051216125e-02,-3.101820349693298340e-01,1.664123386144638062e-01,-2.995187640190124512e-01,2.529545724391937256e-01,-1.815275400876998901e-01,1.508877724409103394e-01,1.242361962795257568e-01,-7.594200968742370605e-02,3.331118822097778320e-01,3.373919054865837097e-02,-1.238167360424995422e-01
-3.366505261510610580e-03,1.488948613405227661e-01,-3.694292157888412476e-02,9.932894259691238403e-02,-2.045270800590515137e-01,-7.524146884679794312e-02,-1.464210897684097290e-01,-9.827829152345657349e-02,7.816386967897415161e-02,-1.695546209812164307e-01,1.327097862958908081e-01,5.093191936612129211e-02,1.340991407632827759e-01,-7.862351834774017334e-02,3.390802070498466492e-02,-3.511793911457061768e-02,7.899568974971771240e-02,-4.615487158298492432e-02,1.635606139898300171e-01,2.054806612432003021e-02,9.432683140039443970e-02,1.494777053594589233e-01,3.867564257234334946e-03,4.183774441480636597e-02,6.069411709904670715e-02,-2.137496769428253174e-01,5.157123878598213196e-02,-6.033926829695701599e-02,4.242119193077087402e-02,1.469237059354782104e-01,1.779017299413681030e-01,2.124781906604766846e-01,4.150112718343734741e-02,2.108435332775115967e-01,1.125821173191070557e-01,1.152738407254219055e-01,9.049865603446960449e-02,9.108912199735641479e-02,7.973948121070861816e-02,1.692817509174346924e-01,-1.266598254442214966e-01,-4.253715276718139648e-02,1.558734923601150513e-01,-1.987026445567607880e-02,-4.169314354658126831e-02,3.034582547843456268e-02,1.910371929407119751e-01,1.277683675289154053e-02,2.255879715085029602e-02,5.351004749536514282e-02,7.682595402002334595e-02,1.226399466395378113e-01,-3.609526529908180237e-02,3.992053121328353882e-02,-1.406751424074172974e-01,8.622279763221740723e-02,-5.252477247267961502e-03,-1.728615462779998779e-01,-1.207040473818778992e-01,-1.374011933803558350e-01,2.144521176815032959e-01,7.875533401966094971e-02,1.918507367372512817e-01,1.803666800260543823e-01
-1.934768110513687134e-01,-7.871125638484954834e-02,-3.840393722057342529e-01,1.225538775324821472e-01,-2.048324644565582275e-01,-1.952651888132095337e-02,1.450200378894805908e-01,-3.096967935562133789e-01,4.277161955833435059e-01,-9.869477897882461548e-02,7.476872205734252930e-02,-5.433504283428192139e-02,-6.127897277474403381e-02,-4.168339073657989502e-01,-8.559080213308334351e-02,-1.328808516263961792e-01,-1.988437473773956299e-01,-5.074565410614013672e-01,5.022687315940856934e-01,-1.577679067850112915e-01,-8.334442973136901855e-02,-2.809248566627502441e-01,-9.739918261766433716e-02,-4.067359864711761475e-02,2.729096412658691406e-01,-2.173107564449310303e-01,-3.662372529506683350e-01,-1.937341988086700439e-01,1.847698688507080078e-01,-1.800907552242279053e-01,2.815957739949226379e-02,2.394994907081127167e-02,-7.291530072689056396e-02,-8.867420256137847900e-03,5.114696174860000610e-02,2.471224069595336914e-01,9.192920476198196411e-02,-7.527153939008712769e-03,-9.877788275480270386e-02,-9.580633789300918579e-02,-1.162505969405174255e-01,-3.021260723471641541e-02,-4.270850494503974915e-02,-1.988899260759353638e-01,-8.471129834651947021e-02,-1.160646453499794006e-01,-1.458413451910018921e-01,9.056683629751205444e-02,-1.291439831256866455e-01,6.422339379787445068e-02,-2.841874063014984131e-01,-3.228013217449188232e-02,3.011135458946228027e-01,-9.884864091873168945e-02,2.353000454604625702e-02,-1.493491530418395996e-01,-8.813945204019546509e-02,-9.342586994171142578e-02,-1.647948175668716431e-01,-9.072507917881011963e-02,-3.045018613338470459e-01,-5.499767884612083435e-02,3.780260980129241943e-01,2.362881600856781006e-02
-1.128350347280502319e-01,-1.366668939590454102e-01,2.133249193429946899e-01,-2.384130805730819702e-01,-2.315805405378341675e-01,6.103044003248214722e-02,3.514345884323120117e-01,-4.052278771996498108e-02,4.809043556451797485e-02,-1.146449893712997437e-01,-2.220045477151870728e-01,2.258896678686141968e-01,-2.221089154481887817e-01,5.335922539234161377e-02,-2.046805620193481445e-01,-1.578580588102340698e-01,1.512324810028076172e-01,-1.418667435646057129e-01,-8.327878266572952271e-02,2.128850296139717102e-02,1.819051355123519897e-01,-7.104113698005676270e-02,1.919128447771072388e-01,-1.407560110092163086e-01,-9.898246824741363525e-02,-3.530902042984962463e-02,1.535362899303436279e-01,5.485238507390022278e-02,-4.820826053619384766e-01,2.140074968338012695e-01,-5.570298433303833008e-02,-6.025771424174308777e-02,5.180153623223304749e-02,-5.828008055686950684e-02,1.632793545722961426e-01,6.515718251466751099e-02,9.341099858283996582e-02,1.095256879925727844e-01,-9.024862200021743774e-02,7.541879266500473022e-02,-5.117469280958175659e-02,3.062223643064498901e-02,-1.078966706991195679e-01,-1.485109776258468628e-01,3.526773676276206970e-02,5.490522086620330811e-02,-1.763588637113571167e-01,-2.142273187637329102e-01,-4.839371144771575928e-02,-1.162108033895492554e-03,1.465027034282684326e-01,5.071518942713737488e-02,1.380654573440551758e-01,-2.045326083898544312e-01,1.783515512943267822e-01,-9.715981036424636841e-02,-5.983487935736775398e-04,-3.111757338047027588e-01,-1.315381377935409546e-01,1.058226749300956726e-01,1.769563406705856323e-01,3.730897903442382812e-01,9.955025278031826019e-03,-2.869673967361450195e-01
1.858279407024383545e-01,8.884929865598678589e-02,1.924620419740676880e-01,-3.723259642720222473e-02,3.142653703689575195e-01,2.837732136249542236e-01,-2.390174716711044312e-01,8.196449279785156250e-02,-4.771103337407112122e-02,6.131197512149810791e-02,1.043124273419380188e-01,1.311855018138885498e-01,1.256548464298248291e-01,-1.868111491203308105e-01,5.711197853088378906e-02,1.408117115497589111e-01,1.580618619918823242e-01,1.343140155076980591e-01,1.231554299592971802e-01,2.106060683727264404e-01,1.111128032207489014e-01,-2.781077986583113670e-03,2.151069976389408112e-02,-2.217785269021987915e-01,3.990137204527854919e-02,1.186565160751342773e-01,-2.335204631090164185e-01,4.085423052310943604e-02,3.713438659906387329e-02,1.728240251541137695e-01,-1.722578257322311401e-01,1.404824852943420410e-01,1.412113904953002930e-01,9.771616756916046143e-02,1.542839854955673218e-01,1.942658722400665283e-01,-5.436076223850250244e-02,-1.714614927768707275e-01,7.821340113878250122e-02,-1.797941774129867554e-01,1.501580476760864258e-01,-6.586316972970962524e-02,1.705468297004699707e-01,-3.123753331601619720e-02,-2.010214179754257202e-01,-5.053891614079475403e-02,2.965658009052276611e-01,-8.900761604309082031e-02,2.396437823772430420e-01,1.291122138500213623e-01,5.865935608744621277e-02,-1.947255060076713562e-02,-2.044867128133773804e-01,3.865815699100494385e-02,8.457023650407791138e-02,-2.525027096271514893e-01,-2.349455058574676514e-01,-3.704283013939857483e-02,1.017739810049533844e-02,-2.431587427854537964e-01,1.448251307010650635e-01,2.808870375156402588e-02,-9.622405469417572021e-02,2.076855897903442383e-01
7.387305796146392822e-02,-8.215153962373733521e-02,1.396972239017486572e-01,-2.050819545984268188e-01,2.500498592853546143e-01,6.967612076550722122e-03,8.836645632982254028e-02,1.006784886121749878e-01,8.936857432126998901e-02,-1.350890472531318665e-02,1.781122684478759766e-01,-6.445410102605819702e-02,1.294262856245040894e-01,8.042070083320140839e-03,-1.880124062299728394e-01,-5.299250409007072449e-02,1.239855512976646423e-01,-1.888478398323059082e-01,1.036861725151538849e-02,-1.360442340373992920e-01,-8.051006495952606201e-02,-8.508666604757308960e-02,9.291904419660568237e-02,1.596336662769317627e-01,1.955828815698623657e-01,5.252699367702007294e-03,-6.126375868916511536e-03,1.542897894978523254e-02,1.280896216630935669e-01,-1.506210416555404663e-01,-2.422273159027099609e-01,-1.175999119877815247e-01,-1.464763134717941284e-01,-1.039117202162742615e-01,-5.253705382347106934e-02,8.819679915904998779e-02,-2.399528324604034424e-01,1.250502169132232666e-01,1.372462660074234009e-01,1.988389343023300171e-02,1.189309433102607727e-01,1.280721426010131836e-01,-2.659836709499359131e-01,-1.496508717536926270e-01,-2.739542536437511444e-02,1.491185426712036133e-01,-1.857290416955947876e-01,1.530312299728393555e-01,-5.175372958183288574e-02,4.043792188167572021e-02,7.232422381639480591e-02,-1.959722191095352173e-01,1.546957343816757202e-01,1.232270300388336182e-01,4.260044544935226440e-02,5.118973925709724426e-02,4.249632824212312698e-03,9.838610887527465820e-02,1.269820332527160645e-01,2.181930243968963623e-01,1.547339092940092087e-02,9.203211218118667603e-02,9.558767825365066528e-02,-2.680718898773193359e-01
-2.780661284923553467e-01,-1.059156879782676697e-01,1.347703039646148682e-01,-1.725013703107833862e-01,1.204246953129768372e-01,-1.684104353189468384e-01,-1.073487848043441772e-01,-6.299844826571643353e-04,1.212156116962432861e-01,1.170345693826675415e-01,7.806442677974700928e-02,8.466742187738418579e-02,-2.840300798416137695e-01,4.698836058378219604e-02,-2.772227860987186432e-02,1.021337062120437622e-01,1.698490679264068604e-01,-5.153622478246688843e-02,4.623433109372854233e-03,1.655267328023910522e-01,-2.762666344642639160e-02,1.394806951284408569e-01,6.974825263023376465e-02,-1.467275619506835938e-01,1.752206683158874512e-01,1.900286078453063965e-01,-1.386800855398178101e-01,-2.736324071884155273e-01,1.220451667904853821e-01,5.803457275032997131e-02,-1.139805465936660767e-01,7.146920543164014816e-03,-1.359180919826030731e-02,2.158447802066802979e-01,6.979745626449584961e-02,-8.787745982408523560e-02,1.403755694627761841e-01,1.144781336188316345e-01,4.383940994739532471e-02,-9.758258610963821411e-02,-1.546944528818130493e-01,-8.352679759263992310e-02,4.098108038306236267e-02,-1.345567256212234497e-01,-6.063086166977882385e-02,6.178780272603034973e-02,9.519123286008834839e-02,-2.792432010173797607e-01,1.173068135976791382e-01,4.712865222245454788e-03,2.162631005048751831e-01,-3.029985353350639343e-03,1.645287871360778809e-01,1.340594738721847534e-01,-1.114734858274459839e-01,-2.133724987506866455e-01,6.664553284645080566e-02,3.371102735400199890e-02,-1.320985704660415649e-01,-1.676770299673080444e-01,1.229075342416763306e-01,2.243165075778961182e-01,1.007361486554145813e-01,-2.640129923820495605e-01
1.309571135789155960e-02,-2.154596745967864990e-01,2.017469406127929688e-01,-3.432550430297851562e-01,-5.719363689422607422e-03,-4.894644487649202347e-03,2.064220607280731201e-02,3.154772222042083740e-01,-2.439527213573455811e-02,-2.839315310120582581e-02,-6.800636649131774902e-02,6.561960279941558838e-02,-1.697206050157546997e-01,-2.979156747460365295e-02,-2.475758045911788940e-01,2.464326769113540649e-01,8.886978030204772949e-02,-1.382565051317214966e-01,-1.832175850868225098e-01,-1.033812165260314941e-01,3.202820420265197754e-01,-1.762025803327560425e-01,1.568933874368667603e-01,3.476662933826446533e-02,1.550075262784957886e-01,1.628709733486175537e-01,2.634561955928802490e-01,-2.614691555500030518e-01,-1.698571741580963135e-01,1.154320910573005676e-01,1.316811740398406982e-01,-2.875960171222686768e-01,-1.864789873361587524e-01,-5.657629575580358505e-03,1.194612383842468262e-01,-4.016130045056343079e-02,-3.834611177444458008e-02,5.263965204358100891e-02,-1.051607131958007812e-01,-3.223733305931091309e-01,-5.606723949313163757e-02,-1.515336334705352783e-02,2.289618402719497681e-01,-5.078143253922462463e-02,-1.885685138404369354e-03,-1.319453269243240356e-01,8.176232129335403442e-02,-6.074349582195281982e-02,-7.339509576559066772e-02,3.179965540766716003e-03,1.774934232234954834e-01,5.975846201181411743e-02,-1.936521008610725403e-02,8.655806630849838257e-02,1.585415452718734741e-01,2.027182579040527344e-01,-4.076948016881942749e-02,2.445649504661560059e-01,-1.099818944931030273e-01,-1.967315971851348877e-01,3.691444098949432373e-01,-1.494795680046081543e-01,-8.551111817359924316e-02,1.372501254081726074e-01
-1.967358868569135666e-03,2.672382295131683350e-01,-1.754544675350189209e-01,7.704991847276687622e-02,-1.155087947845458984e-01,2.545683458447456360e-02,3.584481775760650635e-02,7.964149862527847290e-02,7.151588797569274902e-02,-1.277509182691574097e-01,1.569787040352821350e-02,-7.303150743246078491e-02,-3.744185902178287506e-03,2.673063576221466064e-01,-1.079652830958366394e-02,2.720233798027038574e-02,1.026953682303428650e-01,4.035535752773284912e-01,-2.648644745349884033e-01,-2.291123270988464355e-01,3.409042954444885254e-02,-3.380026519298553467e-01,-1.664186120033264160e-01,2.806206643581390381e-01,5.240032821893692017e-02,9.351116418838500977e-02,-2.466754615306854248e-01,1.212684363126754761e-01,1.838201731443405151e-01,-9.920103102922439575e-02,-1.237570196390151978e-01,-4.700261726975440979e-02,7.231696695089340210e-02,1.078290399163961411e-02,-7.163140177726745605e-02,1.178925558924674988e-01,1.578843146562576294e-01,1.985505223274230957e-01,-2.002666592597961426e-01,3.102324306964874268e-01,7.404721528291702271e-02,4.498646035790443420e-02,3.321229666471481323e-02,-1.168366800993680954e-02,6.904902309179306030e-02,1.869326084852218628e-01,4.506914615631103516e-01,-1.486114319413900375e-02,3.719225898385047913e-02,1.937551647424697876e-01,1.487541645765304565e-01,2.962258458137512207e-01,-6.482499092817306519e-02,8.530974388122558594e-02,-2.990317344665527344e-01,3.184159398078918457e-01,3.271314129233360291e-02,-2.658958435058593750e-01,7.026646286249160767e-02,-9.460484981536865234e-02,5.460309237241744995e-02,-1.287782639265060425e-01,-2.356051057577133179e-01,7.446200400590896606e-02
-7.003226131200790405e-02,-1.570218950510025024e-01,2.536515593528747559e-01,-1.804009526968002319e-01,1.878381520509719849e-02,-1.075975894927978516e-01,2.467005141079425812e-02,-2.358641177415847778e-01,1.764312088489532471e-01,-6.941097229719161987e-02,8.292222768068313599e-02,-5.445140972733497620e-02,-2.327668517827987671e-01,5.857561901211738586e-02,1.273600906133651733e-01,8.079060167074203491e-02,2.265431731939315796e-01,-9.227073937654495239e-02,7.748617231845855713e-02,-8.389212936162948608e-02,3.167337179183959961e-01,2.081841081380844116e-01,1.629950404167175293e-01,1.943693608045578003e-01,-9.916845709085464478e-02,-9.414897859096527100e-02,2.597466707229614258e-01,-2.502281963825225830e-01,1.014398783445358276e-01,2.787499688565731049e-02,1.708964556455612183e-01,3.289991244673728943e-02,2.232954502105712891e-01,-1.831041276454925537e-02,-9.617771208286285400e-02,7.980175316333770752e-02,2.763521485030651093e-02,-1.771590560674667358e-01,4.911846946924924850e-03,-2.187361419200897217e-01,1.663392595946788788e-02,1.700082421302795410e-01,1.122150570154190063e-01,1.685804873704910278e-01,-2.051312327384948730e-01,9.134095162153244019e-02,1.219521276652812958e-02,-2.193281501531600952e-01,-1.642799377441406250e-02,-4.687922447919845581e-02,-2.610475011169910431e-02,-3.124850392341613770e-01,1.851269602775573730e-01,1.323885917663574219e-01,-4.465578589588403702e-03,1.219016313552856445e-01,-1.929971128702163696e-01,1.438033580780029297e-01,-6.466442346572875977e-02,7.926911860704421997e-02,1.226317360997200012e-01,2.267345339059829712e-01,2.236273512244224548e-02,-1.523419171571731567e-01
2.631108760833740234e-01,-5.430940166115760803e-02,2.350272536277770996e-01,-2.487270236015319824e-01,1.630294919013977051e-01,1.488216314464807510e-02,-5.096304789185523987e-02,9.479738026857376099e-02,2.496752329170703888e-02,-5.648747831583023071e-02,1.261720955371856689e-01,7.847344875335693359e-02,1.494471579790115356e-01,5.916049238294363022e-03,-7.038028538227081299e-02,-2.068711817264556885e-01,2.345003932714462280e-02,-1.684224009513854980e-01,-6.744243204593658447e-02,-7.450363133102655411e-03,9.278827905654907227e-02,-1.871530115604400635e-01,1.661773771047592163e-01,-1.412669867277145386e-01,7.656957209110260010e-02,1.762250214815139771e-01,-2.663125991821289062e-01,-2.126976251602172852e-01,-1.226518154144287109e-01,6.510880589485168457e-02,-2.135666608810424805e-01,-8.891418576240539551e-02,2.063844911754131317e-02,-1.060430929064750671e-01,1.077239960432052612e-01,8.782308548688888550e-02,-2.957597374916076660e-01,4.902316629886627197e-02,-5.402080342173576355e-02,-6.899817287921905518e-02,1.646767407655715942e-01,-3.539533317089080811e-01,-2.447233200073242188e-01,-2.094823867082595825e-01,1.422517448663711548e-01,1.482499986886978149e-01,1.268414035439491272e-02,1.023941673338413239e-02,2.526945248246192932e-02,-2.165337949991226196e-01,-5.151541158556938171e-02,1.131718382239341736e-01,2.411562353372573853e-01,1.533941775560379028e-01,-8.612572401762008667e-02,-5.915498733520507812e-02,1.216315031051635742e-01,2.538072168827056885e-01,1.802955567836761475e-01,1.028881072998046875e-01,6.624750047922134399e-02,-9.464385360479354858e-02,8.067367225885391235e-02,-1.170978248119354248e-01
1.369353532791137695e-01,3.404915928840637207e-01,-1.086978316307067871e-01,2.172291874885559082e-01,2.000487446784973145e-01,8.368992805480957031e-02,-6.863457709550857544e-02,-1.623197048902511597e-01,-9.196781367063522339e-02,5.861782934516668320e-03,1.960469484329223633e-01,-3.267581388354301453e-02,1.612499952316284180e-01,1.878698617219924927e-01,2.072983980178833008e-01,2.959783561527729034e-02,-3.337522745132446289e-01,1.640891581773757935e-01,1.976020634174346924e-01,9.055853635072708130e-02,-2.571233510971069336e-01,-3.002510592341423035e-02,-1.894705742597579956e-01,-8.534809201955795288e-02,8.100949227809906006e-02,-1.845279186964035034e-01,1.142779067158699036e-01,6.793794780969619751e-02,2.010415345430374146e-01,1.155375689268112183e-01,2.681417465209960938e-01,8.816026896238327026e-02,-1.767496615648269653e-01,1.743806004524230957e-01,3.142850100994110107e-02,-1.179584041237831116e-01,3.153135478496551514e-01,1.492089629173278809e-01,-2.143340110778808594e-01,3.671276196837425232e-02,-1.040456593036651611e-01,-4.237010702490806580e-02,2.668998837471008301e-01,1.196373999118804932e-01,-2.605218291282653809e-01,1.289087086915969849e-01,-2.322538346052169800e-01,-8.803645521402359009e-02,2.206744253635406494e-02,2.546525597572326660e-01,-6.525814533233642578e-03,1.022910475730895996e-01,-4.691141471266746521e-02,-2.792467363178730011e-02,-8.105074986815452576e-03,1.300738751888275146e-01,1.634556353092193604e-01,5.066004022955894470e-02,-1.571242064237594604e-01,3.634595870971679688e-02,3.720562532544136047e-02,-1.285244822502136230e-01,6.959487497806549072e-02,6.600953638553619385e-02
4.491720721125602722e-02,-3.508592247962951660e-01,3.751770257949829102e-01,-5.238368641585111618e-03,4.666958004236221313e-02,2.789544165134429932e-01,1.934731006622314453e-02,7.443720847368240356e-02,1.639776527881622314e-01,4.238738492131233215e-02,-1.897423416376113892e-01,2.182495296001434326e-01,-1.953917890787124634e-01,1.613910049200057983e-01,-2.315402962267398834e-02,1.425155699253082275e-01,-4.209731519222259521e-01,-8.991191536188125610e-02,-1.199544966220855713e-01,1.811820566654205322e-01,-2.922389656305313110e-03,2.225981652736663818e-01,-2.661556005477905273e-01,-6.920494884252548218e-02,-2.404552251100540161e-01,3.069554865360260010e-01,-8.242018520832061768e-02,-1.540946662425994873e-01,1.462180167436599731e-01,8.935975842177867889e-03,3.331960737705230713e-01,-1.187096983194351196e-01,-7.183184474706649780e-02,-1.172505244612693787e-01,1.693365573883056641e-01,-1.945838928222656250e-01,2.291869521141052246e-01,2.877270989120006561e-02,-3.091814741492271423e-02,-2.403401583433151245e-01,-8.382827043533325195e-02,1.955718398094177246e-01,7.914167642593383789e-02,3.692226856946945190e-02,5.729211028665304184e-03,-1.427224576473236084e-01,-9.787870943546295166e-02,-1.917812973260879517e-01,2.248871475458145142e-01,4.629244655370712280e-02,3.404718637466430664e-01,-1.267601847648620605e-01,-1.824875026941299438e-01,4.679934978485107422e-01,1.305598169565200806e-01,2.780545055866241455e-01,8.721916377544403076e-02,2.315746545791625977e-01,-3.101018071174621582e-01,-2.411397919058799744e-02,1.994920521974563599e-01,-2.685744762420654297e-01,-1.366358697414398193e-01,2.360311895608901978e-01
-5.478500854223966599e-03,3.159382641315460205e-01,-3.942750096321105957e-01,-4.329100996255874634e-02,-1.973234117031097412e-01,-1.213059797883033752e-01,5.067934095859527588e-02,1.394481807947158813e-01,-2.195065766572952271e-01,-1.307279914617538452e-01,-5.441118497401475906e-03,-1.062090098857879639e-01,1.064651086926460266e-01,-3.342802822589874268e-02,2.984131574630737305e-01,-1.147738844156265259e-01,2.409146130084991455e-01,-1.054977625608444214e-01,6.956778466701507568e-02,-4.122272431850433350e-01,-1.241645663976669312e-01,-1.917946934700012207e-01,-1.765533089637756348e-01,8.392798900604248047e-02,-1.137226596474647522e-01,1.141106151044368744e-02,-2.655803263187408447e-01,7.413837313652038574e-02,-1.590103656053543091e-02,1.759809814393520355e-02,-3.141051903367042542e-02,-2.028908729553222656e-01,-1.222952231764793396e-01,2.192343026399612427e-01,4.724010825157165527e-02,2.154069542884826660e-01,-2.882343530654907227e-01,1.887397468090057373e-01,4.054727032780647278e-02,2.739716880023479462e-02,-6.752931326627731323e-02,8.299531764350831509e-04,-1.773748248815536499e-01,-1.516933739185333252e-02,1.140156313776969910e-01,5.307545140385627747e-02,-9.148921072483062744e-02,1.433100253343582153e-01,-2.143853753805160522e-01,1.023565083742141724e-01,1.751961000263690948e-02,-1.197321154177188873e-02,5.683424696326255798e-02,-5.881005898118019104e-02,-9.909695386886596680e-02,-1.820083707571029663e-02,5.776349827647209167e-02,-2.163632959127426147e-01,3.946543633937835693e-01,5.583195015788078308e-02,-2.336854189634323120e-01,1.065770015120506287e-01,1.012885011732578278e-02,1.032546237111091614e-01
3.902903525158762932e-03,1.287954598665237427e-01,-1.907140463590621948e-01,5.588790774345397949e-02,-2.937800884246826172e-01,9.193665534257888794e-02,-5.504131317138671875e-02,8.948256820440292358e-02,1.741026043891906738e-01,1.206988021731376648e-01,-1.650755405426025391e-01,-1.044730991125106812e-01,1.719600111246109009e-01,3.007566183805465698e-02,-1.324431002140045166e-01,-1.695474684238433838e-01,1.660936474800109863e-01,1.198321133852005005e-01,1.922291517257690430e-02,4.654899239540100098e-02,-2.900459570810198784e-03,-8.288796246051788330e-02,-1.227714344859123230e-01,1.413958668708801270e-01,7.671368122100830078e-02,-1.495615243911743164e-01,-1.063785329461097717e-01,4.820451512932777405e-02,-2.104240953922271729e-01,1.176460534334182739e-01,-6.635075807571411133e-02,9.000502526760101318e-02,-1.702196598052978516e-01,2.119331248104572296e-02,1.599880158901214600e-01,1.253458261489868164e-01,2.074257433414459229e-01,-1.515288352966308594e-01,8.818808943033218384e-02,3.930345550179481506e-02,2.576607763767242432e-01,1.626092568039894104e-02,1.563395112752914429e-01,-8.130558999255299568e-04,1.154112592339515686e-01,3.323438018560409546e-02,-7.764970511198043823e-02,-6.569730490446090698e-02,-1.452432721853256226e-01,-6.499847024679183960e-02,4.881650581955909729e-02,6.240120530128479004e-02,7.814251631498336792e-02,-6.009816424921154976e-04,-1.601486355066299438e-01,1.569598764181137085e-01,-3.068437241017818451e-02,1.584305018186569214e-01,5.499288067221641541e-02,1.130830869078636169e-01,1.604935824871063232e-01,-1.805295646190643311e-01,1.117147281765937805e-01,6.001906841993331909e-02
-1.527525633573532104e-01,9.092252701520919800e-02,-1.520937085151672363e-01,1.022831425070762634e-01,-2.204502075910568237e-01,2.124655991792678833e-01,-6.383576989173889160e-02,-5.487160757184028625e-02,9.712570905685424805e-02,1.137745529413223267e-01,8.080384135246276855e-02,-1.460929960012435913e-01,-2.717199921607971191e-01,6.247559189796447754e-02,-1.473216433078050613e-02,-1.490670293569564819e-01,5.469290912151336670e-02,8.055013418197631836e-02,-5.502058938145637512e-02,-7.723748683929443359e-02,1.292627155780792236e-01,-2.518580853939056396e-01,-1.729092560708522797e-02,-1.909947209060192108e-02,1.799912154674530029e-01,-8.596089482307434082e-02,2.225824892520904541e-01,-3.329845890402793884e-02,1.035344451665878296e-01,2.543000876903533936e-01,-1.354745589196681976e-02,-1.094366144388914108e-02,-1.531820595264434814e-01,2.091161906719207764e-01,-1.473352611064910889e-01,-8.367164433002471924e-02,2.262658029794692993e-01,-1.473444253206253052e-01,2.350427210330963135e-01,1.438606381416320801e-01,3.458072245121002197e-02,4.126312956213951111e-02,2.298895269632339478e-01,1.296020001173019409e-01,1.221732646226882935e-01,1.429176479578018188e-01,3.891890496015548706e-02,3.764417022466659546e-02,2.431205660104751587e-01,-6.809408217668533325e-02,2.760213054716587067e-02,4.217505920678377151e-03,-1.171842813491821289e-01,-1.336759030818939209e-01,1.311988681554794312e-01,-5.134318023920059204e-02,6.641168147325515747e-02,-1.946583576500415802e-02,-7.790831476449966431e-02,-2.314914315938949585e-01,1.612414866685867310e-01,1.107191517949104309e-01,3.041659854352474213e-02,3.441153168678283691e-01
1.674205437302589417e-02,-1.439456939697265625e-01,4.871724173426628113e-03,-1.785730868577957153e-01,-3.128144890069961548e-02,6.165008246898651123e-02,-9.699071198701858521e-02,2.315144836902618408e-01,-9.685583412647247314e-03,2.462820261716842651e-01,9.847418963909149170e-02,9.058669209480285645e-02,-1.400220245122909546e-01,-1.065464839339256287e-01,1.330035477876663208e-01,-1.791066825389862061e-01,-4.352212324738502502e-02,-1.322199404239654541e-02,7.436865568161010742e-02,1.012642905116081238e-01,9.655154496431350708e-02,1.400066465139389038e-01,-1.146027147769927979e-01,9.095101058483123779e-02,-1.090740337967872620e-01,1.591592095792293549e-02,1.648069769144058228e-01,-1.089684367179870605e-01,-2.835699729621410370e-02,-1.711250543594360352e-01,-1.797056198120117188e-02,1.270836740732192993e-01,2.970310747623443604e-01,2.149248719215393066e-01,-1.840665787458419800e-01,1.515556778758764267e-02,1.487358808517456055e-01,-3.124180734157562256e-01,1.323902457952499390e-01,-7.396557927131652832e-02,1.572620570659637451e-01,-1.218921989202499390e-01,-1.208181008696556091e-01,2.018169462680816650e-01,-8.270258456468582153e-02,-6.835594773292541504e-02,2.418696731328964233e-01,7.916025072336196899e-02,-4.610712826251983643e-02,-1.523369997739791870e-01,-7.250357419252395630e-02,-1.335889101028442383e-01,1.947597116231918335e-01,4.018698632717132568e-02,1.277028322219848633e-01,-2.563727498054504395e-01,-1.676519662141799927e-01,1.803970336914062500e-01,-2.862144075334072113e-02,-2.305927425622940063e-01,2.370022237300872803e-03,7.637367397546768188e-02,-7.650532759726047516e-03,-8.055634051561355591e-02
1.025870442390441895e-01,1.679049283266067505e-01,2.614907920360565186e-02,-4.160388186573982239e-02,-1.052890345454216003e-01,-3.383814170956611633e-02,-9.813375771045684814e-02,7.122358679771423340e-02,-1.097088754177093506e-01,4.895142465829849243e-02,1.349995434284210205e-01,2.374413311481475830e-01,-5.018898751586675644e-03,2.566187269985675812e-02,-5.655213594436645508e-01,-2.276223897933959961e-01,-4.743074998259544373e-02,3.019920885562896729e-01,-4.828284382820129395e-01,9.310159087181091309e-02,-1.793054938316345215e-01,-2.684176266193389893e-01,-6.180313602089881897e-02,-1.059236973524093628e-01,-7.900305092334747314e-02,5.388709530234336853e-02,-1.941898316144943237e-01,-2.691882848739624023e-01,-3.619920909404754639e-01,3.394584171473979950e-03,1.081785336136817932e-01,1.592120900750160217e-02,-1.515964120626449585e-01,-5.814526975154876709e-02,9.464621543884277344e-02,5.244241654872894287e-02,-4.668829590082168579e-02,6.654573231935501099e-02,-4.695032536983489990e-02,1.548236608505249023e-01,2.933558821678161621e-01,8.571770042181015015e-02,4.369375109672546387e-02,7.685149088501930237e-03,-6.099114567041397095e-02,1.700740456581115723e-01,1.068165972828865051e-01,1.636212170124053955e-01,5.294596776366233826e-02,6.503144651651382446e-02,2.668532431125640869e-01,5.077617168426513672e-01,-1.610810756683349609e-01,-1.008609607815742493e-01,1.578934937715530396e-01,-8.489344269037246704e-02,8.700054883956909180e-02,-1.662421077489852905e-01,-1.484261006116867065e-01,-7.831673324108123779e-02,-1.074715182185173035e-01,-1.184726506471633911e-01,-1.476348340511322021e-01,-1.429957300424575806e-01
-2.013808041810989380e-01,3.437536358833312988e-01,-1.699392944574356079e-01,3.173773363232612610e-02,-9.910235553979873657e-02,-5.069783329963684082e-02,-2.925472855567932129e-01,-1.088696792721748352e-01,-9.478623420000076294e-02,2.393658310174942017e-01,1.326671093702316284e-01,-2.288607954978942871e-01,-2.827984094619750977e-01,3.695671632885932922e-02,-9.773752838373184204e-02,1.709604412317276001e-01,2.787447571754455566e-01,4.819219112396240234e-01,1.822019517421722412e-01,1.689650714397430420e-01,9.132449328899383545e-02,-1.167883383459411561e-04,-1.371046602725982666e-01,-1.022748649120330811e-01,5.417257547378540039e-03,-2.205360084772109985e-01,2.256049960851669312e-01,-1.980134844779968262e-01,1.131185516715049744e-01,-2.878872156143188477e-01,-1.959085166454315186e-01,2.401547133922576904e-01,2.819976024329662323e-02,1.153539344668388367e-01,-3.522929847240447998e-01,1.531155854463577271e-01,1.660011857748031616e-01,-1.223040372133255005e-01,3.753136694431304932e-01,-1.831552572548389435e-02,3.457557782530784607e-02,8.193453401327133179e-02,8.888048678636550903e-02,2.935098409652709961e-01,1.499426960945129395e-01,4.065237939357757568e-01,2.074183821678161621e-01,3.674061596393585205e-01,1.116062700748443604e-01,2.825264036655426025e-01,-2.842825949192047119e-01,2.011583894491195679e-01,1.709700673818588257e-01,-3.828641772270202637e-01,-1.349558234214782715e-01,-9.534459561109542847e-02,-1.396925002336502075e-01,-1.903413236141204834e-01,-1.177705228328704834e-01,-5.346952006220817566e-02,-1.426882147789001465e-01,2.117852866649627686e-01,3.777640685439109802e-02,2.309616804122924805e-01
-2.103786021471023560e-01,3.499951213598251343e-02,-2.453069984912872314e-01,-1.936530768871307373e-01,1.893008351325988770e-01,-8.533053845167160034e-02,2.475150227546691895e-01,-2.429513931274414062e-01,1.922554969787597656e-01,-2.161136828362941742e-02,4.809471592307090759e-02,1.804226338863372803e-01,6.816966086626052856e-02,2.405740916728973389e-01,2.729303017258644104e-02,3.447768390178680420e-01,1.239393875002861023e-01,-2.045726776123046875e-01,1.886397600173950195e-01,-3.392028808593750000e-01,7.814387232065200806e-02,-5.326788127422332764e-02,2.108506113290786743e-02,2.299723178148269653e-01,-3.713353872299194336e-01,2.217980772256851196e-01,2.234004288911819458e-01,-9.302140027284622192e-02,2.289917469024658203e-01,-4.161904752254486084e-01,2.477629780769348145e-01,4.066909477114677429e-02,2.759222984313964844e-01,-1.481003314256668091e-01,1.890122294425964355e-01,6.028142571449279785e-02,-8.846920728683471680e-02,1.734059303998947144e-01,1.454144418239593506e-01,-1.644000969827175140e-02,7.873476296663284302e-02,1.758474111557006836e-01,1.233440414071083069e-01,1.348682213574647903e-02,-1.934291720390319824e-01,-1.248961538076400757e-01,-1.918424516916275024e-01,-1.446024179458618164e-01,-2.734491229057312012e-01,-7.025760412216186523e-02,-1.812427341938018799e-01,2.799446135759353638e-02,2.480089813470840454e-01,1.579081565141677856e-01,6.399758905172348022e-02,2.774206735193729401e-02,2.562606334686279297e-01,1.172651257365942001e-02,2.686732113361358643e-01,2.131296992301940918e-01,-1.206768527626991272e-01,2.311431169509887695e-01,2.425347566604614258e-01,1.610119044780731201e-01
