7.787541300058364868e-02,-7.381918281316757202e-02,6.445529311895370483e-02,2.721790224313735962e-02,-2.146259322762489319e-02,3.533498197793960571e-02,-1.888263225555419922e-02,-2.826757729053497314e-03,-5.274296924471855164e-02,4.278654605150222778e-02,6.234679371118545532e-02,7.931813597679138184e-03,2.023193985223770142e-02,8.052731305360794067e-02,-6.986490637063980103e-02,-2.192433178424835205e-02,-3.428742289543151855e-03,-1.994329690933227539e-02,-4.443395882844924927e-02,-3.291375935077667236e-03,-4.428356513381004333e-02,-2.387261018157005310e-02,5.253057926893234253e-02,4.556216299533843994e-03,-2.700431272387504578e-02,-1.744515448808670044e-02,8.319765329360961914e-03,7.903685420751571655e-02,7.661124318838119507e-02,1.337409764528274536e-02,-8.001454174518585205e-03,5.544108897447586060e-02,-6.442189216613769531e-03,-4.999373853206634521e-02,-2.926422283053398132e-02,2.716626971960067749e-02,1.122957468032836914e-02,1.878646016120910645e-02,4.706951230764389038e-02,-3.012162446975708008e-02,-6.546638906002044678e-02,-3.826707229018211365e-02,6.274738162755966187e-02,-2.972134202718734741e-02,1.402639597654342651e-02,6.719126552343368530e-02,1.971062272787094116e-02,5.223887413740158081e-02,-6.386937201023101807e-02,1.130242645740509033e-02,1.657797396183013916e-02,-4.256653785705566406e-02,6.032694131135940552e-02,-1.033860445022583008e-02,-6.953951716423034668e-02,-3.584640100598335266e-02,-6.729513406753540039e-03,-1.290284097194671631e-02,-1.649659126996994019e-02,-3.609164804220199585e-02,1.361629366874694824e-02,-3.709472715854644775e-03,-3.977242484688758850e-02,-8.543409407138824463e-03,4.862222820520401001e-02,2.205225825309753418e-02,2.561739087104797363e-02,-5.927981808781623840e-02,5.055844038724899292e-02,6.558115035295486450e-02,-2.564867585897445679e-02,5.423010140657424927e-02,1.358208060264587402e-02,2.917395532131195068e-02,-1.355872303247451782e-02,3.359248489141464233e-02,-1.577839255332946777e-02,-1.241333037614822388e-02,5.497708171606063843e-02,1.327914744615554810e-02,6.145676225423812866e-02,1.509568840265274048e-02,7.871481031179428101e-02,-1.296348869800567627e-02,-7.991746068000793457e-02,1.780908554792404175e-02,2.694546431303024292e-02,1.473232358694076538e-02,2.600479125976562500e-02,5.728939920663833618e-02,-3.009064495563507080e-02,-6.051717698574066162e-02,-3.925867378711700439e-03,-2.501940727233886719e-02,5.086495727300643921e-02,-3.292610496282577515e-02,-5.435189604759216309e-02,-4.349417611956596375e-02,-3.126397728919982910e-02,-4.384040832519531250e-02,-6.725518405437469482e-02,-3.132253512740135193e-02,2.207200229167938232e-02,-3.923207148909568787e-02,-3.329209983348846436e-02,-7.961528003215789795e-02,1.083163172006607056e-02,-6.200028955936431885e-02,-2.327464520931243896e-03,-5.727892369031906128e-02,-8.075515180826187134e-02,-2.257193252444267273e-02,-7.913292199373245239e-02,4.735677689313888550e-02,-6.029469147324562073e-02,1.176043599843978882e-02,-6.428435444831848145e-02,3.817513585090637207e-02,6.978347152471542358e-02,2.527452260255813599e-02,-4.344397410750389099e-02,-6.784049421548843384e-02,3.563578426837921143e-02,-5.651121214032173157e-02,6.717552989721298218e-02,-6.414271891117095947e-02,7.475709170103073120e-02,-3.437827527523040771e-02
-5.506043136119842529e-02,7.432126253843307495e-02,7.809344679117202759e-02,2.901563048362731934e-02,-7.873391360044479370e-02,8.000113815069198608e-02,6.991209834814071655e-02,7.613085955381393433e-02,5.001767724752426147e-02,-5.443563312292098999e-02,3.536110371351242065e-02,5.976504832506179810e-02,-2.306881174445152283e-02,-3.703011572360992432e-02,7.713521271944046021e-02,-2.763443067669868469e-02,3.026457130908966064e-02,-5.867569148540496826e-02,1.122358441352844238e-02,-7.856818288564682007e-02,5.921152979135513306e-02,9.956419467926025391e-03,6.875269860029220581e-02,-6.778571009635925293e-02,-7.185570895671844482e-02,3.726834803819656372e-02,-7.042047381401062012e-02,5.706091970205307007e-02,-7.717989385128021240e-03,-4.457528516650199890e-02,-7.260226458311080933e-02,-2.662707865238189697e-02,3.554923087358474731e-02,-3.700926899909973145e-02,-4.020676016807556152e-02,5.514695495367050171e-02,-4.219527915120124817e-02,6.093987077474594116e-02,-4.904536902904510498e-02,5.824995785951614380e-02,2.500604838132858276e-02,1.724338531494140625e-02,-4.891843348741531372e-02,6.495777517557144165e-02,-2.432717382907867432e-02,-3.029437363147735596e-02,-4.613033309578895569e-02,-2.969937399029731750e-02,-3.571058809757232666e-02,3.070759773254394531e-02,6.689914315938949585e-02,3.849010169506072998e-02,5.628522485494613647e-02,4.963593930006027222e-02,-7.314553111791610718e-02,-5.647682771086692810e-02,-3.402417153120040894e-02,3.252539783716201782e-02,1.414366066455841064e-03,-5.307030677795410156e-02,3.950913250446319580e-02,-4.167407751083374023e-04,-2.783798426389694214e-02,-2.140229567885398865e-02,6.451395899057388306e-02,-3.200681880116462708e-02,2.046916633844375610e-02,1.343189924955368042e-02,5.677477270364761353e-02,4.368303716182708740e-02,4.689679294824600220e-02,7.560016959905624390e-02,3.061223775148391724e-02,-1.050255447626113892e-02,3.358762711286544800e-02,7.390112429857254028e-02,-1.420777291059494019e-02,-1.222810894250869751e-02,-3.726965934038162231e-02,-2.108766138553619385e-02,-3.205737099051475525e-02,2.385073900222778320e-02,-5.168762058019638062e-02,-2.961194515228271484e-02,7.142759114503860474e-02,-3.995576873421669006e-02,5.022206157445907593e-02,-3.456877917051315308e-02,3.169469535350799561e-03,3.593912720680236816e-02,-3.706034272909164429e-02,-5.999255180358886719e-02,6.351299583911895752e-03,-1.365491002798080444e-02,-1.836527138948440552e-02,4.045239835977554321e-02,-9.964987635612487793e-03,-3.053006902337074280e-02,-3.730564936995506287e-02,5.358655005693435669e-02,7.331619411706924438e-02,5.271159857511520386e-02,1.714655756950378418e-02,5.809385329484939575e-02,-4.021701216697692871e-02,4.425244778394699097e-02,-6.927717477083206177e-02,4.703827202320098877e-03,2.939145267009735107e-02,4.344588518142700195e-02,-5.846145749092102051e-02,-6.026194989681243896e-02,3.343085199594497681e-02,-9.936988353729248047e-03,-3.471824154257774353e-02,4.877196997404098511e-02,1.682830601930618286e-02,8.035627752542495728e-02,5.546484142541885376e-02,-6.771922856569290161e-02,-3.754577413201332092e-02,-6.522913277149200439e-02,-5.366057157516479492e-02,-7.495060563087463379e-03,2.916745841503143311e-02,-3.031893447041511536e-02,4.939829558134078979e-02,7.307790219783782959e-03
7.603225857019424438e-02,4.343187063932418823e-02,-7.978158444166183472e-02,-3.588710725307464600e-02,2.429360151290893555e-02,-6.197845935821533203e-02,-1.992340013384819031e-02,3.666895627975463867e-02,1.434002816677093506e-02,-2.563603222370147705e-03,-3.719118610024452209e-02,-6.598860025405883789e-02,4.577190428972244263e-02,-6.858672201633453369e-02,7.855734974145889282e-02,3.641225397586822510e-03,4.556501656770706177e-02,5.793283134698867798e-02,6.900117546319961548e-02,-7.650734484195709229e-02,-4.064618796110153198e-02,2.161683142185211182e-02,3.905603289604187012e-02,-3.181067109107971191e-02,6.524977833032608032e-02,-9.833715856075286865e-03,5.674764513969421387e-03,1.268781721591949463e-02,-6.891572475433349609e-02,-3.200960531830787659e-02,7.225947827100753784e-02,1.747689396142959595e-02,-5.247503519058227539e-03,2.886854112148284912e-02,-4.323583468794822693e-02,-2.886709198355674744e-02,-1.728223264217376709e-02,-6.047370657324790955e-02,-5.248931050300598145e-02,-1.842897385358810425e-02,-2.564401552081108093e-02,-6.833843886852264404e-03,1.829304546117782593e-02,-6.514471769332885742e-02,7.470684498548507690e-02,-6.671235710382461548e-02,-4.472792148590087891e-02,7.918495684862136841e-02,-4.891373589634895325e-02,-4.653771594166755676e-02,-3.530067577958106995e-02,-2.156208828091621399e-02,5.196375399827957153e-02,-4.213084653019905090e-02,2.387943863868713379e-02,6.857901811599731445e-03,-1.091494411230087280e-02,7.726252079010009766e-03,4.159273952245712280e-02,-7.668174803256988525e-03,2.172474563121795654e-02,-5.208697542548179626e-02,1.432546228170394897e-02,-7.707665860652923584e-02,-3.662712499499320984e-02,6.353078037500381470e-02,-3.603942692279815674e-03,-7.812502980232238770e-02,3.555709868669509888e-02,-1.777725666761398315e-02,6.134452670812606812e-02,-2.875048294663429260e-02,-5.995064973831176758e-03,3.237456083297729492e-02,-3.523610159754753113e-02,4.004248231649398804e-02,6.466249376535415649e-02,-5.804508924484252930e-02,4.895724356174468994e-03,5.873896926641464233e-02,5.474065989255905151e-02,-7.211199402809143066e-02,2.315078675746917725e-02,4.070617258548736572e-02,5.892574042081832886e-02,5.198941379785537720e-02,-4.171627014875411987e-02,6.353584676980972290e-02,-7.472164928913116455e-03,-6.001973897218704224e-02,5.420476943254470825e-02,-1.535155624151229858e-02,7.451713830232620239e-02,-6.203532963991165161e-02,-5.733390152454376221e-02,5.037025362253189087e-02,-2.100754156708717346e-02,1.683990657329559326e-02,2.786136418581008911e-02,-1.604603230953216553e-02,-3.212756663560867310e-02,-2.269548550248146057e-02,-4.995701462030410767e-02,-5.076261237263679504e-02,-6.772427260875701904e-02,1.498538255691528320e-02,-1.306366175413131714e-02,-3.532625734806060791e-03,-5.298839136958122253e-02,-7.139763981103897095e-02,-7.599679380655288696e-02,4.666315764188766479e-02,-2.868026494979858398e-02,-1.406594365835189819e-02,6.113936752080917358e-02,1.505424827337265015e-02,1.805472373962402344e-02,9.175851941108703613e-03,5.990326404571533203e-03,1.076238602399826050e-02,-3.766567260026931763e-02,3.416795283555984497e-02,-4.480034485459327698e-02,-1.823592185974121094e-02,-4.938989877700805664e-04,-4.845134913921356201e-03,7.842638343572616577e-02,3.879906982183456421e-02
7.191348820924758911e-02,-5.925438553094863892e-02,2.319338917732238770e-02,5.988106131553649902e-04,2.376715838909149170e-02,-4.472459480166435242e-02,-1.654005050659179688e-02,7.636690884828567505e-02,7.886435836553573608e-02,1.793619245290756226e-02,-2.838249504566192627e-02,2.391530573368072510e-02,3.366775810718536377e-03,-3.991869837045669556e-02,2.654570341110229492e-02,-3.448716923594474792e-02,-6.003472954034805298e-02,6.357427686452865601e-02,-4.722051322460174561e-02,2.293004095554351807e-02,4.766341298818588257e-02,4.029349237680435181e-02,-7.573477923870086670e-03,-6.319479644298553467e-02,7.072561234235763550e-02,5.559442192316055298e-02,-7.033221423625946045e-02,2.212895452976226807e-02,3.026780486106872559e-02,4.641862958669662476e-02,4.434765130281448364e-02,-8.064281940460205078e-02,2.006430178880691528e-02,-6.370859593152999878e-02,4.310593754053115845e-02,7.387659698724746704e-02,-2.908364310860633850e-02,-4.236311838030815125e-02,-4.423881694674491882e-02,1.793391257524490356e-02,-3.928202390670776367e-02,4.710115492343902588e-03,1.366071403026580811e-02,-5.378311872482299805e-02,-5.609642341732978821e-02,-2.351334318518638611e-02,-5.383334308862686157e-02,7.486686855554580688e-02,-9.937316179275512695e-03,-5.770894885063171387e-02,-6.921858340501785278e-02,-5.581004172563552856e-02,3.762859851121902466e-02,4.038102179765701294e-02,2.618071436882019043e-02,-2.072649821639060974e-02,4.391966015100479126e-02,2.625338733196258545e-02,-7.309374213218688965e-02,5.245838314294815063e-02,-4.976788908243179321e-02,-4.265069589018821716e-02,-8.605986833572387695e-03,-2.742797508835792542e-02,3.883718699216842651e-02,-3.773507475852966309e-02,3.501988947391510010e-03,2.964706718921661377e-02,-3.487393632531166077e-02,1.650185137987136841e-02,-6.100228056311607361e-02,2.320205420255661011e-02,7.626026123762130737e-02,3.473058342933654785e-03,2.413555234670639038e-02,1.989052444696426392e-02,4.619136452674865723e-04,-6.869700551033020020e-02,-1.397894322872161865e-02,-6.058208644390106201e-03,-6.386552751064300537e-02,5.913158506155014038e-02,-7.008613646030426025e-02,1.253164559602737427e-02,1.171185821294784546e-02,-3.757975250482559204e-02,7.480987161397933960e-02,-4.794861748814582825e-02,-2.331887558102607727e-02,-1.396702975034713745e-02,6.440646201372146606e-02,-1.390114426612854004e-02,7.991046458482742310e-02,3.695699572563171387e-02,4.985272139310836792e-02,2.022954076528549194e-02,-1.428955048322677612e-02,-4.384942352771759033e-03,-7.253886759281158447e-02,-5.009721964597702026e-02,3.829267621040344238e-02,-7.035031914710998535e-02,-7.212056219577789307e-02,-1.752609014511108398e-02,-1.526422053575515747e-02,-4.335298761725425720e-02,4.430762678384780884e-02,-4.531307891011238098e-02,-6.552320718765258789e-02,-6.537650525569915771e-02,-5.732303112745285034e-02,7.856642454862594604e-02,-7.888247072696685791e-02,-5.309664830565452576e-02,3.416486084461212158e-02,-7.870398461818695068e-03,4.773645848035812378e-02,2.128852903842926025e-02,-7.612643390893936157e-02,-8.635558187961578369e-03,3.410662710666656494e-02,-3.436013683676719666e-02,-1.398410648107528687e-02,6.634230166673660278e-02,7.178858667612075806e-02,-1.219399273395538330e-03,1.163349300622940063e-02,4.951714724302291870e-02
2.580816298723220825e-02,-3.497401252388954163e-02,3.650198876857757568e-02,-1.943458616733551025e-02,-1.048687100410461426e-02,3.050413727760314941e-02,-3.842651844024658203e-03,-3.874494135379791260e-02,6.425183266401290894e-02,1.814649999141693115e-02,7.233919948339462280e-02,-4.417014494538307190e-02,7.285217195749282837e-02,-6.927261501550674438e-02,2.272169291973114014e-02,-7.608493417501449585e-02,3.190668672323226929e-02,-9.754762053489685059e-03,-1.296969503164291382e-02,4.118158668279647827e-02,-1.288806647062301636e-02,-4.552317038178443909e-02,-2.506502717733383179e-02,-1.834883540868759155e-02,7.532795518636703491e-02,-6.843632459640502930e-02,-4.784554615616798401e-02,-4.678301513195037842e-03,5.502653867006301880e-02,4.805483669042587280e-02,-7.339975237846374512e-02,7.870695739984512329e-02,2.512814849615097046e-02,-3.505093976855278015e-02,-5.948483943939208984e-03,-1.872042194008827209e-02,-2.562127634882926941e-02,-3.602419793605804443e-02,-1.954700052738189697e-02,1.631552726030349731e-02,7.778694480657577515e-02,3.677836805582046509e-02,-2.302806824445724487e-02,-3.507524728775024414e-02,8.041804283857345581e-02,-3.382467851042747498e-02,5.505169183015823364e-02,-7.114937901496887207e-02,6.198782473802566528e-02,-6.649992614984512329e-02,3.513281792402267456e-02,6.002903729677200317e-02,-2.196530997753143311e-02,2.586138248443603516e-02,6.113707274198532104e-02,-2.135157212615013123e-02,-5.746037513017654419e-02,-3.102990612387657166e-02,-4.221001639962196350e-02,6.163064390420913696e-02,-1.570786535739898682e-02,-5.128441751003265381e-02,-2.057790756225585938e-03,-3.464313223958015442e-02,7.661715894937515259e-02,-5.384353175759315491e-02,2.043679356575012207e-02,2.867922186851501465e-02,3.207587450742721558e-02,-2.039328217506408691e-02,-4.104480519890785217e-02,1.124148815870285034e-02,1.304875314235687256e-02,-2.100738883018493652e-02,8.502915501594543457e-03,2.115003019571304321e-02,-1.938807591795921326e-02,1.920591294765472412e-02,-6.073839217424392700e-02,3.979653865098953247e-02,1.309417188167572021e-02,-4.424685984849929810e-02,-2.656774967908859253e-02,3.610303997993469238e-02,-6.642150878906250000e-02,-6.744913011789321899e-02,-3.691082075238227844e-02,-3.813783451914787292e-02,-6.580223888158798218e-02,6.549619883298873901e-02,5.692393332719802856e-02,-7.039597630500793457e-02,-4.380445927381515503e-02,-7.519058138132095337e-02,-4.196146130561828613e-02,1.502094417810440063e-02,-1.948334276676177979e-03,-3.978447243571281433e-02,-3.953665122389793396e-02,6.205465644598007202e-02,3.674054890871047974e-02,4.589518159627914429e-02,-1.340260356664657593e-02,-7.399171590805053711e-05,-7.778432965278625488e-02,4.426516592502593994e-03,5.553033202886581421e-02,5.059468001127243042e-02,-5.906552821397781372e-02,3.638785332441329956e-02,-5.217502266168594360e-02,2.601423114538192749e-02,-1.971978694200515747e-02,-6.621313840150833130e-02,-7.853914052248001099e-02,4.220332205295562744e-02,6.245491653680801392e-02,-3.456662967801094055e-02,-8.348576724529266357e-03,1.548444479703903198e-02,-5.240567028522491455e-02,5.859703570604324341e-02,7.005358487367630005e-02,-7.451998442411422729e-02,2.345366775989532471e-02,-3.162109851837158203e-02,3.782561421394348145e-02,2.856884151697158813e-02
-7.654450833797454834e-02,2.456977218389511108e-02,-6.572678685188293457e-04,7.087861746549606323e-02,4.521510750055313110e-02,6.368652731180191040e-02,7.567217200994491577e-02,-7.032041996717453003e-02,-2.913177013397216797e-03,2.024716138839721680e-02,-2.463991567492485046e-02,-1.953779533505439758e-02,-1.061815768480300903e-02,-1.042015105485916138e-02,-7.881574332714080811e-03,-6.891801953315734863e-03,-6.749787926673889160e-02,-1.446586102247238159e-02,3.136438131332397461e-02,1.824334263801574707e-02,7.749084383249282837e-02,6.214676052331924438e-02,-4.096113145351409912e-02,7.826656103134155273e-03,-7.539623975753784180e-02,-1.506503671407699585e-02,-1.804649829864501953e-02,3.580302000045776367e-04,-5.640535429120063782e-02,6.974317878484725952e-02,-1.586525887250900269e-02,-4.436227306723594666e-02,5.729218572378158569e-02,3.947577625513076782e-02,1.066638529300689697e-02,-4.278608411550521851e-02,-9.360909461975097656e-04,4.868594557046890259e-02,3.238807618618011475e-02,-2.208926901221275330e-02,4.076571762561798096e-02,1.599571108818054199e-02,1.485477387905120850e-02,-2.301216125488281250e-03,-4.012117162346839905e-02,-6.197217106819152832e-02,-4.854035004973411560e-02,-2.120114862918853760e-03,-7.162395864725112915e-02,-2.535301446914672852e-02,7.547587901353836060e-02,7.455877959728240967e-03,2.330914884805679321e-02,-1.137927174568176270e-02,3.584860265254974365e-02,-1.811873167753219604e-02,4.744543880224227905e-02,4.483174532651901245e-02,-1.055946946144104004e-02,-2.231448888778686523e-05,7.714947313070297241e-02,-4.261552169919013977e-02,7.133547216653823853e-02,-8.038188517093658447e-02,-3.593800589442253113e-02,-5.938954278826713562e-02,1.031555235385894775e-02,-1.466798782348632812e-02,6.039086729288101196e-02,-2.123403176665306091e-02,7.710292935371398926e-03,-5.849669128656387329e-02,4.602430015802383423e-02,3.090846538543701172e-02,7.126567512750625610e-02,-1.423900574445724487e-02,5.480938404798507690e-02,-1.245241612195968628e-02,-6.504236161708831787e-02,3.945633769035339355e-03,6.203360855579376221e-03,-7.725670188665390015e-02,5.912236869335174561e-03,4.201311618089675903e-02,4.060093313455581665e-02,-1.371182501316070557e-03,-1.252100616693496704e-02,-4.733886197209358215e-02,-1.201474666595458984e-02,5.653470009565353394e-02,-6.302520632743835449e-04,-6.943491846323013306e-02,4.990812391042709351e-02,7.469869405031204224e-02,1.009348779916763306e-02,7.678515464067459106e-02,-2.436411008238792419e-02,-2.064216509461402893e-02,1.577667146921157837e-02,-5.518309772014617920e-02,-9.322613477706909180e-04,4.102397710084915161e-02,-3.927017003297805786e-02,-7.394695281982421875e-02,-6.912359595298767090e-02,-7.357944548130035400e-02,-5.280390381813049316e-02,3.459138423204421997e-02,2.380602061748504639e-03,4.306907951831817627e-02,-5.516812205314636230e-03,-1.979710161685943604e-02,-4.001525416970252991e-02,1.887222379446029663e-02,3.837635368108749390e-02,-3.676518797874450684e-03,5.510777235031127930e-03,-8.079530298709869385e-02,-1.650404185056686401e-02,-3.926421329379081726e-02,-3.697685897350311279e-02,6.741406768560409546e-02,4.310943931341171265e-02,7.727456837892532349e-02,-3.938853740692138672e-02,-5.551020056009292603e-02,2.754181623458862305e-03,-7.936768978834152222e-02
-5.542151629924774170e-02,-5.564090982079505920e-02,3.561254590749740601e-02,-7.008491456508636475e-02,2.438760548830032349e-02,-6.750352680683135986e-02,5.677536875009536743e-02,5.175761133432388306e-02,-2.906546369194984436e-02,-3.401488810777664185e-02,-1.594833284616470337e-02,6.096421927213668823e-02,2.067150175571441650e-02,-1.844985783100128174e-02,-6.450980156660079956e-02,-1.353232562541961670e-02,3.459414839744567871e-02,-2.237354218959808350e-02,-7.031945139169692993e-02,-3.437272459268569946e-02,-6.651496887207031250e-02,2.014324069023132324e-02,-8.887648582458496094e-03,3.054022043943405151e-02,-6.080247461795806885e-02,-1.098457723855972290e-02,-4.026951640844345093e-02,-7.726000994443893433e-02,-2.347383275628089905e-02,2.490445971488952637e-02,-3.122427687048912048e-02,4.189302027225494385e-02,-4.932324215769767761e-02,3.507868945598602295e-02,4.328876733779907227e-03,-3.849118575453758240e-02,4.391977936029434204e-02,7.533683627843856812e-02,1.543666422367095947e-02,6.149544566869735718e-02,4.552071541547775269e-02,-1.226502656936645508e-02,7.752109318971633911e-02,1.852233707904815674e-02,5.287002772092819214e-02,-3.374597057700157166e-02,5.422651022672653198e-02,-2.568311989307403564e-02,7.311474531888961792e-02,-4.006982594728469849e-02,5.260609835386276245e-02,-1.811981201171875000e-05,3.062904626131057739e-02,3.574179857969284058e-02,7.847168296575546265e-02,-7.811969518661499023e-02,-2.496512606739997864e-02,-7.652528584003448486e-02,2.328466624021530151e-02,-2.804428711533546448e-02,1.256309449672698975e-03,-5.352181941270828247e-02,-7.784535735845565796e-02,-3.302695229649543762e-02,2.537979930639266968e-02,-6.300880014896392822e-02,3.598480671644210815e-02,-6.258726865053176880e-02,-1.768663525581359863e-03,-6.893516331911087036e-02,-2.134108915925025940e-02,3.744363039731979370e-02,-2.885937690734863281e-02,3.190316259860992432e-03,-7.670345157384872437e-02,7.418184727430343628e-02,1.750424504280090332e-03,-7.784514874219894409e-02,2.773098647594451904e-02,-7.475791871547698975e-02,4.375302046537399292e-02,1.009515672922134399e-02,1.153893768787384033e-03,1.111532747745513916e-02,1.647456735372543335e-02,7.921794801950454712e-02,7.937482744455337524e-02,1.843029260635375977e-02,-2.246120199561119080e-02,-4.610819369554519653e-02,2.211243659257888794e-02,1.088713109493255615e-02,-2.306012809276580811e-02,-3.096007555723190308e-02,1.265196502208709717e-02,2.403735369443893433e-02,6.628417223691940308e-02,5.133850127458572388e-02,1.594111323356628418e-03,5.650859326124191284e-02,3.030245751142501831e-02,7.580956071615219116e-02,-8.066252619028091431e-02,-2.870525047183036804e-02,6.842140108346939087e-02,-3.251808509230613708e-02,3.332694619894027710e-02,-5.604127049446105957e-02,-4.855247586965560913e-02,5.439656227827072144e-02,7.670342922210693359e-03,-7.553290575742721558e-02,4.767744988203048706e-02,6.740240007638931274e-02,4.144079983234405518e-02,-6.023478135466575623e-02,2.695488184690475464e-02,3.743689507246017456e-02,-8.832477033138275146e-03,-9.087763726711273193e-03,2.494858950376510620e-02,-7.428252696990966797e-02,-2.712387964129447937e-02,5.541983991861343384e-02,-3.013245388865470886e-02,-7.544799149036407471e-02,-1.871411874890327454e-02,-1.484189182519912720e-02
4.570684581995010376e-02,-6.992783397436141968e-02,-8.042385429143905640e-02,1.687318831682205200e-02,-3.707641363143920898e-02,2.189766615629196167e-02,-4.168507829308509827e-02,-4.725154861807823181e-02,-7.460229098796844482e-02,-4.319133982062339783e-02,-1.509650051593780518e-02,-6.157511845231056213e-02,-1.372982561588287354e-02,5.783397704362869263e-02,-2.588429674506187439e-02,-3.553385660052299500e-02,-7.965428382158279419e-02,3.164588660001754761e-02,-3.736257553100585938e-03,6.797298043966293335e-02,-2.114144340157508850e-02,-6.488110125064849854e-02,4.930802434682846069e-02,7.125364989042282104e-02,4.915269464254379272e-02,-2.430802956223487854e-02,2.828402072191238403e-02,2.968195080757141113e-02,4.256383329629898071e-02,9.692683815956115723e-03,1.506610214710235596e-02,-1.074405014514923096e-02,-7.773468643426895142e-02,-7.258048653602600098e-02,3.045357018709182739e-02,8.593879640102386475e-03,6.795786321163177490e-03,1.479045301675796509e-02,-5.907230079174041748e-03,-2.584082260727882385e-02,-2.109192311763763428e-03,6.980925053358078003e-02,-7.275888323783874512e-02,6.815187633037567139e-03,-3.813914954662322998e-02,-5.881227552890777588e-02,8.134424686431884766e-03,4.299327731132507324e-02,-5.604918301105499268e-02,2.430535852909088135e-03,6.374857574701309204e-02,-6.159668415784835815e-02,5.325376987457275391e-04,-4.332751780748367310e-02,3.975387662649154663e-02,-6.391012668609619141e-02,-2.934795990586280823e-02,-5.401852354407310486e-02,-5.293902009725570679e-02,-1.547721773386001587e-02,1.384808123111724854e-02,3.610979020595550537e-02,-4.179281368851661682e-02,-4.611296951770782471e-02,1.900395750999450684e-02,-7.177309691905975342e-02,-3.210482746362686157e-02,1.342564821243286133e-03,-3.997541964054107666e-02,1.678375154733657837e-02,1.867648214101791382e-02,-1.197180151939392090e-02,-4.918228462338447571e-02,-4.830513894557952881e-02,4.488585144281387329e-02,-3.675691783428192139e-03,-1.977578923106193542e-02,4.904375225305557251e-02,7.278058677911758423e-02,-5.976766347885131836e-02,3.947755694389343262e-02,4.271669685840606689e-02,6.647595018148422241e-02,-3.608878701925277710e-02,-2.637270465493202209e-02,4.345048964023590088e-02,6.657352298498153687e-02,4.500793665647506714e-02,5.379393696784973145e-03,-5.925332382321357727e-02,-2.826014161109924316e-02,-7.107929140329360962e-02,5.389746278524398804e-02,5.968490988016128540e-02,8.085703104734420776e-02,-3.936218097805976868e-02,-7.485057413578033447e-02,-7.813963294029235840e-02,6.620223075151443481e-02,5.703342705965042114e-02,2.527906745672225952e-02,6.853682547807693481e-02,-5.890423059463500977e-02,6.462033838033676147e-02,4.922645539045333862e-02,-3.444693982601165771e-03,-6.435660272836685181e-02,-1.210749894380569458e-02,-8.055803924798965454e-02,3.927361220121383667e-02,6.750731915235519409e-02,1.503852754831314087e-02,-1.119002699851989746e-02,-5.939824506640434265e-02,-2.784320712089538574e-02,5.746992677450180054e-02,8.059754222631454468e-02,-6.174109876155853271e-02,-2.063997834920883179e-02,-9.073279798030853271e-03,2.568288892507553101e-02,3.276401013135910034e-02,-4.928547516465187073e-02,-3.693493455648422241e-02,2.030158042907714844e-02,7.349971681833267212e-02,7.195957750082015991e-02,-5.199063196778297424e-02
5.991502851247787476e-02,-1.615587621927261353e-02,-3.801321983337402344e-02,5.238804966211318970e-02,-3.930084407329559326e-03,-7.432683557271957397e-02,8.071582764387130737e-02,-4.200182855129241943e-03,1.064565777778625488e-02,-2.882588282227516174e-02,-1.196569204330444336e-02,8.849322795867919922e-03,-6.758885085582733154e-02,4.122845828533172607e-03,-3.077143058180809021e-02,-5.102366209030151367e-02,-8.133128285408020020e-03,3.477701544761657715e-02,4.418652504682540894e-02,-1.402531564235687256e-02,2.827569097280502319e-02,-5.577743798494338989e-02,-4.046195000410079956e-02,-2.699516341090202332e-02,1.100011169910430908e-02,-7.223897427320480347e-02,-7.408997416496276855e-02,-4.494381323456764221e-02,7.833945006132125854e-02,-2.582459896802902222e-02,7.621353119611740112e-02,-4.835785552859306335e-02,-4.390188679099082947e-02,6.198205798864364624e-02,-2.669103071093559265e-02,2.369038760662078857e-03,1.211455464363098145e-02,-2.609510347247123718e-02,5.804286152124404907e-02,6.218437105417251587e-02,6.577656418085098267e-02,-1.751112192869186401e-02,-1.558585464954376221e-02,6.794912368059158325e-02,-6.641650199890136719e-02,-3.290044143795967102e-02,-7.193315774202346802e-02,3.343806415796279907e-02,6.248893588781356812e-02,-3.862864151597023010e-02,-1.967277377843856812e-02,4.617210477590560913e-02,-4.745429381728172302e-02,7.591515034437179565e-02,6.232187151908874512e-04,5.892548710107803345e-02,1.719284802675247192e-02,-4.882027208805084229e-02,8.866414427757263184e-03,-7.486708462238311768e-02,-3.786054253578186035e-02,3.035336732864379883e-03,-3.243923187255859375e-03,5.247836560010910034e-02,-3.090525418519973755e-02,5.477873235940933228e-02,-6.618961691856384277e-03,-2.720050513744354248e-03,-4.130235314369201660e-02,3.865167498588562012e-03,-7.447692006826400757e-02,-1.671144366264343262e-02,-4.991719871759414673e-02,-7.911304384469985962e-02,6.469059735536575317e-02,8.051328361034393311e-03,3.501918911933898926e-02,2.392818778753280640e-02,2.776692062616348267e-02,4.159072786569595337e-02,6.597948819398880005e-02,7.902451604604721069e-02,4.784929007291793823e-02,-1.836165785789489746e-02,-4.024700447916984558e-02,2.412974834442138672e-02,-3.574988245964050293e-02,-2.865530550479888916e-03,-2.020969986915588379e-03,6.963520497083663940e-02,-5.349511280655860901e-02,2.236682921648025513e-02,-8.055155724287033081e-02,7.449737936258316040e-02,3.022603690624237061e-02,6.578860431909561157e-02,3.802149742841720581e-02,7.165054231882095337e-02,4.221759736537933350e-02,1.626484096050262451e-02,4.561416059732437134e-02,-2.628384530544281006e-02,-5.457324534654617310e-02,8.044718950986862183e-02,3.831481933593750000e-02,7.953613251447677612e-02,2.868730574846267700e-02,-6.917139887809753418e-02,5.831055343151092529e-03,5.614132434129714966e-02,-6.573650985956192017e-02,5.560457706451416016e-03,-2.337886393070220947e-02,-6.487055867910385132e-02,6.436658650636672974e-02,-1.304671913385391235e-02,6.961432844400405884e-02,-4.285375028848648071e-02,4.395475238561630249e-02,6.985027343034744263e-02,3.798670321702957153e-02,5.557053536176681519e-02,-7.540033757686614990e-02,3.877742588520050049e-02,6.744154542684555054e-02,-3.037586808204650879e-02,-6.702677905559539795e-02,-6.800197064876556396e-02
-1.701012253761291504e-02,-2.009048312902450562e-02,-6.036075204610824585e-02,-2.222585678100585938e-02,-6.243021786212921143e-02,7.582988590002059937e-02,3.794062137603759766e-02,-1.176320016384124756e-02,-8.957684040069580078e-04,2.273872494697570801e-03,-4.425599053502082825e-02,1.813647896051406860e-02,-5.631701648235321045e-02,-1.426830142736434937e-02,-1.780730485916137695e-02,-2.350489050149917603e-02,5.136316269636154175e-02,4.318998754024505615e-02,-1.945050060749053955e-02,-6.679883599281311035e-02,5.428086966276168823e-02,6.331676989793777466e-02,-8.038274943828582764e-03,7.996723800897598267e-02,2.561866492033004761e-02,2.903144806623458862e-02,1.811884343624114990e-02,3.196887671947479248e-02,-5.705086514353752136e-02,-6.743654608726501465e-03,-1.028580963611602783e-02,6.874696165323257446e-02,1.606811583042144775e-02,4.054547101259231567e-02,3.521636128425598145e-02,-8.000072836875915527e-02,3.460936248302459717e-03,6.120457500219345093e-02,3.113251924514770508e-02,-5.102194845676422119e-03,4.238947480916976929e-02,3.600000590085983276e-02,-3.136062994599342346e-02,6.016442924737930298e-02,-2.168942987918853760e-02,-6.212912499904632568e-03,-2.088532596826553345e-02,6.733312457799911499e-02,7.623992860317230225e-03,1.358848065137863159e-02,-4.031774401664733887e-02,-2.404127642512321472e-02,3.226839005947113037e-02,-3.243837505578994751e-02,-1.057399064302444458e-02,-6.070342659950256348e-02,6.092425435781478882e-02,5.313081294298171997e-02,-2.360030636191368103e-02,6.790246814489364624e-02,-6.405438482761383057e-02,-5.202132463455200195e-02,5.999394506216049194e-02,3.666547685861587524e-02,-7.926186919212341309e-02,3.223329782485961914e-03,5.402811616659164429e-02,-3.532871603965759277e-02,-5.948051065206527710e-02,-4.872586205601692200e-02,1.485428959131240845e-02,-2.469852566719055176e-03,-6.241098046302795410e-02,-6.530547887086868286e-02,1.438555121421813965e-02,8.003283292055130005e-02,7.583073526620864868e-02,-3.317775577306747437e-02,5.266710370779037476e-02,4.378922283649444580e-03,-2.330222725868225098e-02,-6.267531216144561768e-02,5.242327600717544556e-02,2.026125788688659668e-02,-7.169979810714721680e-02,-2.548337355256080627e-02,3.611572831869125366e-02,-5.058796703815460205e-02,6.371559947729110718e-02,8.614301681518554688e-03,-8.172117173671722412e-03,8.439421653747558594e-04,-5.098173394799232483e-02,2.086049318313598633e-02,6.537475436925888062e-02,4.610144346952438354e-02,-3.129859268665313721e-02,4.817088693380355835e-02,-3.026227280497550964e-02,-6.204652786254882812e-02,-6.377965211868286133e-03,5.552517622709274292e-02,-6.472840905189514160e-03,6.541393697261810303e-03,-5.608247965574264526e-02,6.926815956830978394e-02,4.895046353340148926e-03,3.305122256278991699e-02,5.123514682054519653e-02,-4.779476299881935120e-02,2.924573421478271484e-02,6.055232137441635132e-02,-3.490532189607620239e-02,-4.169944673776626587e-02,2.099880576133728027e-02,-6.134517490863800049e-03,4.164963960647583008e-03,-3.558856248855590820e-02,5.556052178144454956e-02,2.489247173070907593e-02,1.898297667503356934e-02,-4.545196890830993652e-03,4.113165289163589478e-02,1.355268061161041260e-03,-5.294712632894515991e-02,-5.339652299880981445e-03,-3.923326730728149414e-04,3.628143668174743652e-02
4.221636056900024414e-02,-7.301465421915054321e-02,-3.685690462589263916e-02,-5.868723243474960327e-02,-6.188176572322845459e-02,7.851996272802352905e-02,-5.814411863684654236e-02,-4.406533390283584595e-02,-7.857551425695419312e-02,3.705725073814392090e-02,-7.508872449398040771e-02,-7.764911651611328125e-02,4.318623244762420654e-02,1.114069670438766479e-02,-3.690196201205253601e-02,-2.703266218304634094e-02,-7.738437503576278687e-02,-4.146568477153778076e-02,-5.178504437208175659e-02,-7.593442499637603760e-02,-3.441623598337173462e-02,-7.880921661853790283e-02,-6.696368008852005005e-02,-4.015441238880157471e-02,-2.589908987283706665e-02,1.234702020883560181e-02,8.096440881490707397e-02,-4.189953953027725220e-02,6.121892482042312622e-02,-1.763134449720382690e-02,-5.879116058349609375e-02,-5.429947003722190857e-02,-5.755922943353652954e-02,2.545533329248428345e-02,5.854751914739608765e-02,-2.339027822017669678e-03,1.162390410900115967e-02,2.625067532062530518e-02,4.331059753894805908e-02,-1.960969343781471252e-02,-7.189678400754928589e-02,5.440987646579742432e-03,-1.849107444286346436e-03,2.900377660989761353e-02,3.123503178358078003e-02,5.094394832849502563e-02,-7.740413397550582886e-02,-3.353543579578399658e-02,-1.314917206764221191e-02,-6.924724578857421875e-02,-4.491188749670982361e-02,5.288452655076980591e-02,7.622411102056503296e-02,-4.652321338653564453e-02,-5.224363505840301514e-02,7.846061140298843384e-02,-6.731619685888290405e-02,2.333533018827438354e-02,6.068461388349533081e-02,-4.687841609120368958e-02,6.771551817655563354e-02,6.033822149038314819e-02,-6.324382126331329346e-02,-6.165146827697753906e-03,-4.397869855165481567e-02,-1.083534955978393555e-02,6.066968291997909546e-02,-3.063898161053657532e-02,5.379878729581832886e-02,-6.731012463569641113e-02,6.654410809278488159e-02,5.893349647521972656e-03,-9.780928492546081543e-03,-3.684145212173461914e-02,4.545595496892929077e-02,5.365917831659317017e-02,-2.180803194642066956e-02,-2.549188211560249329e-02,-7.038319110870361328e-02,3.492781519889831543e-02,-5.576548725366592407e-02,-5.731599405407905579e-02,4.080495238304138184e-02,7.911849766969680786e-02,4.007268697023391724e-02,-3.220691531896591187e-02,4.398567229509353638e-02,7.746716588735580444e-02,7.045956701040267944e-02,-6.841432303190231323e-02,4.006273299455642700e-02,-1.368196308612823486e-02,5.099855363368988037e-03,-3.056706488132476807e-02,-2.067219838500022888e-02,5.325851589441299438e-02,-5.956061184406280518e-02,6.946485489606857300e-02,3.862239420413970947e-02,4.605007916688919067e-02,5.707986652851104736e-03,1.262400299310684204e-02,7.976961880922317505e-02,6.208992749452590942e-02,6.607682257890701294e-02,-2.366727590560913086e-02,2.554059773683547974e-02,-4.343714937567710876e-02,2.342825382947921753e-02,4.891725629568099976e-02,-1.563085615634918213e-02,9.710885584354400635e-03,3.957322239875793457e-02,7.248195260763168335e-02,-3.912122547626495361e-02,-2.471974119544029236e-02,3.905624896287918091e-02,2.401120960712432861e-03,4.158835113048553467e-02,8.107293397188186646e-02,3.301650285720825195e-04,6.686904281377792358e-02,-1.016825437545776367e-02,5.062171071767807007e-02,-5.861641466617584229e-02,6.769912689924240112e-02,-1.608913391828536987e-02,5.955562740564346313e-02
4.778086394071578979e-02,-4.070654138922691345e-02,-2.161933109164237976e-02,-4.211131483316421509e-02,-5.880125239491462708e-02,-7.677628099918365479e-02,6.454505771398544312e-02,-1.610070466995239258e-03,7.303296774625778198e-02,2.410447597503662109e-02,1.758880168199539185e-02,7.766553014516830444e-02,-1.036360859870910645e-02,2.173092961311340332e-02,-5.938165262341499329e-02,-5.600929260253906250e-03,1.767160743474960327e-02,-7.174427807331085205e-02,4.159748554229736328e-03,7.355020195245742798e-02,-4.871700704097747803e-02,2.428287267684936523e-02,-7.116033881902694702e-02,4.144085198640823364e-02,1.375436782836914062e-02,3.720514476299285889e-03,2.287398278713226318e-02,-6.889959424734115601e-02,6.759888678789138794e-02,6.553754210472106934e-04,-2.945178747177124023e-02,6.014617532491683960e-02,1.167049258947372437e-02,3.187791258096694946e-02,-7.630547136068344116e-02,2.791216969490051270e-02,4.808560758829116821e-02,-6.351225823163986206e-02,5.771795660257339478e-02,-3.714635968208312988e-03,-7.671062648296356201e-02,2.066092193126678467e-02,-1.941799372434616089e-02,2.187755703926086426e-02,1.246836781501770020e-02,3.826100379228591919e-02,2.090644091367721558e-02,-2.106964588165283203e-03,4.125406593084335327e-02,6.622403115034103394e-02,-9.825922548770904541e-03,3.773039579391479492e-02,-8.462615311145782471e-03,7.007745653390884399e-02,-6.088079512119293213e-02,-1.332090049982070923e-02,-3.222886100411415100e-02,-7.834902405738830566e-02,6.507638841867446899e-02,4.531674832105636597e-02,4.004246741533279419e-02,-5.482889711856842041e-03,-7.924361526966094971e-02,-4.000572115182876587e-02,2.292967587709426880e-02,-1.804833859205245972e-02,5.131406337022781372e-02,-5.133467912673950195e-02,-2.251115441322326660e-02,4.403851926326751709e-03,-4.406790435314178467e-02,-5.471310019493103027e-02,-7.771318405866622925e-02,1.138683408498764038e-02,-1.453907787799835205e-02,2.926592528820037842e-02,-4.815484210848808289e-02,-3.598681464791297913e-02,1.474924385547637939e-02,-7.887631654739379883e-03,-2.575169131159782410e-02,1.189046353101730347e-02,5.963785201311111450e-02,-2.009452506899833679e-02,-6.734500825405120850e-02,4.228814691305160522e-02,-1.836086809635162354e-02,6.864856928586959839e-02,-1.725662499666213989e-02,-6.008286029100418091e-02,-6.623736768960952759e-02,-1.327038556337356567e-02,-2.977665141224861145e-02,7.364467531442642212e-02,-7.814084738492965698e-02,9.671837091445922852e-03,8.060913532972335815e-02,-6.664229929447174072e-02,7.926592975854873657e-02,-4.474476352334022522e-02,5.693908780813217163e-02,3.841181844472885132e-02,-3.510767593979835510e-02,5.154719203710556030e-02,-4.875446483492851257e-02,-6.672577559947967529e-02,-1.281744241714477539e-02,5.456260591745376587e-02,7.601901143789291382e-02,4.113105684518814087e-02,-1.292991638183593750e-02,-3.927736356854438782e-02,1.863943040370941162e-02,-5.413306504487991333e-02,-5.314327031373977661e-02,-2.471562474966049194e-02,7.491834461688995361e-03,-2.639757096767425537e-02,5.154857784509658813e-02,-7.809557765722274780e-02,-6.972981244325637817e-02,3.081829100847244263e-02,7.644586265087127686e-03,-2.483443915843963623e-02,6.724566966295242310e-02,-5.613351613283157349e-02,3.138905763626098633e-02,-2.952967956662178040e-02
2.481222152709960938e-02,-4.627097770571708679e-02,-1.759949140250682831e-02,7.183433324098587036e-02,5.803005304187536240e-03,8.378864079713821411e-02,6.880709435790777206e-03,-4.419195652008056641e-02,3.571991249918937683e-02,-5.278765037655830383e-02,-7.325185090303421021e-02,-6.998873502016067505e-02,1.470233500003814697e-02,6.819158326834440231e-03,2.259947545826435089e-02,-6.411997973918914795e-02,-2.203199779614806175e-03,8.416144177317619324e-03,6.768389791250228882e-02,3.872355073690414429e-02,-9.740434587001800537e-03,-2.631203830242156982e-02,-1.852606981992721558e-02,-8.918583393096923828e-02,2.712482400238513947e-02,-3.774470649659633636e-03,-7.976213097572326660e-02,-9.272064268589019775e-02,-3.605822846293449402e-02,-4.495365545153617859e-02,3.838652744889259338e-02,-3.777558356523513794e-02,1.071699708700180054e-02,8.518034219741821289e-02,-1.331452862359583378e-03,1.027268990874290466e-01,2.416059374809265137e-02,1.388263516128063202e-02,-3.735253587365150452e-02,-9.561432898044586182e-02,-9.701018035411834717e-02,1.553065795451402664e-02,-2.496911585330963135e-02,8.010391145944595337e-02,1.974729448556900024e-02,-4.147165641188621521e-02,-1.685789413750171661e-02,-2.992276847362518311e-02,-3.824796155095100403e-02,-3.895350545644760132e-02,3.060295991599559784e-02,2.449887990951538086e-02,1.719119399785995483e-02,-5.586413666605949402e-02,-4.895207658410072327e-02,-4.509560018777847290e-02,-7.501176744699478149e-02,-2.981115505099296570e-02,-2.386178076267242432e-02,6.267558783292770386e-02,-5.110350623726844788e-02,1.076018884778022766e-01,9.434739127755165100e-03,1.005516946315765381e-01,-7.207342237234115601e-02,-1.771194487810134888e-02,7.404342293739318848e-03,-2.959290519356727600e-02,1.429820060729980469e-02,-8.423072844743728638e-02,7.867047935724258423e-02,3.067547827959060669e-02,6.160455942153930664e-02,-4.379201307892799377e-02,1.565700769424438477e-02,3.321072831749916077e-02,4.126369208097457886e-02,6.209056451916694641e-02,3.578137606382369995e-02,3.324666619300842285e-02,-5.803093314170837402e-03,-7.469667494297027588e-02,-9.674053639173507690e-03,-6.809095293283462524e-02,1.758182048797607422e-02,-1.053187325596809387e-01,-5.245506763458251953e-02,-7.580205798149108887e-03,-4.452123492956161499e-02,6.712756305932998657e-02,4.736957326531410217e-02,-1.030375063419342041e-01,-2.409888803958892822e-02,-5.843371152877807617e-02,1.021164506673812866e-01,-2.837853878736495972e-02,-7.477807253599166870e-02,-3.471558541059494019e-02,4.949427023530006409e-02,-2.412672527134418488e-02,2.554691582918167114e-02,7.718513906002044678e-02,-4.684835672378540039e-03,5.512814223766326904e-02,3.566262125968933105e-02,1.456385105848312378e-02,-6.461206823587417603e-02,2.417702972888946533e-02,1.985301077365875244e-02,-2.859331853687763214e-02,2.380948513746261597e-03,-1.610170491039752960e-02,5.699859559535980225e-02,1.572585105895996094e-02,-2.520790882408618927e-02,-3.122773766517639160e-02,-2.051023766398429871e-02,-5.293783172965049744e-02,3.616943582892417908e-02,-2.220079302787780762e-02,-7.751722633838653564e-02,7.831779867410659790e-02,1.351830363273620605e-02,3.964800387620925903e-02,1.025972440838813782e-01,-7.949656248092651367e-02,-7.121525704860687256e-02,-9.970155544579029083e-03
1.200132817029953003e-02,-3.997953981161117554e-02,7.417689077556133270e-03,7.770561426877975464e-02,3.398136422038078308e-02,5.742875859141349792e-02,-3.564340248703956604e-02,-3.388572856783866882e-02,7.114700973033905029e-02,-8.432865142822265625e-03,-5.994842946529388428e-02,3.996664658188819885e-02,1.099613960832357407e-02,7.647359371185302734e-02,-3.542422503232955933e-02,1.796178519725799561e-03,-4.725633934140205383e-02,-2.979567088186740875e-02,7.398433238267898560e-02,-2.609807997941970825e-02,5.431180447340011597e-02,2.997935563325881958e-02,-2.596984803676605225e-02,-5.434188619256019592e-02,-4.668032377958297729e-02,1.069925427436828613e-01,-6.198325008153915405e-02,-2.076532691717147827e-02,-4.104871675372123718e-02,-5.201399326324462891e-02,-3.781202062964439392e-02,2.726986445486545563e-02,-1.874362677335739136e-02,7.658073306083679199e-02,8.086720108985900879e-02,4.529510438442230225e-02,-8.020335435867309570e-02,7.672204077243804932e-02,5.195964127779006958e-03,1.988584920763969421e-02,-7.538936287164688110e-02,8.497368544340133667e-02,5.799502599984407425e-03,-6.637389957904815674e-02,-3.142435802146792412e-03,-4.680946469306945801e-02,-7.381699513643980026e-03,2.520515024662017822e-02,-1.404501218348741531e-02,1.786015927791595459e-02,1.217378303408622742e-02,4.757096618413925171e-02,-1.347559969872236252e-02,3.367411717772483826e-02,-3.864254802465438843e-03,-1.616780087351799011e-02,-5.967142805457115173e-02,2.815743349492549896e-02,2.828773856163024902e-02,4.400640726089477539e-03,4.308497160673141479e-02,-3.809751709923148155e-03,-7.691941689699888229e-03,8.658129721879959106e-02,6.283222883939743042e-02,5.830776691436767578e-02,7.190457731485366821e-02,1.670022867619991302e-02,6.789126247167587280e-02,4.149433516431599855e-04,1.009780690073966980e-01,-7.940110564231872559e-02,-7.241293322294950485e-03,-9.397560358047485352e-02,-6.037334352731704712e-02,-2.207719534635543823e-02,1.027779206633567810e-01,9.126846492290496826e-02,-7.567406632006168365e-03,1.165744140744209290e-01,6.571814417839050293e-03,-2.539988979697227478e-02,9.006078541278839111e-02,5.999678745865821838e-02,-4.021141305565834045e-02,-4.252533614635467529e-02,-5.522377789020538330e-02,-1.445654034614562988e-02,7.679253071546554565e-02,2.885557338595390320e-02,-2.302150614559650421e-02,-4.899262636899948120e-02,-9.511516243219375610e-02,1.611363887786865234e-02,6.858829408884048462e-02,-4.791449382901191711e-02,1.201874390244483948e-02,6.434522569179534912e-02,-7.772117108106613159e-02,5.149174481630325317e-02,-8.524261415004730225e-03,6.927489768713712692e-03,-3.300423175096511841e-02,1.362246721982955933e-01,5.833624396473169327e-03,-7.482467591762542725e-02,-9.130455553531646729e-02,1.958175003528594971e-02,4.546882957220077515e-02,2.660607732832431793e-02,-2.909355796873569489e-02,2.237890474498271942e-02,9.338318556547164917e-02,-4.983630776405334473e-02,1.117680780589580536e-02,-6.509758997708559036e-03,-7.399384677410125732e-02,-6.832361221313476562e-02,-9.881505370140075684e-02,-7.016049325466156006e-02,7.027740031480789185e-02,8.474005013704299927e-02,6.152772158384323120e-02,2.553799375891685486e-02,7.605590671300888062e-02,3.922790661454200745e-02,-7.785581052303314209e-02,5.648823454976081848e-02
6.879158318042755127e-03,-2.188598364591598511e-02,-4.231086373329162598e-02,1.774956285953521729e-02,-2.185272797942161560e-02,2.832693047821521759e-03,5.073917657136917114e-02,8.538585901260375977e-02,3.950390219688415527e-02,-3.118641301989555359e-02,-6.618095189332962036e-02,-4.112116619944572449e-02,8.089884370565414429e-02,-2.925345674157142639e-02,8.385005593299865723e-02,-1.243862509727478027e-02,4.980094730854034424e-03,4.963397607207298279e-02,4.704085737466812134e-02,1.102716475725173950e-02,4.606597870588302612e-02,-3.904495388269424438e-02,6.218911707401275635e-02,-5.946218967437744141e-03,-1.893998356536030769e-03,2.682535722851753235e-02,1.679427921772003174e-02,7.132554799318313599e-02,8.663510903716087341e-03,5.887938290834426880e-02,4.084378108382225037e-02,1.065653935074806213e-01,-7.344680279493331909e-02,8.990276604890823364e-02,-4.402084648609161377e-02,-1.124243717640638351e-02,-7.568626105785369873e-02,1.242937520146369934e-02,3.682167083024978638e-02,-2.626694552600383759e-02,7.605727761983871460e-02,8.308514952659606934e-03,-1.456869766116142273e-03,1.384384185075759888e-02,-3.067986667156219482e-02,1.570267789065837860e-02,2.218094281852245331e-02,-7.054652273654937744e-02,5.115931481122970581e-02,1.970930397510528564e-02,2.336253598332405090e-02,-7.254038006067276001e-02,-2.295751497149467468e-02,-2.654719911515712738e-02,4.878393560647964478e-02,-8.329217322170734406e-03,-9.352133609354496002e-03,-1.467781886458396912e-02,-8.062046021223068237e-02,5.699031800031661987e-02,-6.745545659214258194e-03,8.122827112674713135e-02,-4.960479959845542908e-02,-2.962021902203559875e-02,3.592177480459213257e-02,-6.149001419544219971e-03,-2.213639765977859497e-02,5.091432109475135803e-02,6.684755533933639526e-02,-2.426784019917249680e-03,9.465033188462257385e-03,-2.930274605751037598e-02,-9.166970849037170410e-03,-4.853663221001625061e-02,-8.868516422808170319e-03,-4.529901593923568726e-02,1.177651435136795044e-01,8.004211820662021637e-03,-3.007635660469532013e-02,-1.081690099090337753e-02,7.961347699165344238e-03,-7.319331169128417969e-03,3.564652055501937866e-02,2.814119122922420502e-02,2.601969987154006958e-02,1.229685544967651367e-01,-5.847154557704925537e-02,3.507082164287567139e-02,-2.431224659085273743e-02,-7.573833316564559937e-02,-3.487138450145721436e-02,1.104388386011123657e-02,-4.107790812849998474e-02,7.198967784643173218e-02,-3.386789932847023010e-02,-5.843550711870193481e-02,3.980296105146408081e-02,-1.899472810328006744e-02,-2.643207833170890808e-02,-5.163161456584930420e-02,2.990903705358505249e-02,-3.182596713304519653e-02,3.964819759130477905e-02,4.687066003680229187e-02,3.727883100509643555e-03,-5.768649652600288391e-02,4.346692189574241638e-02,5.728163570165634155e-02,6.692802160978317261e-02,6.899565458297729492e-02,-1.168735325336456299e-02,2.926172688603401184e-02,1.119565125554800034e-02,5.014151334762573242e-03,-2.376541309058666229e-02,2.663751505315303802e-02,1.705079525709152222e-02,-3.642426058650016785e-02,2.326782047748565674e-02,-5.020587891340255737e-02,7.968626171350479126e-02,-7.401309907436370850e-02,-6.534552574157714844e-02,-5.114308372139930725e-02,-2.345826476812362671e-02,-4.219676181674003601e-02,3.677899390459060669e-02,-3.088405914604663849e-02
-5.817370489239692688e-02,3.987166285514831543e-02,-2.782500535249710083e-02,3.769838809967041016e-02,-5.395495798438787460e-03,-5.610896274447441101e-02,-6.917589902877807617e-02,4.364489018917083740e-02,-4.725891724228858948e-02,8.269441872835159302e-02,6.784710288047790527e-02,2.876136638224124908e-02,-6.877115368843078613e-02,7.922050356864929199e-02,6.310538202524185181e-02,4.215747117996215820e-02,4.565169662237167358e-02,8.100012689828872681e-02,1.114632189273834229e-02,-6.963483989238739014e-02,1.137631386518478394e-02,6.216643005609512329e-02,-6.103034690022468567e-02,2.477609366178512573e-02,-4.553735256195068359e-02,-3.445754759013652802e-03,5.665544047951698303e-02,-4.387839138507843018e-02,1.635270193219184875e-02,3.563132137060165405e-02,1.677889004349708557e-02,1.639252342283725739e-02,-7.140444964170455933e-02,-1.737136766314506531e-02,-7.174465805292129517e-02,5.010140314698219299e-02,7.309088855981826782e-02,8.429949730634689331e-02,6.697849929332733154e-02,2.628523111343383789e-02,-7.803538441658020020e-02,5.492632091045379639e-02,-5.052837356925010681e-02,6.715070456266403198e-02,4.526214301586151123e-02,-6.963001191616058350e-02,6.252282857894897461e-02,-4.278250783681869507e-02,7.715050131082534790e-02,5.471766740083694458e-02,1.488217711448669434e-02,7.199490815401077271e-02,9.078117087483406067e-03,-4.471321776509284973e-02,-6.397848576307296753e-02,-4.779177904129028320e-02,-5.189495533704757690e-02,-3.550571948289871216e-02,3.586370497941970825e-02,-9.733736515045166016e-03,1.148291956633329391e-02,2.078234404325485229e-02,-3.967406600713729858e-02,7.626811414957046509e-02,7.161228358745574951e-02,-5.842442810535430908e-02,-5.186713859438896179e-02,-7.649189978837966919e-02,-8.969411253929138184e-03,1.736835838528349996e-04,-7.787624001502990723e-02,-5.660682171583175659e-02,-7.535379379987716675e-02,-6.135493889451026917e-02,1.706899609416723251e-03,4.292472451925277710e-02,-6.514619290828704834e-02,7.710561156272888184e-02,7.303559035062789917e-02,-4.548722505569458008e-02,-2.329775691032409668e-02,1.849079877138137817e-02,6.225204467773437500e-02,-1.451299618929624557e-02,4.538368433713912964e-03,-3.446182236075401306e-02,3.297221660614013672e-02,7.288754731416702271e-02,-8.074649423360824585e-02,-9.183814749121665955e-03,7.031320780515670776e-02,-1.390784233808517456e-02,-7.000590208917856216e-03,-4.267450422048568726e-02,7.780007272958755493e-02,-7.550545036792755127e-03,-2.555681578814983368e-02,-5.123184993863105774e-02,1.920076669193804264e-03,-8.259482681751251221e-03,2.868156135082244873e-02,7.141322642564773560e-02,1.141021400690078735e-02,-5.230429396033287048e-02,-2.380119264125823975e-02,3.533575683832168579e-02,2.629097178578376770e-02,4.821769148111343384e-02,9.433776140213012695e-04,3.035434521734714508e-02,2.952424436807632446e-02,2.818287163972854614e-02,-8.525064587593078613e-02,1.371560990810394287e-02,-7.405980676412582397e-02,7.982880622148513794e-02,6.439270824193954468e-02,-5.253007635474205017e-02,-2.491790056228637695e-02,-3.202855587005615234e-02,3.953884914517402649e-02,-2.062368206679821014e-02,-2.493754029273986816e-03,-6.744314730167388916e-02,4.546188563108444214e-02,-4.940249398350715637e-02,5.166277661919593811e-02,6.619492173194885254e-02
-7.168932259082794189e-02,6.006640940904617310e-02,-2.818777784705162048e-02,5.062671750783920288e-02,1.695342361927032471e-02,-1.639783382415771484e-02,6.474218517541885376e-02,-5.908507853746414185e-02,-4.524382948875427246e-02,4.810146987438201904e-03,6.602451950311660767e-02,9.003914892673492432e-03,3.511672466993331909e-02,7.116550952196121216e-02,2.185332030057907104e-02,3.227121382951736450e-02,6.312138587236404419e-02,3.126958757638931274e-02,3.143498301506042480e-02,-3.856790065765380859e-02,-5.623069033026695251e-02,-3.070177510380744934e-02,5.667944997549057007e-02,4.162739217281341553e-02,4.713536053895950317e-02,-7.555358111858367920e-03,-1.358416676521301270e-02,3.684253245592117310e-02,2.516084909439086914e-02,6.940222531557083130e-02,5.782852321863174438e-02,2.094893157482147217e-02,7.349305599927902222e-02,4.582301527261734009e-02,6.148361414670944214e-02,-7.019804418087005615e-02,-7.509067654609680176e-02,-1.404399424791336060e-02,-2.594356611371040344e-02,1.686719059944152832e-02,-1.331172883510589600e-03,1.731675118207931519e-02,5.192719399929046631e-03,2.248176187276840210e-02,-7.015643268823623657e-02,6.677243858575820923e-02,1.879729330539703369e-02,3.825258463621139526e-02,5.261649936437606812e-02,1.757673174142837524e-02,-1.600895822048187256e-02,3.133912384510040283e-02,7.369846850633621216e-02,5.826327949762344360e-02,-3.348594903945922852e-02,-1.072606444358825684e-02,4.176034033298492432e-02,-4.715435206890106201e-03,-5.727232992649078369e-02,3.830555826425552368e-02,-4.098853096365928650e-02,6.765384227037429810e-02,2.243673801422119141e-02,-6.881261616945266724e-02,6.692928820848464966e-02,1.452043652534484863e-02,-3.699505701661109924e-02,-3.904582560062408447e-02,7.949382811784744263e-02,-6.109078973531723022e-02,-2.394284680485725403e-02,8.994027972221374512e-03,-7.014904171228408813e-02,1.240122318267822266e-02,6.845159083604812622e-02,-3.562996536493301392e-02,2.067579329013824463e-02,-1.835013180971145630e-02,4.430647939443588257e-02,-4.244217276573181152e-02,-6.766504049301147461e-02,4.323522001504898071e-02,5.652683228254318237e-02,-7.485546171665191650e-03,4.165270924568176270e-02,-6.872288882732391357e-03,1.678168773651123047e-04,2.182425558567047119e-02,-4.604400694370269775e-02,-7.592228055000305176e-02,2.173449099063873291e-02,2.454304695129394531e-02,-1.308359950780868530e-02,-5.694100260734558105e-02,7.358586043119430542e-02,-5.275594443082809448e-02,2.388262748718261719e-02,-5.252318829298019409e-02,-6.040004640817642212e-02,-6.143122911453247070e-03,-1.088829338550567627e-02,8.785933256149291992e-03,-4.749975726008415222e-02,-1.269116252660751343e-02,-3.512773290276527405e-02,-7.052074372768402100e-02,4.584684967994689941e-03,5.078888684511184692e-02,-2.383607998490333557e-02,-1.128233224153518677e-02,-7.521587610244750977e-02,-7.166019827127456665e-02,-4.233416914939880371e-02,-2.324792370200157166e-02,-5.913922935724258423e-02,-7.780428230762481689e-02,-2.730946987867355347e-02,-6.225128471851348877e-02,-7.712960988283157349e-02,-4.033729434013366699e-02,3.382249176502227783e-02,7.616033405065536499e-02,1.820432394742965698e-02,2.074076980352401733e-02,-6.296600401401519775e-02,7.837755233049392700e-02,-4.069366306066513062e-02,-6.961097568273544312e-02
3.485123068094253540e-02,-3.819472715258598328e-02,1.345469802618026733e-02,-2.015580609440803528e-02,-2.107837796211242676e-02,-1.463437080383300781e-02,3.753343224525451660e-02,2.378396689891815186e-03,-1.747447252273559570e-02,4.143538326025009155e-02,-5.219753086566925049e-02,-1.048915088176727295e-02,-3.371733054518699646e-02,-7.029113918542861938e-02,6.884982436895370483e-02,6.198603659868240356e-02,-1.388254016637802124e-02,7.354155927896499634e-02,-2.204602956771850586e-02,1.104453206062316895e-02,3.679163753986358643e-02,5.743432790040969849e-02,-6.373588740825653076e-02,-4.795869439840316772e-02,-6.721830368041992188e-02,-4.794827103614807129e-02,1.262564957141876221e-02,2.461218088865280151e-02,7.852237671613693237e-02,-2.964596077799797058e-02,-6.274510920047760010e-02,-6.769880652427673340e-02,2.103525400161743164e-02,7.086645811796188354e-02,-6.328951567411422729e-02,1.878888159990310669e-02,6.339030712842941284e-02,4.645099490880966187e-02,-2.871169149875640869e-02,6.203316897153854370e-02,3.173293173313140869e-02,-2.460522204637527466e-02,6.377296894788742065e-02,-5.408423393964767456e-02,-5.974413082003593445e-02,1.230248808860778809e-02,6.320013850927352905e-02,1.309496909379959106e-02,-3.543538600206375122e-02,-1.324225217103958130e-02,4.839152842760086060e-02,4.847536236047744751e-02,-1.981400325894355774e-02,1.910312473773956299e-02,-3.342522680759429932e-02,-7.433164864778518677e-02,-3.068684414029121399e-02,-7.325794547796249390e-02,2.430033683776855469e-02,-1.679438352584838867e-02,-9.943678975105285645e-03,6.593912094831466675e-02,3.977975249290466309e-02,6.916434317827224731e-02,-1.966734230518341064e-02,-2.980511635541915894e-02,2.332031726837158203e-05,7.522735744714736938e-02,6.309968978166580200e-02,-2.228644117712974548e-02,5.709934979677200317e-02,-2.117025479674339294e-02,5.598051100969314575e-02,2.816414833068847656e-02,3.267281502485275269e-02,-3.640309348702430725e-02,-1.077584177255630493e-02,2.950020879507064819e-02,3.719463199377059937e-02,2.628943324089050293e-02,-2.389669418334960938e-03,3.845954686403274536e-02,7.290963083505630493e-02,4.081469774246215820e-02,1.457117497920989990e-02,-3.347335755825042725e-02,-6.567675620317459106e-02,1.469501852989196777e-02,5.169228464365005493e-02,1.505097746849060059e-02,1.859164983034133911e-02,-4.391124472022056580e-02,6.879442185163497925e-02,3.903851658105850220e-02,6.283134967088699341e-02,4.473111778497695923e-02,3.281399607658386230e-03,3.529141098260879517e-02,-2.078573405742645264e-02,2.066647261381149292e-02,1.856981217861175537e-02,4.019837081432342529e-02,-4.346830025315284729e-02,4.141086339950561523e-02,6.020828336477279663e-02,-7.798946648836135864e-02,3.147675842046737671e-02,-4.681937769055366516e-02,2.049534767866134644e-02,5.293037742376327515e-02,-2.857332304120063782e-02,1.387213915586471558e-02,3.900316357612609863e-02,7.304509729146957397e-02,3.386348485946655273e-03,5.750336498022079468e-02,3.818869590759277344e-02,7.473994046449661255e-02,5.385830253362655640e-02,-2.226576954126358032e-02,-5.886667221784591675e-02,7.051608711481094360e-02,4.593155533075332642e-02,-4.170163348317146301e-02,5.109525471925735474e-02,6.231380254030227661e-02,3.003296256065368652e-02,4.450155049562454224e-02
-8.077122271060943604e-03,-2.309851720929145813e-02,-5.507729575037956238e-02,-1.058624684810638428e-02,-5.817511677742004395e-02,-4.143114760518074036e-02,7.448258250951766968e-02,-5.163550376892089844e-02,6.023249775171279907e-02,-8.091025054454803467e-03,1.582451164722442627e-03,-3.457529470324516296e-02,3.189506381750106812e-02,-8.098771423101425171e-02,5.706229060888290405e-02,-4.756469652056694031e-02,-6.146210432052612305e-02,4.283145070075988770e-03,-6.521661579608917236e-02,-6.598541140556335449e-02,-3.239246457815170288e-02,7.616189867258071899e-02,8.082402497529983521e-02,-8.036146312952041626e-02,6.424152106046676636e-02,9.374685585498809814e-03,3.750087320804595947e-02,-7.749868184328079224e-02,-1.961725577712059021e-02,7.779061794281005859e-03,-4.716799035668373108e-02,7.742965966463088989e-02,4.129774868488311768e-03,3.393018990755081177e-02,-7.410073280334472656e-02,7.505094259977340698e-02,-1.527473330497741699e-03,-5.416497215628623962e-02,1.024371385574340820e-02,1.669117808341979980e-02,1.035322248935699463e-02,-1.403929293155670166e-02,-2.346874773502349854e-02,-4.079145565629005432e-02,5.396162718534469604e-02,-2.206418663263320923e-02,-7.671770453453063965e-02,7.786684483289718628e-02,-5.676046013832092285e-03,4.051652550697326660e-02,7.778517156839370728e-02,7.647700607776641846e-03,2.966724336147308350e-03,-6.334172934293746948e-02,-1.218001544475555420e-02,-4.116988554596900940e-02,-5.000224709510803223e-02,5.602576583623886108e-02,-3.416762501001358032e-02,5.924000591039657593e-02,-5.795856565237045288e-02,-5.143351852893829346e-03,-1.694555580615997314e-02,3.883968293666839600e-02,-3.925634175539016724e-02,4.687424749135971069e-02,2.472189068794250488e-02,-6.035514175891876221e-02,-5.047918856143951416e-02,-6.201883405447006226e-02,8.017218858003616333e-02,-6.947309523820877075e-02,-1.221755146980285645e-02,4.021010547876358032e-02,1.690407097339630127e-02,-2.598355710506439209e-02,3.246621787548065186e-02,-1.672089099884033203e-03,4.375694692134857178e-02,-5.108960345387458801e-02,-4.707396775484085083e-02,-6.865104287862777710e-02,-2.601660788059234619e-02,3.373929858207702637e-02,-6.053194403648376465e-03,2.503377944231033325e-02,-6.388130784034729004e-02,7.929768413305282593e-02,5.321013182401657104e-02,2.110818028450012207e-02,2.768701314926147461e-02,-5.793182179331779480e-02,-4.024131968617439270e-02,-2.415227890014648438e-02,-1.021712273359298706e-02,-6.110256910324096680e-02,7.701318711042404175e-02,6.996513158082962036e-02,-7.991594821214675903e-02,-7.491599023342132568e-02,-5.416858941316604614e-02,-2.363109216094017029e-02,-5.862024426460266113e-02,-6.950674206018447876e-02,-4.919357597827911377e-03,3.593423217535018921e-02,1.322608441114425659e-02,1.343218982219696045e-02,-6.028009206056594849e-02,2.361531555652618408e-02,-6.537026166915893555e-02,-1.793619245290756226e-02,-5.021802335977554321e-02,-3.721951693296432495e-02,-3.063325956463813782e-02,-6.784088164567947388e-02,2.186311036348342896e-02,1.784346997737884521e-02,-4.531423747539520264e-02,-3.870113939046859741e-02,-2.120937779545783997e-02,4.185748100280761719e-02,5.979119986295700073e-02,2.962224185466766357e-03,6.833996623754501343e-02,-1.285535097122192383e-02,7.417245954275131226e-02,-4.631613567471504211e-02
7.226509600877761841e-02,-3.211817145347595215e-02,-3.910645097494125366e-02,6.824912875890731812e-02,6.760019809007644653e-02,-6.950057297945022583e-02,-6.221631914377212524e-02,4.386495053768157959e-02,5.323896557092666626e-02,5.648111552000045776e-02,8.264146745204925537e-03,7.161622494459152222e-02,7.089848071336746216e-02,-7.264633476734161377e-02,-9.359717369079589844e-04,-5.137735605239868164e-02,-4.279755428433418274e-02,4.516229778528213501e-02,5.575995892286300659e-02,6.727202981710433960e-02,-7.154463231563568115e-02,2.600486576557159424e-02,-3.009513393044471741e-02,-4.377245903015136719e-03,-6.138467788696289062e-02,-4.950846359133720398e-02,-6.350233405828475952e-02,-2.261712774634361267e-02,-5.092888325452804565e-02,-3.571536391973495483e-02,-6.041826307773590088e-02,1.231575012207031250e-02,-2.334337681531906128e-02,7.749392837285995483e-02,-1.336980611085891724e-02,-7.228985428810119629e-03,5.467850714921951294e-02,1.855550706386566162e-02,-8.241884410381317139e-03,7.919911295175552368e-02,3.512308746576309204e-02,2.162909507751464844e-02,-7.335810363292694092e-02,2.945207059383392334e-03,-8.109591901302337646e-03,2.239891141653060913e-02,5.739524215459823608e-02,-2.045781165361404419e-02,-7.312431931495666504e-02,3.293678164482116699e-03,-2.034497261047363281e-02,-5.998080968856811523e-02,9.823627769947052002e-03,4.504352807998657227e-03,-1.534178853034973145e-02,4.718661308288574219e-03,1.796910911798477173e-02,-2.809860929846763611e-02,-3.913118690252304077e-02,5.146668106317520142e-02,-4.192593693733215332e-02,5.437195301055908203e-03,6.623568385839462280e-02,-1.806430518627166748e-03,-5.574170127511024475e-02,-3.619371727108955383e-02,4.660398513078689575e-02,7.536465674638748169e-02,-6.084173172712326050e-02,-5.068460106849670410e-02,4.360881447792053223e-02,-6.784424930810928345e-02,-4.299813136458396912e-02,2.068471163511276245e-02,1.933924853801727295e-03,-5.129598081111907959e-02,5.391674488782882690e-02,4.609070718288421631e-03,4.405351728200912476e-02,-4.255808517336845398e-02,7.480094581842422485e-02,2.563245594501495361e-02,2.261766791343688965e-02,7.793176919221878052e-02,3.408572822809219360e-02,4.280542582273483276e-02,2.483710646629333496e-02,-3.499360010027885437e-02,-7.518636435270309448e-02,-1.537162810564041138e-02,-6.540686637163162231e-02,-4.333045706152915955e-02,-3.818713128566741943e-03,-4.997813329100608826e-02,3.746014088392257690e-02,3.677104413509368896e-02,4.125539958477020264e-02,-1.454643905162811279e-03,-7.255555689334869385e-02,-4.560667276382446289e-02,5.652252584695816040e-02,7.703388482332229614e-02,2.113233506679534912e-02,6.024766713380813599e-02,-4.355890303850173950e-02,-8.040224760770797729e-02,-4.342765361070632935e-02,-7.023882865905761719e-02,-1.190043985843658447e-02,4.748239368200302124e-02,-6.915902346372604370e-02,5.798086524009704590e-03,1.016794145107269287e-02,-3.946415334939956665e-02,-5.660088360309600830e-02,-1.113652437925338745e-02,-4.021233320236206055e-02,-6.731723994016647339e-02,1.232770085334777832e-02,1.878655701875686646e-02,4.577071219682693481e-02,8.990280330181121826e-03,-1.538588106632232666e-02,-7.677774876356124878e-02,-2.622447535395622253e-02,7.476412504911422729e-02,3.540419042110443115e-02,-7.240949571132659912e-02
-7.038213312625885010e-03,4.920751601457595825e-02,3.987292200326919556e-02,-6.181135773658752441e-02,2.857545018196105957e-02,-8.714765310287475586e-03,-7.271976023912429810e-02,9.113833308219909668e-03,-3.248548135161399841e-02,-5.877690762281417847e-02,1.237010955810546875e-02,-1.029483973979949951e-02,3.069347888231277466e-02,-3.444054350256919861e-02,-4.403645917773246765e-02,-1.791486889123916626e-02,-2.678124234080314636e-02,-2.616512402892112732e-02,-3.627025708556175232e-02,-2.518850192427635193e-02,1.652275770902633667e-02,-3.203942626714706421e-02,-7.183715701103210449e-03,-4.216426238417625427e-02,-3.959565237164497375e-02,-2.882393077015876770e-02,1.561604440212249756e-03,-7.484604418277740479e-02,-2.643381059169769287e-02,5.317603796720504761e-02,4.659235477447509766e-03,-7.040876150131225586e-02,1.829376071691513062e-02,2.627074718475341797e-04,-4.285119846463203430e-02,-2.592192590236663818e-02,-5.127415060997009277e-02,-6.547814607620239258e-02,-7.692009955644607544e-02,-4.539679363369941711e-02,-4.322427138686180115e-02,-6.352151930332183838e-02,5.438566207885742188e-03,-6.552628427743911743e-02,-4.059229046106338501e-02,-3.938685730099678040e-02,-6.516650319099426270e-04,8.059925585985183716e-02,-2.287877351045608521e-02,6.406968086957931519e-02,6.855577975511550903e-02,2.527590841054916382e-02,-4.631354659795761108e-02,7.679571956396102905e-02,-2.567690983414649963e-02,6.281874328851699829e-02,5.153887718915939331e-02,6.693381816148757935e-02,-2.515301853418350220e-02,5.703874677419662476e-02,-6.015766039490699768e-02,-8.704535663127899170e-03,-1.138161122798919678e-02,7.075287401676177979e-03,-3.640485182404518127e-02,1.665301620960235596e-03,6.682619452476501465e-03,3.177628666162490845e-02,-7.796699553728103638e-02,-4.926273226737976074e-02,2.439127862453460693e-02,-2.580669149756431580e-02,-3.059647977352142334e-03,1.356061547994613647e-02,-6.054272502660751343e-02,2.955220639705657959e-02,6.834427267313003540e-02,1.335695385932922363e-03,7.744774967432022095e-02,-3.661324083805084229e-02,2.932972460985183716e-02,-3.396996855735778809e-02,-5.758531764149665833e-02,1.559965312480926514e-03,1.494804024696350098e-02,-1.928595080971717834e-02,-7.042236626148223877e-03,6.944511085748672485e-02,2.404414117336273193e-02,7.595632225275039673e-02,7.822342216968536377e-03,-5.919956415891647339e-02,4.244234412908554077e-02,-4.351266473531723022e-02,2.753588557243347168e-02,7.046625763177871704e-02,5.512566119432449341e-02,1.136003434658050537e-02,-5.431897938251495361e-03,-7.391403615474700928e-02,-4.014164954423904419e-02,2.229645848274230957e-02,1.511096954345703125e-02,-9.939521551132202148e-03,8.009479194879531860e-02,1.965805888175964355e-02,7.180288434028625488e-03,-4.900367558002471924e-02,-7.532447576522827148e-02,4.017639905214309692e-02,7.847868651151657104e-02,3.942237794399261475e-02,-1.949612051248550415e-02,-5.340602248907089233e-02,2.519482374191284180e-02,-7.127223163843154907e-02,-4.236104711890220642e-02,-5.248892307281494141e-02,6.371129304170608521e-02,1.062022894620895386e-02,-7.460416108369827271e-02,-3.364139050245285034e-02,-6.743279099464416504e-02,4.952421039342880249e-02,2.841192483901977539e-02,1.911542564630508423e-02,-3.505629673600196838e-02,-4.503599926829338074e-02
-4.583775997161865234e-03,-6.288190186023712158e-02,-4.172189906239509583e-02,-5.290947109460830688e-02,5.932473391294479370e-02,-3.337388485670089722e-02,-5.789772793650627136e-02,4.213235527276992798e-02,2.457139641046524048e-02,1.837964355945587158e-02,-2.318503707647323608e-02,-6.172096729278564453e-02,7.664338499307632446e-02,-4.242513701319694519e-02,-2.055460214614868164e-02,5.565948784351348877e-03,-3.320353105664253235e-02,-1.526194065809249878e-02,-6.428528577089309692e-02,7.859272509813308716e-02,4.074968397617340088e-02,1.405776292085647583e-02,7.520074397325515747e-02,3.525708615779876709e-02,-4.418598487973213196e-02,3.009789437055587769e-02,-4.939241707324981689e-02,-2.448584511876106262e-02,3.271413594484329224e-02,6.345405429601669312e-02,-2.059648931026458740e-02,-4.518215730786323547e-02,2.826213091611862183e-02,-3.967766463756561279e-02,-3.669330105185508728e-02,3.389425575733184814e-02,-2.267090603709220886e-02,5.273398011922836304e-02,-8.925378322601318359e-03,-6.111972033977508545e-02,-3.864219784736633301e-02,-2.617792785167694092e-02,3.915055841207504272e-02,-7.672176510095596313e-02,-4.392676055431365967e-03,-4.573084414005279541e-02,-7.518670707941055298e-02,6.708248704671859741e-02,-6.954638659954071045e-02,-3.427542746067047119e-03,1.023060083389282227e-02,-2.909804880619049072e-02,-4.510267823934555054e-02,7.671736180782318115e-03,-5.937925726175308228e-02,6.070196628570556641e-03,2.404585480690002441e-03,2.028719335794448853e-02,-7.438823580741882324e-03,2.718154340982437134e-02,3.368236869573593140e-02,-7.864652574062347412e-02,-5.133104324340820312e-02,4.385814070701599121e-03,-1.321796327829360962e-02,-5.048069730401039124e-02,3.229979425668716431e-02,-2.986465767025947571e-02,-4.227856919169425964e-02,6.285004317760467529e-03,-6.586974859237670898e-02,3.445150703191757202e-02,4.143138229846954346e-02,3.183904290199279785e-02,-6.763396412134170532e-02,1.452766358852386475e-02,-3.029393032193183899e-02,4.774520546197891235e-02,7.734865695238113403e-02,-4.338771849870681763e-02,3.580093383789062500e-02,5.350001901388168335e-02,-7.116012275218963623e-03,-9.906798601150512695e-03,-4.316577315330505371e-02,-5.161063373088836670e-02,8.153200149536132812e-03,1.211968064308166504e-02,-4.088725894689559937e-02,-6.830155849456787109e-03,-5.997970700263977051e-02,1.442082226276397705e-02,-1.162599027156829834e-02,5.082225054502487183e-02,-3.347765281796455383e-02,4.809723049402236938e-02,-7.609681040048599243e-02,-7.058100402355194092e-02,-5.039487406611442566e-02,2.719119936227798462e-02,-5.819559842348098755e-02,-3.467537090182304382e-02,-3.386938944458961487e-02,1.052156090736389160e-03,-2.992520853877067566e-02,7.781023532152175903e-02,4.130131006240844727e-02,-3.973099961876869202e-02,4.554884880781173706e-02,-3.785106539726257324e-02,-6.361496448516845703e-02,7.685682922601699829e-02,-5.651518702507019043e-03,-7.423704862594604492e-02,-5.754031240940093994e-03,7.432240992784500122e-02,3.758377581834793091e-02,-3.808297216892242432e-02,-1.090219616889953613e-02,-2.628237381577491760e-02,7.174007594585418701e-03,-6.681498885154724121e-02,-4.787486046552658081e-02,-5.028089508414268494e-02,1.908093690872192383e-03,5.831540375947952271e-02,-2.252701297402381897e-02,2.026110887527465820e-04
3.411765396595001221e-02,-3.357204422354698181e-02,3.829012066125869751e-02,-9.733006358146667480e-03,4.066055268049240112e-02,4.847460240125656128e-02,-1.388636976480484009e-02,2.385671436786651611e-02,-6.053644046187400818e-02,5.194952338933944702e-02,-4.434049874544143677e-02,2.416494488716125488e-02,-3.620947897434234619e-02,4.649115353822708130e-02,3.077618777751922607e-02,-1.569883525371551514e-02,-1.579958200454711914e-02,-6.729304790496826172e-02,2.354320138692855835e-02,-4.163980856537818909e-02,6.633061915636062622e-02,-8.548498153686523438e-04,5.656110495328903198e-02,-7.919188588857650757e-02,3.894418478012084961e-05,3.327991813421249390e-02,4.699414223432540894e-02,3.192321956157684326e-02,3.319454193115234375e-02,-4.180260002613067627e-03,7.902964204549789429e-02,4.743393510580062866e-02,2.368034422397613525e-02,-1.941014081239700317e-02,1.023612916469573975e-02,1.867679506540298462e-02,-1.213822513818740845e-02,-6.361372768878936768e-02,3.597585111856460571e-02,2.243215590715408325e-02,1.963338255882263184e-02,3.581637144088745117e-02,-6.947845220565795898e-03,7.446133345365524292e-02,6.173153966665267944e-02,7.011684030294418335e-02,-2.561818063259124756e-02,7.928923517465591431e-02,5.941077321767807007e-02,-7.414348423480987549e-02,-1.068748533725738525e-02,3.048446774482727051e-02,-6.699717044830322266e-02,7.599450647830963135e-03,-2.703629434108734131e-03,2.646589279174804688e-02,-2.867374941706657410e-02,4.974678903818130493e-02,6.832767277956008911e-02,8.045063167810440063e-02,-2.640870958566665649e-02,-6.464385986328125000e-02,-1.559999585151672363e-02,8.408389985561370850e-03,4.916543513536453247e-02,-6.354004144668579102e-03,3.686141222715377808e-02,-3.070034086704254150e-03,-4.333349317312240601e-02,6.591230630874633789e-04,-2.319381386041641235e-02,-3.095667436718940735e-02,6.687334924936294556e-02,-1.415339112281799316e-02,2.227327227592468262e-02,-3.709120675921440125e-02,-1.415926963090896606e-02,-7.189637422561645508e-02,-6.610020250082015991e-02,-7.102473825216293335e-02,6.496082991361618042e-02,-5.432903766632080078e-02,-5.160883814096450806e-02,2.643661946058273315e-02,-5.542849749326705933e-02,2.526361495256423950e-02,6.317766755819320679e-02,2.710016816854476929e-02,7.206129282712936401e-02,4.066836833953857422e-02,-4.432477429509162903e-02,-1.914948225021362305e-02,5.161806195974349976e-02,-1.675420254468917847e-02,4.300209134817123413e-02,1.748603582382202148e-02,-6.429173052310943604e-03,-4.088449105620384216e-02,-4.006009921431541443e-02,-3.134705498814582825e-02,6.594298034906387329e-02,3.286143392324447632e-02,-5.330341309309005737e-02,-6.700180470943450928e-03,5.634290724992752075e-02,2.445351332426071167e-02,6.882289797067642212e-02,2.954293042421340942e-02,-3.220869228243827820e-02,3.680981695652008057e-02,6.388597190380096436e-03,6.432437151670455933e-02,-5.333429574966430664e-02,-1.456896960735321045e-02,-6.363391131162643433e-02,-1.406824588775634766e-02,7.908312231302261353e-02,-1.478314399719238281e-03,-4.912278056144714355e-02,1.981519162654876709e-03,5.635469406843185425e-02,-3.154674172401428223e-02,2.590429037809371948e-02,2.865367382764816284e-02,8.101932704448699951e-03,6.649103015661239624e-02,1.022219657897949219e-03,3.248828649520874023e-02
6.763657182455062866e-02,4.290805011987686157e-02,-3.354657441377639771e-02,7.095158845186233521e-02,-2.373807132244110107e-02,-1.624223589897155762e-02,-6.667554378509521484e-03,9.941257536411285400e-03,2.933683991432189941e-02,-3.138263896107673645e-02,3.609940409660339355e-03,-2.964441478252410889e-02,-5.658492818474769592e-02,-5.512244999408721924e-02,9.833350777626037598e-04,-5.409351736307144165e-02,-1.333136111497879028e-02,7.671219855546951294e-02,5.985797196626663208e-02,7.755217701196670532e-02,-2.502122521400451660e-02,6.750867515802383423e-02,7.504480332136154175e-02,5.277205258607864380e-02,-5.264310538768768311e-02,-8.108336478471755981e-02,5.602934211492538452e-02,-1.199725270271301270e-02,4.985398799180984497e-02,-6.837469339370727539e-02,7.816904038190841675e-02,2.531924843788146973e-02,-5.637166649103164673e-02,-3.504606708884239197e-02,7.949531078338623047e-03,-4.933378100395202637e-02,7.985279709100723267e-02,1.412693411111831665e-02,3.000731766223907471e-02,2.104927599430084229e-02,-5.875052884221076965e-02,-3.610089421272277832e-02,7.712494581937789917e-02,-2.782145142555236816e-02,5.392715334892272949e-03,4.008628427982330322e-02,6.829617172479629517e-02,6.384599953889846802e-02,8.020097762346267700e-02,-4.102786630392074585e-02,2.694523334503173828e-02,9.271577000617980957e-03,-5.793359875679016113e-02,-7.129402458667755127e-02,6.537874788045883179e-02,-3.699828684329986572e-02,-1.572300493717193604e-02,-3.168188035488128662e-02,-2.632435783743858337e-02,7.480517774820327759e-02,-4.560400545597076416e-02,-2.724751830101013184e-04,7.702571898698806763e-02,7.344266027212142944e-02,-1.832596957683563232e-03,-3.161199018359184265e-02,-1.581617444753646851e-02,1.768819987773895264e-02,3.845834732055664062e-02,1.170872151851654053e-02,-4.807345569133758545e-03,6.059700995683670044e-02,1.906941831111907959e-02,1.458398997783660889e-03,-5.585043877363204956e-02,2.732755243778228760e-02,2.698665857315063477e-02,7.674083858728408813e-02,6.912121921777725220e-02,-5.335643887519836426e-02,-5.361209064722061157e-02,-2.994761988520622253e-02,3.006921708583831787e-02,4.738343507051467896e-02,-5.302882939577102661e-02,-6.231598928570747375e-02,-5.309253931045532227e-03,-5.791631340980529785e-02,6.551618129014968872e-02,-7.518187165260314941e-03,-9.443126618862152100e-03,2.460431307554244995e-02,-2.209110558032989502e-02,-1.607996970415115356e-02,7.353291660547256470e-02,-4.935745149850845337e-02,-6.822277605533599854e-02,5.218238383531570435e-02,5.224203318357467651e-02,2.516106516122817993e-02,2.940442413091659546e-02,3.933407366275787354e-03,-2.521952241659164429e-02,-7.452721893787384033e-02,-1.136243343353271484e-03,5.490564554929733276e-02,4.778810590505599976e-02,6.530397385358810425e-02,-5.115024745464324951e-02,-3.400369361042976379e-02,5.999169498682022095e-02,-2.404348179697990417e-02,3.499920666217803955e-02,1.588088274002075195e-02,3.760002553462982178e-03,-6.914699077606201172e-02,-6.660112738609313965e-02,6.139863282442092896e-02,2.299946546554565430e-02,6.690823286771774292e-02,2.973942458629608154e-02,-6.329139322042465210e-02,-7.026147842407226562e-02,1.443991065025329590e-02,7.170104235410690308e-02,6.312272697687149048e-02,-4.188368096947669983e-02,-3.633819520473480225e-03
-7.989525794982910156e-02,-5.962535738945007324e-03,6.978391855955123901e-02,3.091633319854736328e-02,-7.914346456527709961e-02,-7.974915951490402222e-02,4.177815467119216919e-02,3.006490319967269897e-02,1.085700839757919312e-02,-3.822183981537818909e-02,-3.826223686337471008e-02,-5.402722582221031189e-02,-4.886403679847717285e-02,-4.191272705793380737e-02,1.782200485467910767e-02,5.434051901102066040e-02,4.828127473592758179e-02,4.772416502237319946e-02,5.208849906921386719e-03,6.709209829568862915e-02,7.147652655839920044e-02,5.811097472906112671e-02,2.759344875812530518e-03,2.022165060043334961e-02,-7.627606391906738281e-03,6.249739974737167358e-02,-1.644679903984069824e-02,4.440379887819290161e-02,4.061619192361831665e-02,7.904116064310073853e-02,9.254172444343566895e-03,4.772263020277023315e-02,-1.699706912040710449e-02,-6.893206387758255005e-02,3.277795761823654175e-02,6.777519732713699341e-02,-1.365703344345092773e-02,-5.357956141233444214e-02,-1.687400043010711670e-02,-4.657351225614547729e-02,-1.874877139925956726e-02,-1.019174605607986450e-02,-8.096605539321899414e-02,-3.600652143359184265e-02,-6.697802990674972534e-02,-8.061725646257400513e-02,7.675620168447494507e-02,7.635984569787979126e-02,-3.829739987850189209e-03,6.594636291265487671e-02,3.575286269187927246e-02,5.010720342397689819e-02,3.314815461635589600e-03,2.621491998434066772e-02,-5.146093666553497314e-02,1.125632226467132568e-02,2.351121604442596436e-02,7.139158993959426880e-02,-7.221685349941253662e-02,-5.869001150131225586e-03,-7.176431268453598022e-02,-3.189177811145782471e-02,3.318972140550613403e-02,-3.913530334830284119e-02,3.350602090358734131e-02,7.656178623437881470e-02,-3.806150704622268677e-02,-1.795096695423126221e-02,7.048236578702926636e-02,1.607873290777206421e-02,-4.621221125125885010e-02,3.692132234573364258e-02,-3.206328675150871277e-02,5.443031340837478638e-02,-3.130226954817771912e-02,6.704313308000564575e-02,8.233942091464996338e-03,-7.070047408342361450e-02,7.760011404752731323e-02,5.774706602096557617e-03,3.061953186988830566e-02,-6.771588325500488281e-02,7.549948245286941528e-02,5.682345479726791382e-02,-3.902070596814155579e-02,6.711611896753311157e-02,1.966504007577896118e-02,7.811046391725540161e-02,-4.019409418106079102e-02,4.276477545499801636e-02,-5.698064714670181274e-02,-8.040824532508850098e-02,5.597016960382461548e-02,-3.902308270335197449e-02,5.586149543523788452e-02,3.227111697196960449e-02,-2.586959674954414368e-02,8.239470422267913818e-03,2.557455003261566162e-02,-2.602211758494377136e-02,4.551314562559127808e-02,-5.126693472266197205e-02,4.153265058994293213e-02,2.973017841577529907e-02,2.479187399148941040e-02,2.134602516889572144e-02,-2.348176389932632446e-02,3.884627670049667358e-02,4.677414894104003906e-03,-4.244636744260787964e-02,-4.662427306175231934e-02,8.010435849428176880e-02,-2.454368770122528076e-02,-1.936398074030876160e-02,-7.217434793710708618e-02,-5.133792757987976074e-02,-6.128460168838500977e-02,-3.299970552325248718e-02,2.098134160041809082e-02,5.419451743364334106e-02,4.391586035490036011e-02,-1.143059879541397095e-02,4.088559746742248535e-02,1.139274984598159790e-02,-6.408275663852691650e-02,7.775262743234634399e-02,-5.005399882793426514e-02,-4.207314178347587585e-02
-2.060407027602195740e-02,7.029981166124343872e-02,1.527769863605499268e-02,1.493915915489196777e-04,5.890900641679763794e-02,9.729370474815368652e-03,7.683164626359939575e-02,-6.781525909900665283e-02,6.125370413064956665e-02,-4.699173942208290100e-02,-2.858773246407508850e-02,7.888955622911453247e-02,4.350558668375015259e-02,-4.896564036607742310e-02,-3.650630265474319458e-02,3.890927881002426147e-02,1.335389167070388794e-02,-5.269437283277511597e-02,-4.873269051313400269e-02,-7.626472413539886475e-02,-7.136695086956024170e-02,-3.582625091075897217e-02,-7.868517935276031494e-02,-6.940438598394393921e-02,4.076277464628219604e-02,-4.277212172746658325e-02,-6.918104737997055054e-02,2.848339825868606567e-02,-5.152577906847000122e-02,1.600778102874755859e-02,1.831974834203720093e-02,9.159795939922332764e-03,-5.856530368328094482e-02,6.634861975908279419e-02,1.251713931560516357e-02,-3.285646811127662659e-02,4.001819342374801636e-02,7.212332636117935181e-02,-5.248399078845977783e-02,-7.400047779083251953e-02,7.891275733709335327e-02,2.221291512250900269e-02,3.860586136579513550e-02,-1.622324436902999878e-02,2.048051357269287109e-02,-6.222672387957572937e-02,-2.558826282620429993e-02,-5.162514746189117432e-03,5.250230431556701660e-03,4.102981835603713989e-02,-3.748776018619537354e-02,-5.132056772708892822e-03,6.954871863126754761e-02,6.726723164319992065e-02,5.786835402250289917e-02,6.129740923643112183e-02,-6.184887140989303589e-02,4.226446151733398438e-03,2.063374966382980347e-02,-3.551136329770088196e-02,6.590437144041061401e-02,-4.652038961648941040e-02,2.711974084377288818e-02,-1.573029160499572754e-02,-7.282575219869613647e-02,-5.233379080891609192e-02,-7.930397242307662964e-02,3.362118452787399292e-02,2.749596536159515381e-02,1.356007158756256104e-02,6.027572602033615112e-02,-6.539621204137802124e-02,3.518075495958328247e-02,-5.277670919895172119e-03,-3.842328861355781555e-02,1.710834354162216187e-02,-3.622510284185409546e-02,1.291798800230026245e-02,3.175461292266845703e-02,-7.809735834598541260e-02,3.819325566291809082e-02,2.061286568641662598e-02,6.923101097345352173e-02,4.452563822269439697e-03,3.273755311965942383e-02,5.299750715494155884e-02,5.423793941736221313e-02,-1.988711953163146973e-02,4.345176368951797485e-02,-1.709812879562377930e-02,4.401091486215591431e-02,1.433224976062774658e-02,5.889297276735305786e-02,-7.390044629573822021e-02,-1.367571949958801270e-02,-3.355833142995834351e-02,5.802959203720092773e-03,-4.176355898380279541e-03,-3.945113718509674072e-02,2.186655998229980469e-03,7.080543786287307739e-02,8.575804531574249268e-03,-3.915541619062423706e-02,1.596921682357788086e-02,-5.480083823204040527e-02,1.143778860569000244e-02,-5.405389517545700073e-02,-2.565741911530494690e-02,-3.198461979627609253e-02,1.061529666185379028e-02,3.693841397762298584e-02,6.273768842220306396e-03,-5.617603659629821777e-03,-3.622396290302276611e-02,5.784677714109420776e-02,-1.478493213653564453e-03,-1.067365705966949463e-02,2.637599408626556396e-02,7.475242018699645996e-04,-8.003226667642593384e-02,-1.433921605348587036e-02,-5.786145105957984924e-02,-2.004233002662658691e-02,5.631258338689804077e-02,-6.461635231971740723e-02,-1.317336410284042358e-02,-6.431856751441955566e-02,-8.109606802463531494e-02
6.146905571222305298e-02,-6.983029097318649292e-02,1.847770810127258301e-02,5.306749790906906128e-02,7.704251259565353394e-02,-3.754020482301712036e-02,-2.739185094833374023e-02,3.453215211629867554e-02,-2.237422019243240356e-02,-2.685844153165817261e-02,5.496598035097122192e-02,6.564358621835708618e-02,5.402784794569015503e-02,-6.867169588804244995e-02,2.114956080913543701e-02,-2.549514919519424438e-02,-2.915933355689048767e-02,6.995379179716110229e-02,1.641897112131118774e-02,-7.135190814733505249e-02,-7.790387421846389771e-02,-6.073717027902603149e-02,5.690009146928787231e-02,5.917172878980636597e-02,-4.042135924100875854e-02,4.521623998880386353e-02,1.731402426958084106e-02,7.382258772850036621e-03,-3.275289013981819153e-02,3.993497788906097412e-02,7.758291810750961304e-02,-2.352797985076904297e-02,-5.676384642720222473e-02,6.855116039514541626e-02,-4.809972643852233887e-02,-7.870397716760635376e-02,-7.717615365982055664e-02,7.179426401853561401e-02,-8.088885992765426636e-02,7.691466063261032104e-02,7.284852117300033569e-02,-1.983072981238365173e-02,3.051935881376266479e-02,-7.109940797090530396e-02,7.828304916620254517e-02,1.878665387630462646e-02,-7.613509893417358398e-03,-1.917968690395355225e-02,-5.974583327770233154e-02,-2.341359481215476990e-02,-6.329640746116638184e-04,1.891477406024932861e-02,-1.058734953403472900e-02,-7.878160476684570312e-02,-1.556617021560668945e-02,7.010874897241592407e-02,-2.728246152400970459e-03,-4.725729301571846008e-02,-4.056382551789283752e-02,1.952054351568222046e-02,-4.859372600913047791e-02,5.801039189100265503e-02,1.181565970182418823e-02,-3.527300059795379639e-02,-3.058299794793128967e-02,-3.696542978286743164e-02,2.549700438976287842e-03,-3.013733029365539551e-02,-1.748489588499069214e-02,-1.109068840742111206e-02,-6.029716879129409790e-02,8.102419227361679077e-02,-4.432117938995361328e-02,-2.038573846220970154e-02,6.958618015050888062e-02,7.180806249380111694e-02,-3.531467542052268982e-02,7.474716752767562866e-02,1.367026567459106445e-02,-6.537432223558425903e-02,2.380699664354324341e-02,-3.708631545305252075e-02,-3.434271365404129028e-02,-7.442553341388702393e-02,1.237802207469940186e-03,7.205993682146072388e-02,-9.728789329528808594e-03,-6.505748629570007324e-02,3.660544753074645996e-04,7.456224411725997925e-02,5.103156715631484985e-02,-1.853357255458831787e-02,6.321584433317184448e-02,-4.628902301192283630e-02,1.071546971797943115e-02,-1.252951472997665405e-02,7.131911069154739380e-02,2.188228815793991089e-02,1.466127485036849976e-02,6.651207059621810913e-02,4.528418928384780884e-02,4.717060178518295288e-02,-5.039899423718452454e-02,5.379717797040939331e-02,-6.653372943401336670e-02,-4.000616446137428284e-02,-1.030791550874710083e-02,6.635757535696029663e-02,7.701022177934646606e-02,1.784913241863250732e-02,4.664815217256546021e-02,3.203272819519042969e-03,1.215273141860961914e-02,7.237020879983901978e-02,1.976770907640457153e-02,3.381988406181335449e-02,5.937285721302032471e-03,-3.016202524304389954e-02,-4.783686250448226929e-02,-8.960306644439697266e-03,3.876940160989761353e-02,-5.302028357982635498e-02,2.487684786319732666e-02,-3.386192396283149719e-02,6.088919192552566528e-02,-4.450572282075881958e-02,-3.664725646376609802e-02,-4.019892960786819458e-02
-3.706956654787063599e-02,3.018637001514434814e-02,-3.281548991799354553e-02,7.753530889749526978e-02,7.960215955972671509e-02,-5.521401762962341309e-02,5.602969974279403687e-02,5.335547775030136108e-02,-7.641036063432693481e-02,-2.892998233437538147e-02,4.600446671247482300e-02,2.147401869297027588e-02,3.783780336380004883e-02,-4.908737167716026306e-02,-6.149788200855255127e-02,-3.231664001941680908e-02,1.597043871879577637e-02,-3.955094143748283386e-02,-1.734937727451324463e-02,-5.853119492530822754e-02,-2.793356776237487793e-03,2.721105515956878662e-02,3.833378851413726807e-02,-5.174599587917327881e-03,7.773979753255844116e-02,2.685633301734924316e-02,-3.039032220840454102e-03,1.867449283599853516e-02,-6.169088184833526611e-03,5.887822061777114868e-02,-1.324521005153656006e-02,7.753226906061172485e-02,-6.143499165773391724e-02,-5.500518530607223511e-02,5.091894418001174927e-02,-1.198229938745498657e-02,-7.508477568626403809e-02,3.122790902853012085e-02,6.683692336082458496e-04,2.723795920610427856e-02,6.229998916387557983e-02,-4.558648541569709778e-02,7.672086358070373535e-03,-4.915126785635948181e-02,-7.426998019218444824e-02,-7.235685735940933228e-02,-3.314400836825370789e-02,4.673354327678680420e-03,-6.692964583635330200e-02,-2.135543897747993469e-02,8.736945688724517822e-03,-4.019566252827644348e-02,7.079087942838668823e-02,4.234337061643600464e-02,5.783967673778533936e-03,-2.993675321340560913e-02,-7.312016189098358154e-02,3.003210574388504028e-02,-4.114728048443794250e-02,-8.057440072298049927e-02,7.490415126085281372e-02,-5.606941133737564087e-02,5.258668214082717896e-02,-5.747336894273757935e-02,-4.044048488140106201e-02,-3.810281306505203247e-02,-6.888650357723236084e-03,8.090639859437942505e-02,-6.645338237285614014e-02,-3.370967507362365723e-02,2.779975533485412598e-02,7.758263498544692993e-02,-6.263731420040130615e-02,6.133951246738433838e-03,-5.336540937423706055e-02,1.808119565248489380e-02,-6.871373951435089111e-02,7.164811342954635620e-02,3.857880830764770508e-02,2.515773475170135498e-02,-5.605009198188781738e-02,5.458682775497436523e-03,6.373623758554458618e-02,7.297065109014511108e-02,-7.758860290050506592e-02,7.606532424688339233e-02,5.118367820978164673e-02,5.347349494695663452e-02,-5.812607705593109131e-02,-2.002948895096778870e-02,-4.403814300894737244e-02,5.359599739313125610e-02,-1.074191927909851074e-02,4.780717939138412476e-02,-5.610540509223937988e-03,7.765478640794754028e-02,-5.870146676898002625e-02,4.709206521511077881e-03,5.871533602476119995e-02,-2.202145755290985107e-03,-7.755339145660400391e-02,7.221242040395736694e-02,4.596348851919174194e-02,8.095458894968032837e-02,5.469106882810592651e-02,8.014956861734390259e-02,7.686381787061691284e-02,-7.814382761716842651e-02,-3.455789014697074890e-02,7.198848575353622437e-02,5.874899774789810181e-02,-1.378642767667770386e-02,-4.699173942208290100e-02,-7.772844284772872925e-02,4.660046845674514771e-02,2.427538484334945679e-02,-6.695254147052764893e-02,-4.722217470407485962e-02,-7.570221275091171265e-02,-5.782166868448257446e-02,4.990199953317642212e-02,7.481493800878524780e-02,-4.167254641652107239e-02,4.784620553255081177e-02,7.384002953767776489e-02,-7.903002202510833740e-02,-3.215245902538299561e-03,-4.801413789391517639e-02
-3.863558173179626465e-03,5.337113887071609497e-02,-5.979029089212417603e-02,4.328623414039611816e-03,2.292957901954650879e-02,5.369750410318374634e-02,-3.611216694116592407e-02,3.932818770408630371e-02,-5.628019571304321289e-04,-6.169945001602172852e-03,-5.086709558963775635e-02,8.923858404159545898e-04,-7.424242794513702393e-03,-1.110267639160156250e-02,-3.222167491912841797e-03,-2.586996555328369141e-02,-6.253045052289962769e-02,-6.311500817537307739e-02,-2.675424888730049133e-02,1.418804377317428589e-02,2.628910541534423828e-02,7.010083645582199097e-02,7.999772578477859497e-02,3.758634626865386963e-02,-5.217138677835464478e-02,5.150698125362396240e-03,4.670020192861557007e-02,2.669014036655426025e-03,3.464896976947784424e-02,-2.125604078173637390e-02,3.401104360818862915e-02,-1.235728710889816284e-02,-1.906433328986167908e-02,3.932628780603408813e-02,4.161778092384338379e-02,-6.956220418214797974e-02,1.726545393466949463e-03,2.058378607034683228e-02,2.535693347454071045e-03,6.379514187574386597e-02,6.484501063823699951e-03,7.860765606164932251e-02,-6.853295862674713135e-02,-4.090431332588195801e-02,-3.576094657182693481e-02,1.023964583873748779e-02,-4.676973447203636169e-02,-4.354134202003479004e-03,7.522324472665786743e-02,5.230218917131423950e-02,-4.927644506096839905e-02,4.486024379730224609e-03,-6.055459380149841309e-03,4.783575981855392456e-02,-5.475693941116333008e-02,3.680842369794845581e-02,-5.926904827356338501e-02,-6.541874259710311890e-02,-4.064661264419555664e-02,4.926860332489013672e-03,2.561978250741958618e-02,4.026640206575393677e-02,7.993764430284500122e-02,-7.517243921756744385e-02,4.861889034509658813e-02,2.673222124576568604e-02,4.358177632093429565e-02,-3.430593013763427734e-02,-1.052125543355941772e-02,-6.666436791419982910e-03,-2.683550864458084106e-02,4.063092917203903198e-02,5.401394516229629517e-02,-2.686985209584236145e-02,4.002732038497924805e-02,5.057767778635025024e-02,5.720996111631393433e-02,2.627320587635040283e-02,5.234471708536148071e-02,-5.518572777509689331e-02,-2.159389853477478027e-02,5.537699908018112183e-02,5.113441497087478638e-02,1.986356824636459351e-02,-6.548592448234558105e-02,6.649576872587203979e-02,-2.752035856246948242e-03,-5.954140424728393555e-02,6.001523882150650024e-02,3.535412251949310303e-03,3.066698461771011353e-02,1.452112942934036255e-02,1.578550785779953003e-02,9.059451520442962646e-03,6.507293134927749634e-02,-6.475905328989028931e-02,6.262097507715225220e-02,1.505695283412933350e-02,-4.996270313858985901e-02,4.856619983911514282e-02,-4.664823412895202637e-02,1.890603452920913696e-02,5.822659283876419067e-02,7.668452709913253784e-02,6.337789446115493774e-02,-1.819132268428802490e-02,2.804755419492721558e-02,4.346249997615814209e-02,-7.746013998985290527e-02,3.332374244928359985e-02,1.549138873815536499e-02,-1.381236314773559570e-02,6.299901753664016724e-02,-3.708967939019203186e-02,-5.846474692225456238e-02,-3.458958491683006287e-02,-7.657661288976669312e-02,-7.738928496837615967e-02,-3.074315935373306274e-02,-1.734761893749237061e-02,-5.670581012964248657e-02,7.479963451623916626e-02,-6.383462250232696533e-02,6.122773140668869019e-02,1.825369149446487427e-02,-7.032109797000885010e-02,-4.775885120034217834e-02,1.634532958269119263e-02
5.387648940086364746e-03,-6.043389439582824707e-04,-2.304896712303161621e-03,4.927749186754226685e-02,-1.871100440621376038e-02,7.029972225427627563e-02,6.882559508085250854e-02,-6.292632222175598145e-02,7.420817762613296509e-02,-6.195745617151260376e-02,6.988250464200973511e-02,6.446529179811477661e-02,7.561682909727096558e-02,-2.254921197891235352e-02,-1.377835869789123535e-04,5.594206601381301880e-02,-7.840795069932937622e-02,-2.127207070589065552e-02,3.270670771598815918e-03,-5.633915960788726807e-02,3.087323158979415894e-02,-4.560818150639533997e-02,-5.708886682987213135e-02,2.876318991184234619e-02,-3.994480520486831665e-02,-3.919214010238647461e-02,4.057840257883071899e-02,4.496365785598754883e-03,4.173038899898529053e-02,4.346318542957305908e-03,5.729611963033676147e-02,1.347823441028594971e-02,3.499300032854080200e-02,5.005171149969100952e-02,3.198875486850738525e-02,-7.229265570640563965e-02,6.255326420068740845e-02,-4.866895079612731934e-02,-4.673757776618003845e-02,7.130260020494461060e-02,-6.912579387426376343e-02,3.359378129243850708e-02,-4.079627245664596558e-02,2.064841240644454956e-02,-5.667208880186080933e-02,-6.953079998493194580e-02,9.681485593318939209e-03,2.010612934827804565e-02,1.530908793210983276e-02,4.194792360067367554e-02,3.258600085973739624e-02,-1.044780761003494263e-02,-1.607078313827514648e-02,1.710283011198043823e-02,-5.691398680210113525e-02,5.862385034561157227e-03,2.184659242630004883e-04,-1.936761662364006042e-02,6.087600439786911011e-02,-1.262137293815612793e-02,-7.585200667381286621e-02,-2.741983160376548767e-02,-4.705511033535003662e-02,-6.325660645961761475e-02,5.421014875173568726e-02,-2.363039553165435791e-02,3.578387945890426636e-02,-5.766816437244415283e-03,-7.291229069232940674e-02,-2.665475010871887207e-03,2.871414273977279663e-02,-5.591947957873344421e-02,1.001443713903427124e-02,5.540167540311813354e-02,-3.572551533579826355e-02,6.975211203098297119e-03,5.216833204030990601e-02,4.990171641111373901e-02,-4.593565687537193298e-02,-2.439959719777107239e-02,4.206582903861999512e-02,-7.221932709217071533e-02,-1.820380240678787231e-02,-7.681008428335189819e-02,5.157872289419174194e-02,-5.081960186362266541e-02,2.262648940086364746e-02,-6.936252117156982422e-02,-4.228356108069419861e-02,4.874401539564132690e-02,8.131466805934906006e-03,2.440059930086135864e-02,-4.588570445775985718e-02,2.836234122514724731e-02,6.830396503210067749e-02,-7.184807211160659790e-02,-1.390441507101058960e-02,6.367441266775131226e-02,-1.741019636392593384e-02,4.204109311103820801e-02,6.062112748622894287e-03,-1.647619158029556274e-02,-6.248612701892852783e-02,1.332565397024154663e-02,2.438731491565704346e-03,-7.273998856544494629e-02,1.671355217695236206e-02,-1.111478358507156372e-02,-2.555908262729644775e-02,-2.886289730668067932e-02,4.618164151906967163e-02,-7.475049793720245361e-02,1.405505836009979248e-02,-1.071123033761978149e-02,6.620541214942932129e-03,3.144765645265579224e-02,-8.254766464233398438e-03,-2.682819589972496033e-02,-2.165740728378295898e-02,3.230953961610794067e-02,-1.994612067937850952e-02,3.463123738765716553e-02,5.596487969160079956e-02,-4.311620816588401794e-02,7.555723935365676880e-02,7.572405785322189331e-02,-7.829249650239944458e-02,-4.649414494633674622e-02
